{"p10": "tree\nversion=v4\nnum_class=1\nnum_tree_per_iteration=1\nlabel_index=0\nmax_feature_idx=12\nobjective=quantile\nfeature_names=hora_decision doy_sin doy_cos mes max_hasta_ahora temp_actual temp_lag1 temp_lag2 temp_lag3 tasa_subida humedad_actual nubosidad_actual forecast_max\nfeature_infos=[6:16] [-0.9999994220246925:0.99998555065071859] [-0.99997919295908233:0.9999907524084426] [1:12] [22.600000000000001:34.700000000000003] [22:34.700000000000003] [22:34.700000000000003] [22:34.700000000000003] [22:34.700000000000003] [-5.5999999999999979:3.6999999999999993] [33:100] [0:100] [25.100000000000001:34.700000000000003]\ntree_sizes=404 678 1102 1605 2200 1958 2048 2231 2302 2497 2841 2821 2828 2845 2857 2853 2824 2857 2873 2850 2868 2865 2846 2844 2848 2857 2859 2850 2876 2866 2865 2854 2850 2855 2866 2852 2871 2855 2871 2873 2874 2880 2870 2892 2854 2872 2882 2887 2887 2898 2896 2902 2884 2920 2908 2895 2897 2898 2898 2900 2905 2900 2896 2900 2907 2900 2892 2888 2887 2885 2867 2868 2883 2876 2885 2907 2908 2893 2901 2923 2905 2908 2922 2923 2926 2922 2895 2906 2909 2901 2913 2909 2922 2924 2921 2934 2929 2930 2926 2926 2918 2915 2920 2920 2922 2909 2914 2916 2914 2916 2903 2901 2893 2908 2919 2909 2925 2917 2950 2946 2910 2939 2928 2920 2930 2926 2923 2926 2927 2926 2927 2931 2924 2910 2900 2922 2917 2928 2898 2924 2926 2931 2920 2930 2931 2926 2916 2905 2903 2922 2912 2927 2931 2925 2923 2937 2929 2930 2925 2918 2932 2929 2908 2934 2928 2926 2911 2935 2930 2920 2915 2907 2937 2921 2929 2928 2944 2914 2923 2944 2920 2923 2913 2920 2904 2929 2904 2906 2893 2894 2919 2913 2920 2931 2920 2927 2933 2932 2928 2933 2921 2937 2942 2941 2917 2908 2917 2915 2909 2902 2915 2911 2921 2916 2908 2923 2910 2915 2912 2916 2921 2937 2920 2927 2915 2926 2914 2919 2917 2935 2914 2912 2915 2905 2908 2890 2912 2898 2912 2895 2894 2916 2909 2926 2922 2901 2944 2931 2908 2904 2943 2919 2940 2907 2900 2922 2900 2903 2943 2903 2911 2932 2916 2901 2916 2896 2913 2924 2925 2903 2902 2922 2904 2916 2885 2919 2938 2930 2917 2908 2908 2909 2913 2897 2921 2908 2891 2887 2892 2882 2905 2889 2897 2883 2880 2885 2876 2898 2877 2885\n\nTree=0\nnum_leaves=3\nnum_cat=0\nsplit_feature=12 1\nsplit_gain=2423.81 4.54747e-13\nthreshold=27.750000000000004 0.30983042691905771\ndecision_type=2 2\nleft_child=1 -1\nright_child=-2 -3\nleaf_value=27.620000743865965 27.725000762939452 27.645000743865968\nleaf_weight=2299 23243 407\nleaf_count=2299 23243 407\ninternal_value=27.7 27.655\ninternal_weight=0 2706\ninternal_count=25949 2706\nis_linear=0\nshrinkage=1\n\n\nTree=1\nnum_leaves=6\nnum_cat=0\nsplit_feature=12 1 1 1 1\nsplit_gain=2247.83 4.54747e-13 2.84217e-14 2.84217e-14 1.42109e-14\nthreshold=27.650000000000002 0.51297097409535064 0.99966190462023474 -0.25205528343633254 -0.39826117949089107\ndecision_type=2 2 2 2 2\nleft_child=1 -1 3 4 -2\nright_child=2 -3 -4 -5 -6\nleaf_value=-0.076000018119811941 0.013749961853027416 -0.037250056266784702 0.1587499427795411 0.038749961853027419 0.033749942779541089\nleaf_weight=2277 7282 209 231 14861 1089\nleaf_count=2277 7282 209 231 14861 1089\ninternal_value=0 -0.045 0.005 0.005 0.005\ninternal_weight=0 2486 23463 23232 8371\ninternal_count=25949 2486 23463 23232 8371\nis_linear=0\nshrinkage=0.05\n\n\nTree=2\nnum_leaves=11\nnum_cat=0\nsplit_feature=12 12 1 0 1 1 1 1 7 7\nsplit_gain=1993.35 0.387767 5.10714 2.27374e-13 1.13687e-13 2.84217e-14 2.84217e-14 1.42109e-14 4.44089e-16 1.11022e-16\nthreshold=27.550000000000004 27.650000000000002 0.46800856592688472 12.500000000000002 0.83376496542330847 0.99966190462023474 -0.25205528343633254 -0.39826117949089107 27.250000000000004 27.550000000000004\ndecision_type=2 2 2 2 2 2 2 2 2 2\nleft_child=3 2 8 -1 -5 6 7 -3 -2 -10\nright_child=1 5 -4 4 -6 -7 -8 -9 9 -11\nleaf_value=-0.072200017213821258 0.001549982786178461 0.013062463760376099 -0.00038751530647278547 -0.072200017213821258 -0.035387553453445443 0.15081244564056409 0.036812463760375995 0.03206244564056409 0.0027999827861787453 0.0020499828308820581\nleaf_weight=1386 232 7282 22 772 20 231 14861 1089 29 25\nleaf_count=1386 232 7282 22 772 20 231 14861 1089 29 25\ninternal_value=0 0.00497686 0.00321429 -0.045 -0.045 0.005 0.005 0.005 0.005 0.005\ninternal_weight=0 23771 308 2178 792 23463 23232 8371 286 54\ninternal_count=25949 23771 308 2178 792 23463 23232 8371 286 54\nis_linear=0\nshrinkage=0.05\n\n\nTree=3\nnum_leaves=17\nnum_cat=0\nsplit_feature=12 12 1 1 12 12 2 1 1 12 1 9 4 4 4 4\nsplit_gain=1677.49 30.0151 85.0805 16.6721 43.2123 3.01961 2.06076 3.3 1.56614 3.92857 2.84217e-14 1.77636e-15 4.44089e-16 4.44089e-16 4.44089e-16 2.22045e-16\nthreshold=27.450000000000003 27.850000000000005 0.52766072109828632 0.056951373111866731 27.750000000000004 27.650000000000002 0.96849880583763492 -0.03977009085991149 0.99995780822346225 31.350000000000005 0.99865421017599998 0.40000000000000041 25.750000000000004 33.550000000000004 31.150000000000002 32.150000000000013\ndecision_type=2 2 2 2 2 2 2 2 2 2 2 2 2 2 2 2\nleft_child=-1 2 3 6 5 12 11 -8 10 -10 -3 -2 -5 14 -12 -16\nright_child=1 8 -4 4 -6 -7 7 -9 9 -11 13 -13 -14 -15 15 -17\nleaf_value=-0.07859005450010291 0.0014099645733834266 0.022409378719329888 -0.0017775335192681042 0.00015996457338314231 -2.8197574615518309e-05 -0.001028120326995996 -2.8197574615518309e-05 0.00022187967300411061 -0.0017281575679778173 0.16827182335853585 0.10997184057235715 0.0014099645733834266 0.00015996457338314231 0.29080177235350252 0.16997187871932981 0.23197182997763477\nleaf_weight=1837 477 22418 110 38 66 33 22 33 22 55 232 337 116 22 73 58\nleaf_count=1837 477 22418 110 38 66 33 22 33 22 55 232 337 116 22 73 58\ninternal_value=0 0.00456661 -0.00303571 0.00107843 -0.0102174 0.00205882 0.00436709 -0.005 0.00497596 -0.00214286 0.005 0.005 0.005 0.005 0.005 0.005\ninternal_weight=0 24112 1232 1122 253 187 869 55 22880 77 22803 814 154 385 363 131\ninternal_count=25949 24112 1232 1122 253 187 869 55 22880 77 22803 814 154 385 363 131\nis_linear=0\nshrinkage=0.05\n\n\nTree=4\nnum_leaves=24\nnum_cat=0\nsplit_feature=12 12 1 12 2 2 12 12 1 1 3 12 1 12 1 1 1 4 4 4 4 4 6\nsplit_gain=1460.57 27.4336 67.3922 12.2077 18 6.74872 24.75 5.98889 15.6444 3.66667 1.71993 3.66667 1.56614 3.92857 1.46667 2.27374e-13 2.84217e-14 1.42109e-14 1.77636e-15 4.44089e-16 4.44089e-16 2.22045e-16 1.11022e-16\nthreshold=27.350000000000005 27.850000000000005 0.30983042691905771 27.550000000000004 -0.85225707553516283 -0.96687281075841669 27.750000000000004 27.650000000000002 0.52766072109828632 0.46800856592688472 11.500000000000002 27.750000000000004 0.99995780822346225 31.350000000000005 0.96687895796550427 -0.065535378769913874 0.99865421017599998 26.950000000000003 24.550000000000004 33.550000000000004 31.150000000000002 32.150000000000013 23.150000000000002\ndecision_type=2 2 2 2 2 2 2 2 2 2 2 2 2 2 2 2 2 2 2 2 2 2 2\nleft_child=15 2 5 4 -4 6 -2 9 -9 -5 18 -12 16 -14 -10 -1 -3 -6 22 20 -18 -22 -7\nright_child=1 12 3 7 17 10 -8 8 14 -11 11 -13 13 -15 -16 -17 19 -19 -20 -21 21 -23 -24\nleaf_value=-0.079660570848584022 0.00015138144433493041 0.021288909783363331 0.00015196634471390525 0.0014644854182002121 -0.002848049867749225 0.00033944822490230566 -2.6787695884777919e-05 -0.00097671431064618743 -0.0009392436510326619 -0.00027926286518589196 0.00033944822490230566 -2.6787695884777919e-05 -0.0016417496895789086 0.15985823219060899 6.0679101347815847e-05 -0.069660532701611363 0.10447324854373932 -0.0035292800313234452 0.00033944822490230566 0.27626168373582732 0.16147328478336329 0.22037323847875304 0.00033944822490230566\nleaf_weight=1210 99 22418 22 44 48 22 33 44 33 22 44 22 22 55 22 374 232 51 921 22 73 58 58\nleaf_count=1210 99 22418 22 44 48 22 33 44 33 22 44 22 22 55 22 374 232 51 921 22 73 58 58\ninternal_value=0 0.00454853 -0.00203704 -0.0238462 -0.0359091 0.00316514 -0.0075 -0.015 -0.0227778 -0.00333333 0.00448454 -0.00333333 0.00497596 -0.00214286 -0.005 -0.045 0.005 -0.045 0.005 0.005 0.005 0.005 0.005\ninternal_weight=0 24365 1485 286 121 1199 132 165 99 66 1067 66 22880 77 55 1584 22803 99 1001 385 363 131 80\ninternal_count=25949 24365 1485 286 121 1199 132 165 99 66 1067 66 22880 77 55 1584 22803 99 1001 385 363 131 80\nis_linear=0\nshrinkage=0.05\n\n\nTree=5\nnum_leaves=21\nnum_cat=0\nsplit_feature=12 12 1 12 1 12 1 1 1 1 12 1 1 1 1 4 4 4 4 4\nsplit_gain=1464.57 19.4293 60.9849 31.4286 8.04156 15.4 18.8571 3.31746 9.77778 1.56614 3.92857 2.27374e-13 2.84217e-14 1.77636e-15 4.44089e-16 4.44089e-16 4.44089e-16 2.22045e-16 1.11022e-16 1.11022e-16\nthreshold=27.350000000000005 27.850000000000005 0.52766072109828632 27.750000000000004 -0.24372957273992746 27.750000000000004 0.35846314187849709 0.30983042691905771 0.3744682635859638 0.99995780822346225 31.350000000000005 -0.065535378769913874 0.99865421017599998 -0.40614700388750385 0.074116354202380205 33.550000000000004 31.150000000000002 32.150000000000013 27.450000000000003 25.950000000000003\ndecision_type=2 2 2 2 2 2 2 2 2 2 2 2 2 2 2 2 2 2 2 2\nleft_child=11 2 4 -4 13 7 -7 14 -9 12 -11 -1 -3 -2 -6 16 -14 -18 -10 -15\nright_child=1 9 3 -5 5 6 -8 8 18 10 -12 -13 15 19 -16 -17 17 -19 -20 -21\nleaf_value=-0.075677542306154783 0.00032247581365716374 0.020224464294195246 -0.0027056473743616752 5.7645146280371762e-05 0.00014381237211811282 -2.5448311090592313e-05 2.2048019647513684e-05 -0.0009278785951138957 0.00014436802747823664 -0.0015596622050999542 0.1518653205810786 -0.066177506066530792 0.099249586116552282 0.00032247581365716374 0.00025631327810877736 0.26244859954903593 0.15339962054419518 0.20935457655481537 0.00014436802747823664 0.00032247581365716374\nleaf_weight=1210 880 22418 110 44 110 44 33 33 43 22 55 374 232 20 99 22 73 58 23 46\nleaf_count=1210 880 22418 110 44 110 44 33 33 43 22 55 374 232 20 99 22 73 58 23 46\ninternal_value=0 0.00461625 -0.000925926 -0.0307143 0.00252066 -0.00357143 -0.0235714 0.00142857 -0.00611111 0.00497596 -0.00214286 -0.045 0.005 0.005 0.005 0.005 0.005 0.005 0.005 0.005\ninternal_weight=0 24365 1485 154 1331 385 77 308 99 22880 77 1584 22803 946 209 385 363 131 66 66\ninternal_count=25949 24365 1485 154 1331 385 77 308 99 22880 77 1584 22803 946 209 385 363 131 66 66\nis_linear=0\nshrinkage=0.05\n\n\nTree=6\nnum_leaves=22\nnum_cat=0\nsplit_feature=12 12 1 12 1 12 1 12 2 2 1 1 12 1 1 4 4 4 4 4 6\nsplit_gain=1319.84 19.6004 70.4733 32.2667 6.9909 10.3131 9.77778 7.33333 4.92105 1.73053 3.66667 1.56614 3.92857 2.27374e-13 2.84217e-14 1.42109e-14 4.44089e-16 4.44089e-16 2.22045e-16 2.22045e-16 2.22045e-16\nthreshold=27.250000000000004 27.850000000000005 0.52766072109828632 27.750000000000004 0.056951373111866731 27.650000000000002 0.35846314187849709 27.750000000000004 0.92843842216862604 0.96849880583763492 -0.05695216311707673 0.99995780822346225 31.350000000000005 0.80417553764032002 0.99865421017599998 27.350000000000005 33.550000000000004 31.150000000000002 25.550000000000004 32.150000000000013 25.750000000000004\ndecision_type=2 2 2 2 2 2 2 2 2 2 2 2 2 2 2 2 2 2 2 2 2\nleft_child=13 2 4 15 9 8 7 -7 18 -2 -11 14 -13 -1 -3 -4 17 -16 -6 -19 -20\nright_child=1 11 3 -5 5 6 -8 -9 -10 10 -12 12 -14 -15 16 -17 -18 19 20 -21 -22\nleaf_value=-0.071893665190846973 0.00030635202297428781 0.0192132410794855 -0.002570365005643538 5.476288896630877e-05 0.00015534102348591851 -0.00088148466535820091 2.0945618665102475e-05 -2.4175895535982764e-05 -0.00072175535195491143 -2.4175895535982764e-05 0.00018662265950286638 -0.0014816790948449566 0.14427205455202471 -0.022528646391989305 0.094287106810724636 -0.0032175336610391625 0.24932616957158416 0.14572963951698537 0.00076887759307389377 0.19888684772707457 0.00013714962610436032\nleaf_weight=1386 1111 22418 75 44 42 33 33 33 22 22 44 22 55 33 232 46 22 73 29 58 116\nleaf_count=1386 1111 22418 75 44 42 33 33 33 22 22 44 22 55 33 232 46 22 73 29 58 116\ninternal_value=0 0.00459641 -0.000666666 -0.0316667 0.00277778 -0.00392857 -0.0172222 -0.0283333 0.00236842 0.00453271 -0.00333333 0.00497596 -0.00214286 -0.045 0.005 -0.045 0.005 0.005 0.005 0.005 0.005\ninternal_weight=0 24530 1650 165 1485 308 99 66 209 1177 66 22880 77 1419 22803 121 385 363 187 131 145\ninternal_count=25949 24530 1650 165 1485 308 99 66 209 1177 66 22880 77 1419 22803 121 385 363 187 131 145\nis_linear=0\nshrinkage=0.05\n\n\nTree=7\nnum_leaves=24\nnum_cat=0\nsplit_feature=12 12 1 12 1 12 1 12 2 12 1 2 1 1 12 0 1 4 0 1 1 4 6\nsplit_gain=1132.78 22.3821 78.0501 30.4336 9.31905 8.78136 9.77778 7.33333 5.33333 7.33333 1.88462 1.74242 3.66667 1.56614 3.92857 2.84217e-14 1.42109e-14 1.42109e-14 1.77636e-15 8.88178e-16 8.88178e-16 2.22045e-16 5.55112e-17\nthreshold=27.150000000000002 27.850000000000005 0.52766072109828632 27.750000000000004 0.056951373111866731 27.650000000000002 0.35846314187849709 27.750000000000004 -0.87810534180523914 27.450000000000003 0.86113431103781346 0.96849880583763492 -0.05695216311707673 0.99995780822346225 31.350000000000005 12.500000000000002 0.98372640911059162 27.150000000000002 12.500000000000002 0.99983759474438971 -0.79384350655589164 27.450000000000003 27.150000000000002\ndecision_type=2 2 2 2 2 2 2 2 2 2 2 2 2 2 2 2 2 2 2 2 2 2 2\nleft_child=-1 2 4 10 11 8 7 -7 21 -10 17 18 -13 15 -15 -3 -17 -4 -2 -18 -20 -6 -23\nright_child=1 13 3 -5 5 6 -8 -9 9 -11 -12 12 -14 14 -16 16 19 -19 20 -21 -22 22 -24\nleaf_value=-0.070176463297773259 0.00029103442182556451 0.02081500273156589 -0.0049296583892836313 5.2024744518064382e-05 0.000726090643310684 -0.00083741043209037977 1.9898337731838469e-05 -2.2967100759174742e-05 -0.00068566758435721913 0.00012938257493004814 -0.00305665697798716 -2.2967100759174742e-05 0.00017729152652776748 -0.0014075951401027354 0.13705845182442342 0.018252579025511296 0.11081505995202488 -0.0027682719405650149 0.00029103442182556451 0.12287273425636709 0.00029103442182556451 0.0013688801315707992 0.0013672014563723032\nleaf_weight=1210 805 14511 70 44 129 33 33 33 33 33 22 22 44 22 55 7732 532 51 228 28 232 24 23\nleaf_count=1210 805 14511 70 44 129 33 33 33 33 33 22 22 44 22 55 7732 532 51 228 28 232 24 23\ninternal_value=0 0.00454727 -0.000728886 -0.0313636 0.00269737 -0.00467742 -0.0172222 -0.0283333 0.000454546 -0.0116667 -0.0425524 0.00458678 -0.00333333 0.00497596 -0.00214286 0.005 0.005 -0.045 0.005 0.005 0.005 0.005 0.005\ninternal_weight=0 24739 1859 187 1672 341 99 66 242 66 143 1331 66 22880 77 22803 8292 121 1265 560 460 176 47\ninternal_count=25949 24739 1859 187 1672 341 99 66 242 66 143 1331 66 22880 77 22803 8292 121 1265 560 460 176 47\nis_linear=0\nshrinkage=0.05\n\n\nTree=8\nnum_leaves=25\nnum_cat=0\nsplit_feature=12 12 1 12 12 2 2 12 1 12 2 12 12 1 12 1 1 4 4 4 1 4 4 4\nsplit_gain=981.933 54.3163 116.022 21.2528 33.0393 37.4306 15.9348 9.77778 9.25949 33.5238 3.14286 2.08421 10.2667 1.56607 3.92857 1.13687e-13 2.84217e-14 2.84217e-14 1.42109e-14 3.55271e-15 1.11022e-16 1.11022e-16 1.11022e-16 1.11022e-16\nthreshold=27.050000000000004 27.950000000000003 0.17646842360078763 27.850000000000005 27.550000000000004 -0.8611288361322974 -0.96687281075841669 27.250000000000004 -0.24372957273992746 27.750000000000004 0.99932962452255414 27.650000000000002 27.750000000000004 0.99995780822346225 31.350000000000005 0.69056404122701587 0.99983759474438971 27.050000000000004 26.250000000000004 26.450000000000003 0.96687895796550427 27.250000000000004 31.750000000000004 29.850000000000005\ndecision_type=2 2 2 2 2 2 2 2 2 2 2 2 2 2 2 2 2 2 2 2 2 2 2 2\nleft_child=15 2 8 4 5 7 -6 -4 19 10 -10 -8 -13 16 -15 -1 -3 18 -7 -2 -14 -9 23 -18\nright_child=1 13 3 -5 6 17 11 21 9 -11 -12 12 20 14 -16 -17 22 -19 -20 -21 -22 -23 -24 -25\nleaf_value=-0.074790101545957027 0.00027648270073434846 0.024774271668473881 -0.00076510526528696945 -0.00022572833152612048 -2.1818745721269295e-05 -0.0039526033579384999 0.00018369217874276701 0.00012291344618358126 0.00010675243127220569 -0.00022572833152612048 -0.00076510526528696945 -0.00079553991048584302 1.8903420845184373e-05 -0.0013372153830976787 0.13020552923320228 -0.05895262243142483 0.12183198411978875 -0.0057690103159361971 -0.0039526033579384999 0.00027648270073434846 4.9423507292090108e-05 0.00012382301605260438 0.16059948454101003 0.11672909754354865\nleaf_weight=1034 541 22418 33 88 22 51 99 43 198 44 33 33 55 22 55 22 29 75 39 922 22 23 23 25\nleaf_count=1034 541 22418 33 88 22 51 99 43 198 44 33 33 55 22 55 22 29 75 39 922 22 23 23 25\ninternal_value=0 0.00422669 -0.00305687 -0.0223585 -0.0183333 -0.0304167 -0.00452381 -0.00611111 0.00341772 -0.005 0.00261905 -0.000263158 -0.005 0.00497563 -0.00214286 -0.045 0.005 -0.045 -0.045 0.005 0.005 0.005 0.005 0.005\ninternal_weight=0 24893 2321 583 495 264 231 99 1738 275 231 209 110 22572 77 1056 22495 165 90 1463 77 66 77 54\ninternal_count=25949 24893 2321 583 495 264 231 99 1738 275 231 209 110 22572 77 1056 22495 165 90 1463 77 66 77 54\nis_linear=0\nshrinkage=0.05\n\n\nTree=9\nnum_leaves=27\nnum_cat=0\nsplit_feature=12 12 1 12 12 2 2 12 1 12 2 12 12 1 12 12 1 1 1 4 4 4 4 4 1 4\nsplit_gain=981.612 54.1965 116.022 21.2528 33.0393 37.4306 15.9348 9.77778 9.25949 33.5238 3.14286 2.08421 10.2667 1.56217 3.92857 0.0203691 0.706192 1.13687e-13 2.84217e-14 2.84217e-14 1.42109e-14 3.55271e-15 3.55271e-15 8.88178e-16 1.11022e-16 1.11022e-16\nthreshold=27.050000000000004 27.950000000000003 0.17646842360078763 27.850000000000005 27.550000000000004 -0.8611288361322974 -0.96687281075841669 27.250000000000004 -0.24372957273992746 27.750000000000004 0.99932962452255414 27.650000000000002 27.750000000000004 0.99995780822346225 31.350000000000005 28.050000000000004 0.88621069759564464 0.69056404122701587 0.93237596376505805 27.050000000000004 26.250000000000004 26.450000000000003 33.95000000000001 26.450000000000003 0.96687895796550427 27.250000000000004\ndecision_type=2 2 2 2 2 2 2 2 2 2 2 2 2 2 2 2 2 2 2 2 2 2 2 2 2 2\nleft_child=17 2 8 4 5 7 -6 -4 21 10 -10 -8 -13 15 -15 16 23 -1 -17 20 -7 -2 -20 -3 -14 -9\nright_child=1 13 3 -5 6 19 11 25 9 -11 -12 12 24 14 -16 18 -18 -19 22 -21 -22 -23 -24 -25 -26 -27\nleaf_value=-0.071050596468659147 0.0002626585656976488 0.0035355771585365405 -0.00072685000202259435 -0.00021444191494985888 -2.0727808435161422e-05 -0.0037549731900416109 0.00017450756980554873 0.00011676777387439331 0.00010141480970862205 -0.00021444191494985888 -0.00072685000202259435 -0.00075576291496162187 1.7958249802951799e-05 -0.0012703546139427148 0.12369525277154221 0.028535577158536541 -0.00096442570248633785 -0.056004991309853661 0.098535558085050212 -0.0054805598001393292 -0.0037549731900416109 0.0002626585656976488 0.25925050087780727 0.0035355771585365405 4.6952331927485606e-05 0.00011763186524991199\nleaf_weight=1034 541 228 33 88 22 51 99 43 198 44 33 33 55 22 55 18546 22 22 3150 75 39 922 40 509 22 23\nleaf_count=1034 541 228 33 88 22 51 99 43 198 44 33 33 55 22 55 18546 22 22 3150 75 39 922 40 509 22 23\ninternal_value=0 0.00421866 -0.00305687 -0.0223585 -0.0183333 -0.0304167 -0.00452381 -0.00611111 0.00341772 -0.005 0.00261905 -0.000263158 -0.005 0.00496677 -0.00214286 0.00499111 0.0047365 -0.045 0.005 -0.045 -0.045 0.005 0.005 0.005 0.005 0.005\ninternal_weight=0 24893 2321 583 495 264 231 99 1738 275 231 209 110 22572 77 22495 759 1056 21736 165 90 1463 3190 737 77 66\ninternal_count=25949 24893 2321 583 495 264 231 99 1738 275 231 209 110 22572 77 22495 759 1056 21736 165 90 1463 3190 737 77 66\nis_linear=0\nshrinkage=0.05\n\n\nTree=10\nnum_leaves=31\nnum_cat=0\nsplit_feature=12 12 1 1 12 12 12 2 12 2 2 12 12 2 1 12 11 2 2 5 4 12 1 0 1 1 4 7 4 4\nsplit_gain=774.916 45.9564 128.926 24.4565 31.7308 22.4185 11.4583 9.28352 5.86667 5.19211 4.77321 13.2 3.66667 3.47919 1.56217 3.92857 1.54751 1.03605 4.4 0.352944 0.0424812 0.0203691 0.706192 1.13687e-13 2.84217e-14 2.84217e-14 2.84217e-14 1.42109e-14 3.55271e-15 8.88178e-16\nthreshold=26.950000000000003 27.950000000000003 0.17646842360078763 0.51297097409535064 27.850000000000005 27.550000000000004 27.850000000000005 -0.96234030595689413 27.750000000000004 -0.99938741687870725 -0.87810534180523914 27.450000000000003 27.750000000000004 0.99932962452255414 0.99995780822346225 31.350000000000005 91.500000000000014 -0.99273797715557011 -0.99628250747696534 27.450000000000003 25.450000000000003 28.050000000000004 0.88621069759564464 13.500000000000002 0.93237596376505805 -0.98523971305672675 26.950000000000003 24.750000000000004 33.95000000000001 26.450000000000003\ndecision_type=2 2 2 2 2 2 2 2 2 2 2 2 2 2 2 2 2 2 2 2 2 2 2 2 2 2 2 2 2 2\nleft_child=23 2 9 4 7 26 12 8 -4 -2 16 -12 -7 17 21 -16 -9 18 -11 20 -18 22 29 -1 -23 -25 27 -5 -26 -3\nright_child=1 14 3 5 -6 6 -8 10 -10 13 11 -13 -14 -15 15 -17 19 -19 -20 -21 -22 24 -24 25 28 -27 -28 -29 -30 -31\nleaf_value=-0.067498066645226201 -0.00020371981920241922 0.0033587983006096779 -0.00069050750192154462 -0.0042977965879886513 -0.00020371981920241922 -0.00038014367841032737 -0.00020371981920241922 -0.00071797476921346974 -1.9691418013323417e-05 1.897666024319733e-07 -0.00041502821410634996 0.00011092938518064699 4.4604715331075795e-05 -0.00069050750192154462 -0.0012068368832455435 0.11751049013296502 1.706033731281309e-05 0.00024952563741269528 -0.00020371981920241922 -0.00071797476921346974 1.706033731281309e-05 0.027108798300609749 -0.00091620441736210982 -0.067498065304122265 0.093608780180797713 -0.068180568953824808 -0.0047659702082583737 -0.003567224530539548 0.24628797583391684 0.0033587983006096779\nleaf_weight=600 22 228 33 51 66 22 22 23 22 88 22 33 44 33 22 55 20 1782 22 20 113 18546 22 21 3150 204 78 36 40 509\nleaf_count=600 22 228 33 51 66 22 22 23 22 88 22 33 44 33 22 55 20 1782 22 20 113 18546 22 21 3150 204 78 36 40 509\ninternal_value=0 0.00424773 -0.00211207 -0.0222727 -0.01375 -0.0341304 -0.01375 -0.00653846 -0.025 0.00415254 -0.00214286 -0.015 -0.00333333 0.00442857 0.00496677 -0.00214286 0.001875 0.0047093 1.86265e-10 0.00369281 0.00462406 0.00499111 0.0047365 -0.045 0.005 -0.045 -0.045 -0.045 0.005 0.005\ninternal_weight=0 25124 2552 605 352 253 88 286 55 1947 231 55 66 1925 22572 77 176 1892 110 153 133 22495 759 825 21736 225 165 87 3190 737\ninternal_count=25949 25124 2552 605 352 253 88 286 55 1947 231 55 66 1925 22572 77 176 1892 110 153 133 22495 759 825 21736 225 165 87 3190 737\nis_linear=0\nshrinkage=0.05\n\n\nTree=11\nnum_leaves=31\nnum_cat=0\nsplit_feature=12 12 1 1 12 12 12 2 1 12 12 12 2 12 12 1 1 12 11 5 4 12 1 1 1 5 4 5 4 4\nsplit_gain=581.508 52.9763 139.036 27.886 31.7308 23.375 11.4583 9.28352 9.1594 16.1731 20 5.86667 4.77321 13.2 3.66667 2.75 1.56217 3.92857 1.54751 0.352944 0.0424812 0.0203691 0.706192 5.68434e-14 2.84217e-14 1.42109e-14 3.55271e-15 3.55271e-15 8.88178e-16 2.22045e-16\nthreshold=26.850000000000005 27.950000000000003 0.17646842360078763 0.51297097409535064 27.850000000000005 27.550000000000004 27.850000000000005 -0.96234030595689413 -0.24372957273992746 27.750000000000004 27.150000000000002 27.750000000000004 -0.87810534180523914 27.450000000000003 27.750000000000004 -0.01397611846945947 0.99995780822346225 31.350000000000005 91.500000000000014 27.450000000000003 25.450000000000003 28.050000000000004 0.88621069759564464 0.10837544681456425 0.93237596376505805 24.950000000000003 33.95000000000001 23.050000000000004 26.450000000000003 26.150000000000002\ndecision_type=2 2 2 2 2 2 2 2 2 2 2 2 2 2 2 2 2 2 2 2 2 2 2 2 2 2 2 2 2 2\nleft_child=23 2 8 4 7 -5 14 11 27 10 -10 -4 18 -14 -7 -11 21 -18 -9 20 -20 22 28 -1 -23 -25 -26 -2 -3 -22\nright_child=1 16 3 5 -6 6 -8 12 9 15 -12 -13 13 -15 -16 -17 17 -19 19 -21 29 24 -24 25 26 -27 -28 -29 -30 -31\nleaf_value=-0.069123182386451279 0.00017046511182731806 0.0031908583855791762 -0.00065598212682544961 -0.0056200772816644932 -0.00019353382824220945 -0.00036113649448985544 -0.00019353382824220945 -0.00068207603075283181 -0.00065598212682544961 -0.00019353382824220945 9.5087905607355808e-05 -1.8706847112603954e-05 -0.00039427680340100581 0.00010538291592165905 4.2374479564522009e-05 -0.00019353382824220945 -0.0011464950390832841 0.11163496562631679 1.620732044713691e-05 -0.00068207603075283181 0.00017211746530117786 0.025753358385579263 -0.00087039419649403982 -0.055098224252753882 0.08892834117175781 -0.06506404191686492 0.23397357704222108 0.00023704935554214046 0.0031908583855791762 1.620732044713691e-05\nleaf_weight=517 31 228 33 187 66 22 22 23 22 22 220 22 22 33 44 22 22 55 20 20 27 18546 22 24 3150 75 40 1817 509 86\nleaf_count=517 31 228 33 187 66 22 22 23 22 22 220 22 22 33 44 22 22 55 20 20 27 18546 22 24 3150 75 40 1817 509 86\ninternal_value=0 0.00416709 -0.00237052 -0.0230702 -0.01375 -0.035 -0.01375 -0.00653846 0.00371134 -0.00461538 0.000454546 -0.025 -0.00214286 -0.015 -0.00333333 -0.0325 0.00496677 -0.00214286 0.001875 0.00369281 0.00462406 0.00499111 0.0047365 -0.045 0.005 -0.045 0.005 0.005 0.005 0.005\ninternal_weight=0 25333 2761 627 352 275 88 286 2134 286 242 55 231 55 66 44 22572 77 176 153 133 22495 759 616 21736 99 3190 1848 737 113\ninternal_count=25949 25333 2761 627 352 275 88 286 2134 286 242 55 231 55 66 44 22572 77 176 153 133 22495 759 616 21736 99 3190 1848 737 113\nis_linear=0\nshrinkage=0.05\n\n\nTree=12\nnum_leaves=31\nnum_cat=0\nsplit_feature=12 12 1 12 12 2 2 1 12 12 1 1 4 1 1 1 12 2 1 1 1 12 1 1 1 4 5 4 5 4\nsplit_gain=582.536 47.3794 121.416 22.9688 32.2896 29.4896 13.7925 9.1594 16.1731 20 7.71427 8.08081 7.87522 3.66667 2.75 1.56217 3.92857 1.55294 3.3 0.816667 1.11364 0.0203691 0.706192 5.68434e-14 2.84217e-14 1.42109e-14 1.42109e-14 3.55271e-15 3.55271e-15 8.88178e-16\nthreshold=26.850000000000005 27.950000000000003 0.17646842360078763 27.850000000000005 27.450000000000003 -0.87810534180523914 -0.96687281075841669 -0.24372957273992746 27.750000000000004 27.150000000000002 0.54219432480460406 0.89404822654372251 27.150000000000002 0.30983042691905771 -0.01397611846945947 0.99995780822346225 31.350000000000005 -0.94703994556331683 0.29342972903661901 0.83376496542330847 0.84313847884979054 28.050000000000004 0.88621069759564464 0.10837544681456425 0.93237596376505805 27.050000000000004 24.950000000000003 33.95000000000001 23.050000000000004 26.450000000000003\ndecision_type=2 2 2 2 2 2 2 2 2 2 2 2 2 2 2 2 2 2 2 2 2 2 2 2 2 2 2 2 2 2\nleft_child=23 2 7 4 5 13 -6 28 9 -9 17 12 -12 -4 -10 21 -17 18 -8 25 -21 22 29 -1 -23 -7 -25 -26 -2 -3\nright_child=1 15 3 -5 6 19 10 8 14 -11 11 -13 -14 -15 -16 16 -18 -19 -20 20 -22 24 -24 26 27 -27 -28 -29 -30 -31\nleaf_value=-0.065667023267128685 0.00016194185623587644 0.0030313154663001995 -0.00062318302048414154 -0.00018385713683013451 -1.7771504757035929e-05 -0.0031078594399293284 0.00040534412746016105 -0.00062318302048414154 -0.00018385713683013451 9.0333510327040518e-05 -0.00028487696400851802 4.025575558621597e-05 -0.0003430796697653449 0.0002674516718265352 -0.00018385713683013451 -0.0010891702871290933 0.10605321734500102 1.5396954424851119e-05 -0.00064797222921519904 -0.0029958555251033306 -0.008823602634034167 0.024465690466300316 -0.00082687448666938232 -0.05234331304011626 0.08448192411316989 -0.0036013945895193803 -0.061810839821021625 0.22227489819011004 0.00022519688776512226 0.0030313154663001995\nleaf_weight=517 31 228 22 88 22 78 33 22 22 220 34 33 32 44 22 22 55 132 22 22 22 18546 22 24 3150 43 75 40 1817 509\nleaf_count=517 31 228 22 88 22 78 33 22 22 220 34 33 32 44 22 22 55 132 22 22 22 18546 22 24 3150 43 75 40 1817 509\ninternal_value=0 0.00421052 -0.00197211 -0.0213158 -0.017449 -0.0315801 -0.00685065 0.00371134 -0.00461538 0.000454546 -0.00391608 -0.015202 -0.025303 -0.00333333 -0.0325 0.00496677 -0.00214286 0.00205882 -0.005 -0.0428788 -0.0370455 0.00499111 0.0047365 -0.045 0.005 -0.045 -0.045 0.005 0.005 0.005\ninternal_weight=0 25333 2761 627 539 231 308 2134 286 242 286 99 66 66 44 22572 77 187 55 165 44 22495 759 616 21736 121 99 3190 1848 737\ninternal_count=25949 25333 2761 627 539 231 308 2134 286 242 286 99 66 66 44 22572 77 187 55 165 44 22495 759 616 21736 121 99 3190 1848 737\nis_linear=0\nshrinkage=0.05\n\n\nTree=13\nnum_leaves=31\nnum_cat=0\nsplit_feature=12 12 1 12 1 12 4 2 2 12 12 2 10 11 1 12 1 12 2 2 2 11 12 1 1 2 4 4 0 0\nsplit_gain=522.229 42.1384 120.402 23.9063 31.6901 25.7757 11.5988 10.3684 8.14564 5.86667 3.56904 3.49832 2.54848 2.36473 1.56217 3.92857 1.44683 1.33434 1.31771 4.125 1.0288 0.111957 0.0203691 0.706192 2.84217e-14 1.42109e-14 3.55271e-15 8.88178e-16 2.22045e-16 1.11022e-16\nthreshold=26.750000000000004 27.950000000000003 0.17646842360078763 27.850000000000005 0.51297097409535064 27.750000000000004 27.450000000000003 -0.96234030595689413 -0.99864786094873803 27.750000000000004 27.250000000000004 0.99932962452255414 86.500000000000014 96.500000000000014 0.99995780822346225 31.350000000000005 0.83376496542330847 27.250000000000004 -0.99273797715557011 -0.99628250747696534 -0.94703994556331683 99.500000000000014 28.050000000000004 0.88621069759564464 0.93237596376505805 -0.58481178939031186 33.95000000000001 26.450000000000003 9.5000000000000018 14.500000000000002\ndecision_type=2 2 2 2 2 2 2 2 2 2 2 2 2 2 2 2 2 2 2 2 2 2 2 2 2 2 2 2 2 2\nleft_child=-1 2 8 4 7 6 16 9 12 -4 -9 18 -2 20 22 -16 25 -18 19 -10 -12 -15 23 27 -24 -6 -26 -3 -23 -30\nright_child=1 14 3 -5 5 -7 -8 10 11 -11 13 -13 -14 21 15 -17 17 -19 -20 -21 -22 28 24 -25 26 -27 -28 -29 29 -31\nleaf_value=-0.062349546988342303 -3.3182430026929283e-05 0.0028797496929851008 -0.00059202386945997896 -0.00017466427998868994 -0.0034213247901780396 3.8242967806922938e-05 -0.00032592568627709539 -0.00021916999123448023 1.9049826525829874e-05 -1.6882929519113076e-05 -0.00061557361775435029 -0.00059202386945997896 -0.00017466427998868994 1.3068005580339689e-05 -0.0010347117727725675 0.10075055647775102 -0.0083824225023324313 -0.0025521401336114544 0.00021393704337686615 -0.00017466427998868994 -7.0147154868571707e-05 1.4627106703635206e-05 0.023242405942985302 -0.00078553076233589536 0.080257827907511375 -0.0011586983413064372 0.21116115328060447 0.0028797496929851008 1.4627106703635206e-05 1.4627106703635206e-05\nleaf_weight=550 22 228 33 88 101 44 30 22 66 22 21 33 33 29 22 55 22 35 2024 22 34 43 18546 22 3150 21 40 509 58 24\nleaf_count=550 22 228 33 88 101 44 30 22 66 22 21 33 33 29 22 55 22 35 2024 22 34 43 18546 22 3150 21 40 509 58 24\ninternal_value=0 0.00424603 -0.00150867 -0.0208373 -0.0168924 -0.0297826 -0.0371053 -0.00548951 0.004 -0.025 -0.000844156 0.00448718 -0.015 0.00117225 0.00496677 -0.00214286 -0.0419274 -0.0353509 0.00473958 -0.00125 -0.00772727 0.00435065 0.00499111 0.0047365 0.005 -0.045 0.005 0.005 0.005 0.005\ninternal_weight=0 25399 2827 627 539 253 209 286 2200 55 231 2145 55 209 22572 77 179 57 2112 88 55 154 22495 759 21736 122 3190 737 125 82\ninternal_count=25949 25399 2827 627 539 253 209 286 2200 55 231 2145 55 209 22572 77 179 57 2112 88 55 154 22495 759 21736 122 3190 737 125 82\nis_linear=0\nshrinkage=0.05\n\n\nTree=14\nnum_leaves=31\nnum_cat=0\nsplit_feature=12 12 1 12 12 1 2 2 1 12 12 1 1 1 4 1 2 1 1 12 1 1 2 1 12 1 4 4 6 0\nsplit_gain=500.826 44.4653 112.117 24.8624 31.4473 28.6255 14.5057 13.6484 5.59949 12.0417 12.6667 5.24341 5.83838 7.75758 3.92727 2.62987 1.55294 3.3 1.55148 3.92857 0.795455 1.11364 0.681818 0.0987985 10.1185 5.68434e-14 5.68434e-14 1.42109e-14 1.42109e-14 3.55271e-15\nthreshold=26.650000000000002 27.950000000000003 0.17646842360078763 27.850000000000005 27.450000000000003 0.48314048284850658 -0.96687281075841669 -0.99938741687870725 -0.24372957273992746 27.150000000000002 27.750000000000004 0.54219432480460406 0.89404822654372251 0.82414472752956958 27.150000000000002 0.30983042691905771 -0.94703994556331683 0.29342972903661901 0.99995780822346225 31.350000000000005 0.83376496542330847 0.84313847884979054 -0.90892157495189674 0.97112537654464559 28.450000000000003 0.95242846126021108 26.350000000000005 26.550000000000004 25.850000000000005 14.500000000000002\ndecision_type=2 2 2 2 2 2 2 2 2 2 2 2 2 2 2 2 2 2 2 2 2 2 2 2 2 2 2 2 2 2\nleft_child=26 2 7 4 5 15 -6 -2 29 -10 -11 16 13 14 -13 -4 17 -8 23 -20 -7 -22 -17 25 -25 -3 -1 28 -28 -9\nright_child=1 18 3 -5 6 20 11 8 9 10 -12 12 -14 -15 -16 22 -18 -19 19 -21 21 -23 -24 24 -26 -27 27 -29 -30 -31\nleaf_value=-0.059266194754355087 -0.0002411603267123752 0.012080247498863451 -0.00056242267598705098 -0.00016593106598925545 -1.6038783043192951e-05 -0.0028282859914817941 0.00038434556575186465 0.00020324019120803173 -0.00056242267598705098 6.3899864387195751e-05 -0.00016593106598925545 -8.2519525305357888e-05 3.6330819416541259e-05 -0.001780988763175265 3.7610955161859749e-05 0.00026503758779679033 1.3895751368409038e-05 -0.00058479493686665058 -0.00098297618413401011 0.0957130286538634 -0.0027184557421675139 -0.0079633013772157923 -6.6639797125134234e-05 -0.0037550825613505978 0.081373076770924868 0.076244936512135736 -0.014232088712411439 -0.0068869455959836403 -0.014266213827841413 0.00020324019120803173\nleaf_weight=408 33 19833 22 88 22 110 33 1575 22 209 33 20 33 22 24 33 132 22 22 55 22 22 22 22 2046 594 36 33 51 350\nleaf_count=408 33 19833 22 88 22 110 33 1575 22 209 33 20 33 22 24 33 132 22 22 55 22 22 22 22 2046 594 36 33 51 350\ninternal_value=0 0.00419948 -0.00168656 -0.0203589 -0.0163358 -0.0302814 -0.00587662 0.00358236 0.0040635 -0.00276515 0.000454546 -0.00286713 -0.0121717 -0.0207576 -0.00863636 -0.00538961 0.00205882 -0.005 0.00494241 -0.00214286 -0.0427273 -0.0370455 0.000454546 0.00496666 0.00463733 0.005 -0.045 -0.045 -0.045 0.005\ninternal_weight=0 25421 2849 627 539 231 308 2222 2189 264 242 286 99 66 44 77 187 55 22572 77 154 44 55 22495 2068 20427 528 120 87 1925\ninternal_count=25949 25421 2849 627 539 231 308 2222 2189 264 242 286 99 66 44 77 187 55 22572 77 154 44 55 22495 2068 20427 528 120 87 1925\nis_linear=0\nshrinkage=0.05\n\n\nTree=15\nnum_leaves=31\nnum_cat=0\nsplit_feature=12 12 1 12 12 1 2 2 1 1 1 4 2 1 2 1 1 12 2 2 1 1 2 1 12 12 4 4 6 1\nsplit_gain=500.986 39.6822 116.157 24.8624 31.4473 28.6255 14.5057 14.0165 5.24341 5.83838 7.75758 3.92727 3.50168 2.62987 1.55294 3.3 1.53696 3.92857 0.943878 4.5 0.795455 1.11364 0.681818 0.298083 20.1528 0.478763 5.68434e-14 1.42109e-14 1.42109e-14 7.10543e-15\nthreshold=26.650000000000002 27.950000000000003 0.17646842360078763 27.850000000000005 27.450000000000003 0.48314048284850658 -0.96687281075841669 -0.99938741687870725 0.54219432480460406 0.89404822654372251 0.82414472752956958 27.150000000000002 0.99932962452255414 0.30983042691905771 -0.94703994556331683 0.29342972903661901 0.99995780822346225 31.350000000000005 -0.99273797715557011 -0.99628250747696534 0.83376496542330847 0.84313847884979054 -0.90892157495189674 0.95242846126021108 28.450000000000003 29.150000000000002 26.350000000000005 26.550000000000004 25.850000000000005 0.99865421017599998\ndecision_type=2 2 2 2 2 2 2 2 2 2 2 2 2 2 2 2 2 2 2 2 2 2 2 2 2 2 2 2 2 2\nleft_child=26 2 7 4 5 13 -6 -2 14 10 11 -10 18 -4 15 -8 23 -18 19 -9 -7 -22 -15 -3 -25 -26 -1 28 -28 -27\nright_child=1 16 3 -5 6 20 8 12 9 -11 -12 -13 -14 22 -16 -17 17 -19 -20 -21 21 -23 -24 24 25 29 27 -29 -30 -31\nleaf_value=-0.056302885016637383 -0.00022910231037673868 0.011476235123920198 -0.00053430154218769843 -0.00015763451268977491 -1.5236843890953368e-05 -0.0026868716919077776 0.00036512828746424478 2.6393888498965624e-05 -7.8393549040001187e-05 3.4514278445740845e-05 -0.0016919393250164482 3.5730407403811172e-05 -0.00053430154218769843 0.0002517857084068709 1.3200963799953059e-05 -0.00055555519002332694 -0.00093382737492735406 0.090927377221170155 0.00019307818164762127 -0.00015763451268977491 -0.0025825329550590581 -0.0075651363083549588 -6.3307807268842006e-05 -0.0035673284332830239 -0.001423700327165719 0.087176339894048382 -0.013520484276790867 -0.0065425983161844677 -0.013552903136449324 0.075933974191752907\nleaf_weight=408 33 19833 22 88 22 110 33 99 20 33 22 24 33 33 132 22 22 55 2035 22 22 22 22 33 33 2211 36 33 51 385\nleaf_count=408 33 19833 22 88 22 110 33 99 20 33 22 24 33 33 132 22 22 55 2035 22 22 22 22 33 33 2211 36 33 51 385\ninternal_value=0 0.00420735 -0.00135311 -0.0203589 -0.0163358 -0.0302814 -0.00587662 0.0040099 -0.00286713 -0.0121717 -0.0207576 -0.00863636 0.00449749 -0.00538961 0.00205882 -0.005 0.00490918 -0.00214286 0.0047449 0.000454546 -0.0427273 -0.0370455 0.000454546 0.00493332 0.00443651 0.00492393 -0.045 -0.045 -0.045 0.005\ninternal_weight=0 25421 2849 627 539 231 308 2222 286 99 66 44 2189 77 187 55 22572 77 2156 121 154 44 55 22495 2662 2629 528 120 87 2596\ninternal_count=25949 25421 2849 627 539 231 308 2222 286 99 66 44 2189 77 187 55 22572 77 2156 121 154 44 55 22495 2662 2629 528 120 87 2596\nis_linear=0\nshrinkage=0.05\n\n\nTree=16\nnum_leaves=31\nnum_cat=0\nsplit_feature=12 12 1 12 12 1 2 12 4 1 12 12 1 1 2 2 1 1 1 12 8 1 1 2 4 1 1 12 12 0\nsplit_gain=466.185 34.6219 97.6273 29.0482 31.169 32.2344 16.24 8.59091 7.00606 5.88923 18.4808 5 2.9697 2.75 2.41361 5.48701 1.62105 3.3 1.53696 3.92857 0.9 0.770979 1.11364 0.757576 0.735931 0.393939 0.298083 20.1528 0.478763 5.68434e-14\nthreshold=26.750000000000004 27.950000000000003 0.17646842360078763 27.850000000000005 27.450000000000003 0.51297097409535064 -0.96687281075841669 26.550000000000004 26.350000000000005 -0.24372957273992746 27.750000000000004 27.150000000000002 0.30983042691905771 -0.01397611846945947 -0.57077231802681661 -0.44505783185115427 0.3261394409934788 0.29342972903661901 0.99995780822346225 31.350000000000005 23.850000000000005 0.83376496542330847 0.84313847884979054 -0.87810534180523914 26.650000000000002 -0.41398024697495356 0.95242846126021108 28.450000000000003 29.150000000000002 14.500000000000002\ndecision_type=2 2 2 2 2 2 2 2 2 2 2 2 2 2 2 2 2 2 2 2 2 2 2 2 2 2 2 2 2 2\nleft_child=7 2 9 4 5 12 -6 29 20 -2 11 -11 -4 -12 16 -16 17 -8 26 -20 -9 -7 -23 -14 -17 -10 -3 -28 -29 -1\nright_child=1 18 3 -5 6 21 14 8 25 10 13 -13 23 -15 15 24 -18 -19 19 -21 -22 22 -24 -25 -26 -27 27 28 -30 -31\nleaf_value=-0.053487740765805473 0.00018342427256516915 0.010902423367724269 -0.00050758646507826917 -0.00014975278705531281 -1.4475001696467871e-05 -0.0029745007363651157 0.0003468718730911036 -0.00021764719485783957 -0.0035946984852603947 -0.00050758646507826917 -0.00014975278705531281 8.0892256586946281e-05 0.00023919642298650957 -0.00014241793413471981 -0.0016073423587655987 -7.4473871588054419e-05 1.2540915609982051e-05 -0.0005277774305222138 -0.00088713600618106625 0.08638100836011163 -0.0011084916074340257 -0.0024534063073060608 -0.0071868794929372372 -6.0142416905328844e-05 3.2788564523400511e-05 -0.0062154684003752798 -0.0033889620116188015 -0.0013525153108074194 0.078317520038322999 -0.053453615650375499\nleaf_weight=378 1914 19833 22 88 22 99 33 20 22 22 22 220 44 22 22 21 154 22 22 55 20 22 22 22 34 26 33 33 2596 84\nleaf_count=378 1914 19833 22 88 22 99 33 20 22 22 22 220 44 22 22 21 154 22 22 55 20 22 22 22 34 26 33 33 2596 84\ninternal_value=0 0.00425588 -0.000960382 -0.0183652 -0.0140167 -0.0279004 -0.0036039 -0.0422727 -0.0279545 0.004 -0.00269231 0.00272727 -0.00409091 -0.0325 -0.00041958 -0.00798701 0.00236842 -0.005 0.00490918 -0.00214286 -0.0125 -0.0425524 -0.0370455 0.00121212 0.000454546 -0.0408333 0.00493332 0.00443651 0.00492393 -0.045\ninternal_weight=0 25399 2827 627 539 231 308 550 88 2200 286 242 88 44 286 77 209 55 22572 77 40 143 44 66 55 48 22495 2662 2629 462\ninternal_count=25949 25399 2827 627 539 231 308 550 88 2200 286 242 88 44 286 77 209 55 22572 77 40 143 44 66 55 48 22495 2662 2629 462\nis_linear=0\nshrinkage=0.05\n\n\nTree=17\nnum_leaves=31\nnum_cat=0\nsplit_feature=12 12 1 12 12 1 2 2 12 4 2 1 10 1 11 1 12 2 2 1 1 2 2 1 12 12 11 6 7 0\nsplit_gain=466.255 32.8839 94.857 29.9244 33.2863 32.2344 16.8831 11.5484 4.78598 10.752 3.50168 2.9697 2.14829 2.87221 1.82362 1.53696 3.92857 0.943878 4.5 0.770979 1.11364 0.757576 0.409756 0.298083 20.1528 0.478763 0.142724 0.145833 0.0282609 5.68434e-14\nthreshold=26.650000000000002 27.950000000000003 0.17646842360078763 27.850000000000005 27.450000000000003 0.51297097409535064 -0.96687281075841669 -0.99938741687870725 26.550000000000004 25.950000000000003 0.99932962452255414 0.30983042691905771 81.500000000000014 0.55656748448714433 86.500000000000014 0.99995780822346225 31.350000000000005 -0.99273797715557011 -0.99628250747696534 0.83376496542330847 0.84313847884979054 -0.87810534180523914 -0.9292178835113839 0.95242846126021108 28.450000000000003 29.150000000000002 99.500000000000014 26.050000000000004 25.650000000000002 14.500000000000002\ndecision_type=2 2 2 2 2 2 2 2 2 2 2 2 2 2 2 2 2 2 2 2 2 2 2 2 2 2 2 2 2 2\nleft_child=8 2 7 4 5 11 -6 -2 29 -10 17 -4 13 22 -14 23 -17 18 -9 -7 -21 -13 -8 -3 -25 -26 27 -16 -11 -1\nright_child=1 15 3 -5 6 19 12 10 9 28 -12 21 14 -15 26 16 -18 -19 -20 20 -22 -23 -24 24 25 -27 -28 -29 -30 -31\nleaf_value=-0.050813353727515144 -0.00019785638886522761 0.010357302199338038 -0.00048220714182427575 -0.00014226514770250277 -1.3751251611715532e-05 -0.0028257756995468952 -0.00050138855899604093 3.2195090780717808e-05 0.0012655379709138653 -0.0059046949803565956 -0.00048220714182427575 0.00022723660183725515 -0.00050138855899604093 -0.0013197585482693083 -0.00019803761342469762 -0.000842779205872013 0.08206195794210612 0.00017425305893699062 -0.00014226514770250277 -0.0023307359919407136 -0.0068275355182903404 -5.7135296060017994e-05 8.3579792715759998e-05 -0.0032195139110378079 -0.001284889545267106 0.074401644036406908 1.1913869829527358e-05 9.7529527395834951e-05 -0.0059046949803565956 -0.050780934867856689\nleaf_weight=378 33 19833 22 88 22 99 20 99 20 20 33 44 22 22 27 22 55 2035 22 22 22 22 21 33 33 2596 153 21 26 84\nleaf_count=378 33 19833 22 88 22 99 20 99 20 20 33 44 22 22 27 22 55 2035 22 22 22 22 21 33 33 2596 153 21 26 84\ninternal_value=0 0.00427029 -0.000791506 -0.0179665 -0.0135529 -0.0279004 -0.00279221 0.00405491 -0.0432008 -0.0306061 0.00449749 -0.00409091 0.000454546 -0.00769841 0.00275785 0.00490918 -0.00214286 0.0047449 0.000454546 -0.0425524 -0.0370455 0.00121212 0.000121951 0.00493332 0.00443651 0.00492393 0.00425373 0.001875 -0.043913 -0.045\ninternal_weight=0 25421 2849 627 539 231 308 2222 528 66 2189 88 286 63 223 22572 77 2156 121 143 44 66 41 22495 2662 2629 201 48 46 462\ninternal_count=25949 25421 2849 627 539 231 308 2222 528 66 2189 88 286 63 223 22572 77 2156 121 143 44 66 41 22495 2662 2629 201 48 46 462\nis_linear=0\nshrinkage=0.05\n\n\nTree=18\nnum_leaves=31\nnum_cat=0\nsplit_feature=12 12 1 12 12 12 4 1 12 12 12 1 2 1 2 1 1 11 2 1 1 12 11 2 12 4 12 1 11 12\nsplit_gain=363.942 62.0743 144.934 89.6569 35.1986 18.4045 34.9431 14.3728 9.71439 40.1426 14.4653 24.6795 17.5387 8.76623 8.33058 4.15683 3.39952 2.725 2.26944 1.59091 1.47849 3.66667 0.871212 0.853197 1.97845 0.59025 0.321076 21.648 0.180099 0.0212358\nthreshold=26.650000000000002 28.150000000000002 -0.24372957273992746 28.050000000000004 27.150000000000002 26.450000000000003 26.350000000000005 0.17646842360078763 27.950000000000003 27.850000000000005 27.450000000000003 0.52766072109828632 -0.96687281075841669 0.99053107487289871 -0.8611288361322974 -0.18492532721306487 0.074116354202380205 98.500000000000014 -0.99983123799342477 0.83376496542330847 -0.091260668982868151 27.850000000000005 99.500000000000014 -0.94703994556331683 27.550000000000004 26.350000000000005 28.450000000000003 0.95242846126021108 99.500000000000014 28.550000000000004\ndecision_type=2 2 2 2 2 2 2 2 2 2 2 2 2 2 2 2 2 2 2 2 2 2 2 2 2 2 2 2 2 2\nleft_child=5 2 -2 4 14 -1 16 15 9 10 11 22 -12 -10 25 -6 -7 23 -17 -13 21 -20 -9 -14 -25 -4 27 -3 -19 -28\nright_child=1 26 3 -5 7 6 -8 8 13 -11 12 19 17 -15 -16 18 -18 28 20 -21 -22 -23 -24 24 -26 -27 29 -29 -30 -31\nleaf_value=-0.048272686041139323 0.00016554040599014996 0.00483951338331643 -0.00045809678473300868 -0.00016050569016989868 -6.6961885604399645e-06 0.0014598837688781785 -0.0056094602313388371 -5.427853125699045e-05 0.0004949517988434238 -0.00013515189031743091 -1.3063689031156401e-05 -0.0027493284993351064 -0.00047631913104630998 -0.00080064024557842124 -0.004744697469035517 -0.00012540421798465929 -0.0010271887298954009 6.0663465447307414e-06 3.8293696309210649e-05 -0.0022141991923437135 0.00022863075078678464 -0.00013515189031743091 7.3410278144869784e-05 -0.0014457788823252892 6.3724797043844582e-05 -0.00045809678473300868 0.019839475236343773 -0.0030585382154859177 1.1318176338015462e-05 0.044839475236343775\nleaf_weight=341 2706 1353 23 209 22 59 103 20 132 88 22 55 27 22 77 22 25 20 44 22 275 22 46 24 34 21 726 22 181 19206\nleaf_count=341 2706 1353 23 209 22 59 103 20 132 88 22 55 27 22 77 22 25 20 44 22 275 22 46 24 34 21 726 22 181 19206\ninternal_value=0 0.00385331 -0.00176957 -0.0147798 -0.00951209 -0.0380871 -0.0254813 -0.00664193 -0.0109452 -0.0141095 -0.00808204 -0.0212238 -0.00198052 0.00012987 -0.0350826 0.0011039 -0.00154762 0.00132867 0.00238292 -0.0404545 0.0033871 -0.00333333 0.00121212 -0.00617647 -0.00275862 -0.0177273 0.00493899 0.0042 0.00450249 0.00498997\ninternal_weight=0 25421 4114 1408 1199 528 187 1078 693 539 451 143 308 154 121 385 84 286 363 77 341 66 66 85 58 44 21307 1375 201 19932\ninternal_count=25949 25421 4114 1408 1199 528 187 1078 693 539 451 143 308 154 121 385 84 286 363 77 341 66 66 85 58 44 21307 1375 201 19932\nis_linear=0\nshrinkage=0.05\n\n\nTree=19\nnum_leaves=31\nnum_cat=0\nsplit_feature=12 12 1 12 12 12 4 1 12 12 12 1 2 1 12 2 12 12 1 1 1 1 11 1 1 2 4 0 12 1\nsplit_gain=364.146 60.7321 141.829 90.9256 35.8909 18.4045 34.9431 13.9896 12.2675 9.46334 39.5693 22.5241 8.33058 7.07236 12.4121 6.5 5.33528 8.31169 6.13636 3.39952 1.75 2.75 1.43343 2.97297 1.33636 0.632411 0.59025 0.509091 0.321076 21.648\nthreshold=26.650000000000002 28.150000000000002 -0.24372957273992746 28.050000000000004 27.150000000000002 26.450000000000003 26.350000000000005 0.67802080537253961 27.450000000000003 27.750000000000004 27.950000000000003 0.43733377705052551 -0.8611288361322974 0.52766072109828632 27.450000000000003 -0.99628250747696534 27.850000000000005 27.950000000000003 0.99053107487289871 0.074116354202380205 0.35846314187849709 0.39036257410962044 97.500000000000014 0.30983042691905771 0.83376496542330847 -0.90892157495189674 26.350000000000005 12.500000000000002 28.450000000000003 0.95242846126021108\ndecision_type=2 2 2 2 2 2 2 2 2 2 2 2 2 2 2 2 2 2 2 2 2 2 2 2 2 2 2 2 2 2\nleft_child=5 2 -2 4 12 -1 19 9 24 13 11 15 26 22 -15 -11 27 -18 -19 -7 -17 -22 23 -6 -9 -25 -4 -10 29 -3\nright_child=1 28 3 -5 7 6 -8 8 16 10 -12 -13 -14 14 -16 20 17 18 -20 -21 21 -23 -24 25 -26 -27 -28 -29 -30 -31\nleaf_value=-0.045859051739082446 0.00015726338569059807 0.0045975377141505907 -0.00043519194549634932 -0.00015248040566149257 0.00029660370304984696 0.001386889580434314 -0.0053289872197719752 -0.0027675238691820215 2.9987533988773409e-05 -0.00011913400708536416 0.00047020420890131476 1.0752267521141336e-05 -0.0045074625955837198 -0.00032092257545102143 3.4019989403333284e-07 -0.00012839429580147055 -0.00012839429580147055 0.00047020420890131476 -0.00076060823329946467 -0.00097582929340058746 -0.00012839429580147055 -0.00012839429580147055 6.9739764237652943e-05 -0.00045250317449401227 -0.0021034892327264744 -5.1564604694220867e-05 -0.00043519194549634932 -0.0013963025871079893 0.035163084512856817 -0.0029056113047115418\nleaf_weight=341 2706 1353 23 209 66 59 103 33 35 22 220 44 77 22 33 77 22 33 22 25 22 22 318 22 22 23 21 20 19932 22\nleaf_count=341 2706 1353 23 209 66 59 103 33 35 22 220 44 77 22 33 77 22 33 22 25 22 22 318 22 22 23 21 20 19932 22\ninternal_value=0 0.00386511 -0.00169665 -0.0145668 -0.00926188 -0.0380871 -0.0254813 -0.00636364 -0.0187968 -0.00375421 -0.00937346 -0.0262834 -0.0350826 0.000971075 -0.0159091 -0.0359091 -0.0105303 -0.019026 -0.00863636 -0.00154762 -0.0404545 -0.0325 0.0031352 -0.00175676 -0.0386364 -0.0116667 -0.0177273 0.00136364 0.00493899 0.0042\ninternal_weight=0 25421 4114 1408 1199 528 187 1078 187 891 407 187 121 484 55 143 132 77 55 84 121 44 429 111 55 45 44 55 21307 1375\ninternal_count=25949 25421 4114 1408 1199 528 187 1078 187 891 407 187 121 484 55 143 132 77 55 84 121 44 429 111 55 45 44 55 21307 1375\nis_linear=0\nshrinkage=0.05\n\n\nTree=20\nnum_leaves=31\nnum_cat=0\nsplit_feature=12 12 1 12 12 4 1 12 1 2 12 2 12 0 1 12 12 12 11 1 12 4 1 12 2 1 1 1 12 1\nsplit_gain=323.264 45.1254 107.564 106.588 24.3506 46.8 22.4625 44.4557 5.05733 9.24095 9.03719 6.58884 4.14848 4.58182 3.95158 3.45482 3.87879 3.92727 3.85 3.12426 1.72401 1.10313 2.76797 2.57041 0.994318 0.916017 0.505348 0.848485 0.467215 32.4817\nthreshold=26.650000000000002 28.150000000000002 -0.23537230790205757 28.050000000000004 26.350000000000005 26.350000000000005 0.51297097409535064 27.450000000000003 0.17646842360078763 -0.96234030595689413 27.950000000000003 -0.99983123799342477 27.750000000000004 12.500000000000002 0.091259403071267925 27.650000000000002 27.950000000000003 27.850000000000005 99.500000000000014 0.99053107487289871 27.050000000000004 27.550000000000004 0.70290292807158605 27.850000000000005 0.92843842216862604 0.83376496542330847 -0.091260668982868151 -0.13398594226331254 28.550000000000004 0.95242846126021108\ndecision_type=2 2 2 2 2 2 2 2 2 2 2 2 2 2 2 2 2 2 2 2 2 2 2 2 2 2 2 2 2 2\nleft_child=4 2 -2 6 -1 14 8 20 11 10 12 -4 -10 -14 -6 24 17 18 -17 21 -8 22 -9 -24 -11 -22 27 -13 29 -3\nright_child=1 28 3 -5 5 -7 7 19 9 15 -12 26 13 -15 -16 16 -18 -19 -20 -21 25 -23 23 -25 -26 -27 -28 -29 -30 -31\nleaf_value=-0.043566099152128328 0.00014940021640601488 0.0044957820137458528 -0.000145816341650194 -0.00014485638537848901 0.0013175451014125984 -0.0050318252488451521 -0.0056622510384865647 5.5767911588621237e-06 -0.00041343234822157628 9.1245302196603988e-05 0.00044669399845620461 3.2892023281760888e-05 -0.00012197458101148584 -5.9907897895783435e-06 -0.00094932662599798057 -0.00044667201597610191 0.00044669399845620461 -0.00012197458101148584 1.0214654145102033e-05 -0.00072257782163447364 -0.0024086442961436918 6.1466042911462184e-06 -0.0012504452471728683 -0.00012197458101148584 -4.8986374459580878e-05 -0.0040589273891000494 6.9721736698014067e-05 -0.00012197458101148584 0.040839347248883766 -0.0044486851210576083\nleaf_weight=297 2717 2068 33 209 87 120 33 63 33 154 33 44 35 20 24 20 44 33 35 22 77 68 31 25 22 33 297 33 19206 33\nleaf_count=297 2717 2068 33 209 87 120 33 63 33 154 33 44 35 20 24 20 44 33 35 22 77 68 31 25 22 33 297 33 19206 33\ninternal_value=0 0.00399689 -0.000797277 -0.0120723 -0.0355303 -0.023355 -0.00627946 -0.016875 -0.00181818 -0.00560606 -0.017314 0.00217445 -0.0256818 -0.0340909 4.50452e-05 -0.00100649 -0.00712121 -0.0131818 -0.005 -0.00217703 -0.0383566 -8.02137e-05 -0.00298319 -0.0110714 0.00357955 -0.0413636 0.00406417 0.000454546 0.00492256 0.00421466\ninternal_weight=0 25421 4114 1397 528 231 1188 352 836 429 121 407 88 55 111 308 132 88 55 209 143 187 119 56 176 110 374 77 21307 2101\ninternal_count=25949 25421 4114 1397 528 231 1188 352 836 429 121 407 88 55 111 308 132 88 55 209 143 187 119 56 176 110 374 77 21307 2101\nis_linear=0\nshrinkage=0.05\n\n\nTree=21\nnum_leaves=31\nnum_cat=0\nsplit_feature=12 12 1 12 12 4 12 1 1 12 12 12 12 12 12 0 1 1 10 1 4 12 2 1 0 3 4 11 12 1\nsplit_gain=324.101 40.2772 95.0198 113.383 24.3506 46.8 23.5146 10.3306 8.87199 7.968 4.65455 11.6485 4.38488 12.7342 12.7348 20.3636 3.95158 2.73052 2.53382 2.07424 2.84026 2.57041 1.75812 4.10227 1.74545 1.49263 2.64205 2.24641 0.467215 32.4817\nthreshold=26.650000000000002 28.150000000000002 -0.24372957273992746 28.050000000000004 26.350000000000005 26.350000000000005 27.150000000000002 1.0000000180025095e-35 0.67802080537253961 27.450000000000003 27.050000000000004 26.950000000000003 27.650000000000002 27.950000000000003 27.850000000000005 12.500000000000002 0.091259403071267925 -0.13398594226331254 89.500000000000014 0.99053107487289871 27.550000000000004 27.850000000000005 -0.93543596745397617 0.17646842360078763 11.500000000000002 5.5000000000000009 26.550000000000004 97.500000000000014 28.550000000000004 0.95242846126021108\ndecision_type=2 2 2 2 2 2 2 2 2 2 2 2 2 2 2 2 2 2 2 2 2 2 2 2 2 2 2 2 2 2\nleft_child=4 2 -2 6 -1 16 7 -4 12 18 11 -9 25 14 17 -16 -6 -14 -10 20 21 -11 23 -19 -25 26 27 -8 29 -3\nright_child=1 28 3 -5 5 -7 8 10 9 19 -12 -13 13 -15 15 -17 -18 22 -20 -21 -22 -23 -24 24 -26 -27 -28 -29 -30 -31\nleaf_value=-0.041387794194521987 0.00014193020558579407 0.0042709929130586135 1.0251316631126883e-06 -0.00013761356610952902 0.0012516678463420307 -0.0047802339864028553 -0.00016983278941598828 -0.0053791384865622171 -0.00041662069265163779 -0.0011879229848142129 -0.0025621535323255111 0.00025597694314694053 -7.4116751624941912e-06 0.00042435929853343882 -0.00011587585196082273 6.4461437805363175e-06 -0.00090186029469800817 2.1624412221754596e-05 -0.0025133971982347347 -0.00068644893055278553 5.8392740765356168e-06 -0.00011587585196082273 9.7039214377758764e-06 -0.00040754441497057318 -0.00040754441497057318 0.00021022613820065317 3.0948245282889752e-05 4.4350341354970626e-08 0.038797379886439567 -0.0042262508650046798\nleaf_weight=297 2706 2068 22 209 87 120 25 33 31 31 44 22 22 220 56 32 24 44 24 22 54 25 66 24 20 297 62 23 19206 33\nleaf_count=297 2706 2068 22 209 87 120 25 33 31 31 44 22 22 220 56 32 24 44 24 22 54 25 66 24 20 297 62 23 19206 33\ninternal_value=0 0.00404803 -0.000481283 -0.0110156 -0.0355303 -0.023355 -0.00509174 -0.0259917 -0.00274583 -0.0126471 -0.0328788 -0.0231818 -0.000667789 -0.0038843 -0.0112879 -0.0268182 4.50452e-05 -0.00352273 -0.0286364 -0.00598485 -0.00318182 -0.0110714 -0.00116883 -0.00579545 -0.0165909 0.00315725 -0.00181818 -0.010625 0.00492256 0.00421466\ninternal_weight=0 25421 4114 1408 528 231 1199 121 1078 187 99 55 891 484 264 88 111 176 55 132 110 56 154 88 44 407 110 48 21307 2101\ninternal_count=25949 25421 4114 1408 528 231 1199 121 1078 187 99 55 891 484 264 88 111 176 55 132 110 56 154 88 44 407 110 48 21307 2101\nis_linear=0\nshrinkage=0.05\n\n\nTree=22\nnum_leaves=31\nnum_cat=0\nsplit_feature=12 12 1 12 12 4 12 1 1 12 12 12 1 1 12 12 0 11 1 1 4 12 10 1 1 12 1 1 4 12\nsplit_gain=275.862 36.2785 85.1759 119.141 33.5019 55.8365 17.7959 13.5 7.03349 5.72917 5.5 11 4.20139 3.51264 3.88551 25.0774 20.3636 2.49024 3.77857 2.07424 2.84026 2.57041 1.91834 1.95938 1.45455 0.321076 21.648 0.196205 0.321429 0.0212358\nthreshold=26.650000000000002 28.150000000000002 -0.24372957273992746 28.050000000000004 26.250000000000004 26.350000000000005 27.150000000000002 0.26037272046371446 0.70290292807158605 27.450000000000003 27.050000000000004 26.950000000000003 0.091259403071267925 -0.18492532721306487 27.850000000000005 27.950000000000003 12.500000000000002 97.500000000000014 0.30983042691905771 0.99053107487289871 27.550000000000004 27.850000000000005 89.500000000000014 0.45273815774107123 0.83376496542330847 28.450000000000003 0.95242846126021108 0.52766072109828632 26.950000000000003 28.550000000000004\ndecision_type=2 2 2 2 2 2 2 2 2 2 2 2 2 2 2 2 2 2 2 2 2 2 2 2 2 2 2 2 2 2\nleft_child=4 2 -2 6 -1 12 7 -4 13 24 11 -9 -6 -8 17 16 -16 18 -15 20 21 -11 23 -20 -10 26 -3 -19 -29 -27\nright_child=1 25 3 -5 5 -7 8 10 9 19 -12 -13 -14 14 15 -17 -18 27 22 -21 -22 -23 -24 -25 -26 29 -28 28 -30 -31\nleaf_value=-0.039318404484795982 0.00013483369530646884 0.0039293220821027932 9.7387507995705387e-07 -0.00013073288780400817 0.00068155736823136701 -0.0045412222870827535 -7.0410914043250734e-06 -0.0054714812628924754 -0.0023877273383229539 -0.0011285268355734372 -0.0024340458557093152 0.00024317809598954911 -0.00085676727996317659 0.0002683227619752046 -0.0001100820593627816 0.00040314133360670469 6.1238365915983195e-06 2.0485160009542371e-05 -0.00038716719422211555 -0.00065212648402521731 5.5473103726555452e-06 -0.0001100820593627816 -0.00038716719422211555 1.7142613774723259e-06 -0.0016696985417233635 0.016651008502543443 -0.0023265839401727106 -2.2449608156778241e-06 3.0311977127972513e-05 0.036857510892117598\nleaf_weight=264 2706 1353 33 209 120 120 22 22 22 31 44 22 24 70 56 209 32 379 20 22 54 25 23 27 22 726 22 28 36 19206\nleaf_count=264 2706 1353 33 209 120 120 22 22 22 31 44 22 24 70 56 209 32 379 20 22 54 25 23 27 22 726 22 28 36 19206\ninternal_value=0 0.004109 -0.000189596 -0.0101634 -0.0324053 -0.0198106 -0.00409091 -0.0222727 -0.00205009 -0.0111932 -0.0325 -0.02 0.00118056 -0.000266075 0.000227273 -0.00442761 -0.0268182 0.00259863 -0.00321429 -0.00598485 -0.00318182 -0.0110714 -0.0114286 -0.0056383 -0.0268182 0.00493899 0.0042 0.00443567 0.001875 0.00498997\ninternal_weight=0 25421 4114 1408 528 264 1199 121 1078 176 88 44 144 902 880 297 88 583 140 132 110 56 70 47 44 21307 1375 443 64 19932\ninternal_count=25949 25421 4114 1408 528 264 1199 121 1078 176 88 44 144 902 880 297 88 583 140 132 110 56 70 47 44 21307 1375 443 64 19932\nis_linear=0\nshrinkage=0.05\n\n\nTree=23\nnum_leaves=31\nnum_cat=0\nsplit_feature=12 12 4 12 1 12 0 12 1 12 12 1 1 12 1 12 12 0 11 1 10 1 1 4 12 0 12 1 1 4\nsplit_gain=278.125 33.5019 55.8365 23.2243 55.2812 37.7227 48.3636 18.3719 13.5 5.5 11 4.70638 4.20139 3.97727 3.51264 3.88551 25.0774 20.3636 2.49024 3.77857 1.91834 1.95938 1.90909 3.02098 2.34218 1.43442 0.467215 32.4817 0.196205 0.321429\nthreshold=26.650000000000002 26.250000000000004 26.350000000000005 28.150000000000002 -0.24372957273992746 28.050000000000004 12.500000000000002 27.150000000000002 0.26037272046371446 27.050000000000004 26.950000000000003 0.70290292807158605 0.091259403071267925 27.350000000000005 -0.18492532721306487 27.850000000000005 27.950000000000003 12.500000000000002 97.500000000000014 0.30983042691905771 89.500000000000014 0.45273815774107123 0.99053107487289871 27.550000000000004 27.850000000000005 10.500000000000002 28.550000000000004 0.95242846126021108 0.52766072109828632 26.950000000000003\ndecision_type=2 2 2 2 2 2 2 2 2 2 2 2 2 2 2 2 2 2 2 2 2 2 2 2 2 2 2 2 2 2\nleft_child=1 -1 12 4 -2 7 -7 8 -6 10 -10 14 -3 -13 -9 18 17 -17 19 -16 21 -21 23 24 25 -15 27 -5 -20 -30\nright_child=3 2 -4 26 5 6 -8 11 9 -11 -12 13 -14 22 15 16 -18 -19 28 20 -22 -23 -24 -25 -26 -27 -28 -29 29 -31\nleaf_value=-0.0373524842605562 0.00012809201054118092 0.0006474794998197809 -0.0043141611727285324 0.0038609771633003834 9.2518132603913734e-07 -0.00012419624341379888 3.9249418891884607e-06 -6.6890368341177014e-06 -0.0051979071997479316 -0.0023123435629239289 0.00023101919119010718 -0.0022683409714067794 -0.00081392891596503321 5.8970703984684294e-05 0.00025490662387642833 -0.00010457795639471357 0.00038298426692637836 5.8176447620184039e-06 1.9460902008994196e-05 -0.00036780883451097428 -0.00036780883451097428 1.6285483086520003e-06 -0.00061952015982402742 5.2699448540138867e-06 -0.00010457795639471357 -0.0015862136146372664 0.03501463534751164 -0.0046577127772082089 -2.1327127749488669e-06 2.8796378271600533e-05\nleaf_weight=264 2706 120 120 2068 33 133 76 22 22 44 22 22 24 33 70 56 209 32 379 20 23 27 22 54 25 20 19206 33 28 36\nleaf_count=264 2706 120 120 2068 33 133 76 22 22 44 22 22 24 33 70 56 209 32 379 20 23 27 22 54 25 20 19206 33 28 36\ninternal_value=0 -0.0324053 -0.0198106 0.00425849 0.000819154 -0.00721591 -0.0268182 -0.003799 -0.0222727 -0.0325 -0.02 -0.00172542 0.00118056 -0.00920455 -0.000266075 0.000227273 -0.00442761 -0.0268182 0.00259863 -0.00321429 -0.0114286 -0.0056383 -0.00636364 -0.00409091 -0.0103846 -0.00443396 0.00492256 0.00421466 0.00443567 0.001875\ninternal_weight=0 528 264 25421 4114 1408 209 1199 121 88 44 1078 144 176 902 880 297 88 583 140 70 47 154 132 78 53 21307 2101 443 64\ninternal_count=25949 528 264 25421 4114 1408 209 1199 121 88 44 1078 144 176 902 880 297 88 583 140 70 47 154 132 78 53 21307 2101 443 64\nis_linear=0\nshrinkage=0.05\n\n\nTree=24\nnum_leaves=31\nnum_cat=0\nsplit_feature=12 12 4 12 1 12 0 12 1 12 12 1 1 12 12 12 0 12 11 1 1 4 12 3 4 12 12 12 1 4\nsplit_gain=277.917 33.5019 55.8365 24.1973 57.5539 36.772 48.3636 17.7959 13.5 5.5 11 4.65544 4.20139 3.96059 12.1488 13.3636 20.3636 3.86445 3.32577 3.08279 1.81926 3.27797 2.1102 1.69704 2.45646 4.98575 1.38365 0.467215 32.4817 0.283729\nthreshold=26.650000000000002 26.250000000000004 26.350000000000005 28.150000000000002 -0.24372957273992746 28.050000000000004 12.500000000000002 27.150000000000002 0.26037272046371446 27.050000000000004 26.950000000000003 0.70290292807158605 0.091259403071267925 27.650000000000002 27.950000000000003 27.850000000000005 12.500000000000002 27.350000000000005 97.500000000000014 -0.13398594226331254 0.99053107487289871 27.550000000000004 27.850000000000005 5.5000000000000009 26.550000000000004 27.450000000000003 27.550000000000004 28.550000000000004 0.95242846126021108 25.850000000000005\ndecision_type=2 2 2 2 2 2 2 2 2 2 2 2 2 2 2 2 2 2 2 2 2 2 2 2 2 2 2 2 2 2\nleft_child=1 -1 12 4 -2 7 -7 8 -6 10 -10 13 -3 23 15 18 -17 -13 -15 -20 21 22 26 24 25 -9 -19 28 -5 -21\nright_child=3 2 -4 27 5 6 -8 11 9 -11 -12 17 -14 14 -16 16 -18 20 19 29 -22 -23 -24 -25 -26 -27 -28 -29 -30 -31\nleaf_value=-0.035484860047528426 0.00012168741001410411 0.00061510552482886289 -0.0040984531140920667 0.0036679283051354265 8.7892225977270763e-07 -0.00011798643124318887 3.7286947947023918e-06 -0.00013820379096376456 -0.0049380118397605701 -0.0021967263847777409 0.00021946823163059294 -0.0021549239228363603 -0.00077323247016685044 -0.00034941839278541665 0.00036383505357999728 -9.9349058574915724e-05 5.52676252389972e-06 -0.001469517215519991 -6.3545849924295794e-06 2.5441181979322823e-06 -0.00058854415183287048 5.0064476113220742e-06 -9.9349058574915724e-05 0.00019771752818957823 2.7052844725420778e-05 2.6101650387744261e-07 0.00020924749727377901 0.033263903580136048 -0.0044248271383477283 1.2688667347227068e-05\nleaf_weight=264 2706 120 120 2068 33 133 76 23 22 44 22 22 24 38 220 56 32 33 20 25 22 54 25 297 68 30 20 19206 33 93\nleaf_count=264 2706 120 120 2068 33 133 76 23 22 44 22 22 24 38 220 56 32 33 20 25 22 54 25 297 68 30 20 19206 33 93\ninternal_value=0 -0.0324053 -0.0198106 0.00424472 0.000734079 -0.00746449 -0.0268182 -0.00409091 -0.0222727 -0.0325 -0.02 -0.00205009 0.00118056 -0.000598669 -0.00367769 -0.0109091 -0.0268182 -0.00948864 -0.00295455 0.000652174 -0.00668831 -0.0044697 -0.0110256 0.00296651 -0.00202479 -0.0100943 -0.00537736 0.00492256 0.00421466 0.00372881\ninternal_weight=0 528 264 25421 4114 1408 209 1199 121 88 44 1078 144 902 484 264 88 176 176 138 154 132 78 418 121 53 53 21307 2101 118\ninternal_count=25949 528 264 25421 4114 1408 209 1199 121 88 44 1078 144 902 484 264 88 176 176 138 154 132 78 418 121 53 53 21307 2101 118\nis_linear=0\nshrinkage=0.05\n\n\nTree=25\nnum_leaves=31\nnum_cat=0\nsplit_feature=12 12 4 12 1 12 0 1 12 12 12 12 0 1 2 1 1 1 4 12 4 7 1 12 8 4 12 1 4 0\nsplit_gain=247.923 38.5016 60.7254 20.814 49.6473 40.223 48.3636 13.6873 22.1676 6.64427 11.3132 13.6387 20.3636 4.31275 4.19048 4.90909 3.00682 2.42975 2.34298 1.3966 1.088 0.659666 1.13257 2.48203 2.56098 1.43027 0.467215 32.4817 0.154545 2.84217e-14\nthreshold=26.650000000000002 26.150000000000002 26.350000000000005 28.150000000000002 -0.24372957273992746 28.050000000000004 12.500000000000002 0.51297097409535064 27.250000000000004 27.650000000000002 27.950000000000003 27.850000000000005 12.500000000000002 0.091259403071267925 -0.95242240592625282 0.35846314187849709 0.80417553764032002 0.99053107487289871 27.450000000000003 27.950000000000003 26.350000000000005 23.750000000000004 0.70290292807158605 27.750000000000004 25.050000000000004 26.450000000000003 28.550000000000004 0.95242846126021108 27.550000000000004 14.500000000000002\ndecision_type=2 2 2 2 2 2 2 2 2 2 2 2 2 2 2 2 2 2 2 2 2 2 2 2 2 2 2 2 2 2\nleft_child=1 -1 13 4 -2 7 -7 9 16 -6 11 14 -13 -3 -11 -16 20 18 19 21 -9 -10 25 24 -24 -23 27 -5 -20 -28\nright_child=3 2 -4 26 5 6 -8 8 17 10 -12 12 -14 -15 15 -17 -18 -19 28 -21 -22 22 23 -25 -26 -27 29 -29 -30 -31\nleaf_value=-0.033710617045151992 0.00011560303951334561 0.00058435024858738416 -0.003893530458387424 0.0034845318898787171 6.6045494346766995e-05 -0.0001120871096810916 3.5422600550560901e-06 -0.001120796234761734 2.1684917208543401e-05 1.2054233979874596e-05 0.0003456433009009885 -9.4381605646098882e-05 5.2504243976514438e-06 -0.00073457084665853227 -0.00033194747314606592 6.5869888974390278e-06 -0.0044931759259203069 -0.00055911694424128913 -7.7043206189959028e-05 0.00036769916126573322 -0.0011573248376341994 -0.0001312936014155497 0.00012949802956132572 -9.4381605646098882e-05 -0.0014334270731295009 1.9447865700072954e-07 0.031600708401129295 -0.0042035857814303607 4.7561252307204434e-06 0.031728829586432104\nleaf_weight=242 2706 142 120 2068 407 133 76 24 20 88 198 56 32 24 33 33 33 22 20 23 31 21 21 21 20 28 15714 33 68 3492\nleaf_count=242 2706 142 120 2068 407 133 76 24 20 88 198 56 32 24 33 33 33 22 20 23 31 21 21 21 20 28 15714 33 68 3492\ninternal_value=0 -0.030322 -0.0179021 0.00429389 0.00103792 -0.0065767 -0.0268182 -0.00304837 -0.0113352 0.000395514 -0.00386364 -0.0111157 -0.0268182 0.00168675 -0.00214286 -0.0116667 -0.0330682 -0.00409091 -0.00264463 -0.00636364 -0.0259091 -0.00835878 -0.00986486 -0.0143548 -0.00719512 -0.00418367 0.00492256 0.00421466 0.00386364 0.005\ninternal_weight=0 528 286 25421 4114 1408 209 1199 352 847 440 242 88 166 154 66 88 264 242 154 55 131 111 62 41 49 21307 2101 88 19206\ninternal_count=25949 528 286 25421 4114 1408 209 1199 352 847 440 242 88 166 154 66 88 264 242 154 55 131 111 62 41 49 21307 2101 88 19206\nis_linear=0\nshrinkage=0.05\n\n\nTree=26\nnum_leaves=31\nnum_cat=0\nsplit_feature=12 12 4 12 1 12 0 12 2 12 12 0 1 1 1 12 10 2 12 1 1 12 1 7 10 5 0 1 0 1\nsplit_gain=248.007 38.5016 60.7254 20.4251 49.3212 40.3428 48.3636 20.0233 20.5714 5.34221 27.9439 25.4545 5.06 4.31275 2.4431 3.53132 4.52336 2.09524 0.840404 2.65909 1.84091 0.467215 32.4817 0.409756 0.377368 0.0334064 2.84217e-14 2.84217e-14 1.42109e-14 1.42109e-14\nthreshold=26.650000000000002 26.150000000000002 26.350000000000005 28.150000000000002 -0.23537230790205757 28.050000000000004 12.500000000000002 27.150000000000002 -0.8611288361322974 27.850000000000005 27.950000000000003 12.500000000000002 0.99053107487289871 0.091259403071267925 0.52766072109828632 27.450000000000003 88.500000000000014 -0.75013812021657655 27.650000000000002 0.30983042691905771 0.43733377705052551 28.550000000000004 0.95242846126021108 26.350000000000005 83.500000000000014 26.750000000000004 14.500000000000002 0.12545942051955489 15.500000000000002 -0.84315017450793706\ndecision_type=2 2 2 2 2 2 2 2 2 2 2 2 2 2 2 2 2 2 2 2 2 2 2 2 2 2 2 2 2 2\nleft_child=1 27 13 4 -2 7 -7 8 -6 14 11 -11 -12 -3 18 16 23 -10 -9 -20 -21 22 -5 -16 -17 -26 -23 -1 29 -4\nright_child=3 2 28 21 5 6 -8 9 17 10 12 -13 -14 -15 15 24 -18 -19 19 20 -22 26 -24 -25 25 -27 -28 -29 -30 -31\nleaf_value=-0.041991664663156708 0.00010982288753762504 0.00055513273615801493 -0.0015921761749111696 0.0033103052953848081 6.2743219629446403e-05 -0.0001064827541970459 3.3651470523921036e-06 0.00016075811693755046 -0.001099458595752445 -8.9662525363820586e-05 0.00032836113585599236 4.518318969104485e-06 -0.00053116109702919798 -0.0006978423043255235 -0.00032389464700087521 -0.00090518718838998287 -0.0017639610270593403 -0.0034767760781729607 1.1451522280836458e-05 -0.00032900089156469889 3.0326730348015833e-06 0.03002067298107285 -0.0039934064923589059 1.8475472423062912e-07 2.884369507603935e-05 2.6859871967310769e-05 0.030142388107110563 -0.028395837034522489 -0.0033702624857853748 -0.0037295665454061934\nleaf_weight=209 2717 142 24 2068 44 133 76 352 33 70 253 40 22 24 20 27 36 44 99 22 22 15714 33 21 61 22 3492 33 21 75\nleaf_count=209 2717 142 24 2068 44 133 76 352 33 70 253 40 22 24 20 27 36 44 99 22 22 15714 33 21 61 22 3492 33 21 75\ninternal_value=0 -0.030322 -0.0179021 0.00429979 0.00107438 -0.00656049 -0.0268182 -0.00299663 -0.0222727 -0.000810684 -0.00551948 -0.0268182 0.003 0.00168675 0.00184751 -0.00302139 -0.0112338 -0.0378571 0.00368687 0.000454546 -0.00977273 0.00492256 0.00421466 0.000121951 0.00272727 0.00439759 0.005 -0.045 -0.045 -0.045\ninternal_weight=0 528 286 25421 4114 1397 209 1188 121 1067 385 110 275 166 682 187 77 77 495 143 44 21307 2101 41 110 83 19206 242 120 99\ninternal_count=25949 528 286 25421 4114 1397 209 1188 121 1067 385 110 275 166 682 187 77 77 495 143 44 21307 2101 41 110 83 19206 242 120 99\nis_linear=0\nshrinkage=0.05\n\n\nTree=27\nnum_leaves=31\nnum_cat=0\nsplit_feature=12 12 4 12 1 12 0 1 12 12 12 0 1 1 1 4 4 12 11 1 12 10 2 12 1 4 8 12 4 12\nsplit_gain=205.565 43.8568 66.8118 19.9571 47.8061 41.0587 48.3636 12.7442 22.1676 5.00389 24.6713 20.3636 4.43363 3.3 2.6064 1.91795 1.43118 1.41718 1.26125 2.95797 1.18199 1.44651 0.75822 0.321076 21.648 0.154545 0.121385 0.062256 0.262821 0.0212358\nthreshold=26.650000000000002 26.050000000000004 26.350000000000005 28.150000000000002 -0.23537230790205757 28.050000000000004 12.500000000000002 0.51297097409535064 27.250000000000004 27.850000000000005 27.950000000000003 12.500000000000002 0.091259403071267925 0.80417553764032002 0.99053107487289871 27.450000000000003 26.350000000000005 27.850000000000005 97.500000000000014 0.30983042691905771 27.550000000000004 88.500000000000014 -0.92272482904738262 28.450000000000003 0.95242846126021108 27.550000000000004 26.050000000000004 27.650000000000002 25.850000000000005 28.550000000000004\ndecision_type=2 2 2 2 2 2 2 2 2 2 2 2 2 2 2 2 2 2 2 2 2 2 2 2 2 2 2 2 2 2\nleft_child=1 -1 12 4 -2 7 -7 9 13 18 11 -11 -3 16 15 17 -9 20 19 -6 21 26 -21 24 -5 -17 -10 -20 -29 -25\nright_child=3 2 -4 23 5 6 -8 8 14 10 -12 -13 -14 -15 -16 25 -18 -19 27 22 -22 -23 -24 29 -26 -27 -28 28 -30 -31\nleaf_value=-0.039892081429998817 0.00010433174316073491 7.4516113749822932e-05 -0.0035285442940663466 0.0030166688453126867 0.00014098410808394135 -0.00010115861648714032 3.1968896998080257e-06 -0.0009850823090394934 1.952306258504493e-05 -8.51793990955585e-05 0.00031194307906314835 4.7619872292514744e-06 -0.00066295018910920067 -0.0040946783257156793 -0.00050460304217772036 -6.9963077539195544e-05 -0.0010444856659647783 -8.51793990955585e-05 6.8620931926552912e-05 -0.00029890005491051141 8.4233014294632377e-05 -0.00031426891525518125 -4.7266058450290419e-06 0.015102270944731445 -0.0013462781336967212 4.292403020578206e-06 -8.3186169893697891e-05 2.715479927110984e-06 6.5833004135748015e-06 0.028519639332019155\nleaf_weight=209 2717 175 120 1353 76 133 76 24 23 56 198 32 24 33 22 20 31 37 319 22 35 39 25 726 22 68 20 26 82 19206\nleaf_count=209 2717 175 120 1353 76 133 76 24 23 56 198 32 24 33 22 20 31 37 319 22 35 39 25 726 22 68 20 26 82 19206\ninternal_value=0 -0.027197 -0.0155329 0.00432339 0.00113515 -0.00638153 -0.0268182 -0.0027862 -0.010767 0.000574163 -0.00479021 -0.0268182 0.00223618 -0.0325 -0.00352273 -0.00202479 -0.025 -0.00538961 0.00336364 -0.00109756 -0.00269231 -0.00597561 -0.0109574 0.00493899 0.0042 0.00386364 0.000348837 0.00464871 0.00361111 0.00498997\ninternal_weight=0 528 319 25421 4114 1397 209 1188 352 836 286 88 199 88 264 242 55 154 550 123 117 82 47 21307 1375 88 43 427 108 19932\ninternal_count=25949 528 319 25421 4114 1397 209 1188 352 836 286 88 199 88 264 242 55 154 550 123 117 82 47 21307 1375 88 43 427 108 19932\nis_linear=0\nshrinkage=0.05\n\n\nTree=28\nnum_leaves=31\nnum_cat=0\nsplit_feature=12 12 4 12 1 12 0 12 1 12 12 0 1 1 1 1 1 12 2 1 1 11 12 1 1 0 11 4 0 4\nsplit_gain=202.872 44.7949 64.4752 20.0399 47.8367 41.0742 48.3636 11.9981 20.8333 4.63154 27.9439 25.4545 5.06 4.43363 2.55748 2.23059 3.45868 2.51074 2.48623 4.84848 1.83333 0.871212 0.467215 32.4817 0.222727 0.436364 0.166667 0.102273 2.84217e-14 1.42109e-14\nthreshold=26.650000000000002 26.050000000000004 26.350000000000005 28.150000000000002 -0.24372957273992746 28.050000000000004 12.500000000000002 27.150000000000002 0.51297097409535064 27.850000000000005 27.950000000000003 12.500000000000002 0.99053107487289871 0.091259403071267925 -0.16799356919963607 0.30983042691905771 0.3261394409934788 27.450000000000003 -0.59867820553660911 0.81428061195174062 0.66527693225344786 98.500000000000014 28.550000000000004 0.95242846126021108 0.86113431103781346 11.500000000000002 96.500000000000014 25.750000000000004 14.500000000000002 27.550000000000004\ndecision_type=2 2 2 2 2 2 2 2 2 2 2 2 2 2 2 2 2 2 2 2 2 2 2 2 2 2 2 2 2 2\nleft_child=1 -1 13 4 -2 7 29 8 -6 14 11 -11 -12 -3 -9 -16 -17 18 21 -20 -10 -18 23 -5 27 -26 -4 -19 -24 -7\nright_child=3 2 26 22 5 6 -8 9 20 10 12 -13 -14 -15 15 16 17 24 19 -21 -22 -23 28 -25 25 -27 -28 -29 -30 -31\nleaf_value=-0.037897477358498792 9.911515600276034e-05 7.0790308062385068e-05 -0.0026169599830251182 0.0029939565883498886 5.6175012051618015e-05 -9.6100685662747775e-05 3.0370452147820971e-06 -1.4721362031622221e-07 -0.00099226138266654833 -8.0920429140718408e-05 0.00029634592511005312 4.0777828695937046e-06 -0.00047937289006885211 -0.00062980267965371173 1.7049589189177538e-05 -0.00029760584424088661 -2.4609017347664965e-05 6.4774592617666831e-06 -0.0015295869627598435 -0.001006098536826084 -0.0038899444094299749 2.4524797334812833e-05 0.027093657365418269 -0.0043843641849768073 0.00019409618214358379 -0.00094274648926084836 -0.0033666610034325476 2.1083906758434524e-05 0.027209286735154239 -9.6100685662747775e-05\nleaf_weight=209 2706 175 20 2068 55 101 76 22 33 70 253 40 22 24 308 22 20 32 22 33 33 46 15714 33 24 20 100 144 3492 32\nleaf_count=209 2706 175 20 2068 55 101 76 22 33 70 253 40 22 24 308 22 20 32 22 33 33 46 15714 33 24 20 100 144 3492 32\ninternal_value=0 -0.0270076 -0.0152194 0.00430569 0.00111084 -0.00636364 -0.0268182 -0.00279816 -0.0177273 -0.00112245 -0.00551948 -0.0268182 0.003 0.00223618 0.00132035 0.00187034 -0.000785124 0.000454546 -0.00533058 -0.0131818 -0.0366667 0.00121212 0.00492256 0.00421466 0.00363636 0.000454546 -0.0441667 0.00443182 0.005 -0.045\ninternal_weight=0 528 319 25421 4114 1408 209 1199 121 1078 385 110 275 199 693 671 363 341 121 55 66 66 21307 2101 220 44 120 176 19206 133\ninternal_count=25949 528 319 25421 4114 1408 209 1199 121 1078 385 110 275 199 693 671 363 341 121 55 66 66 21307 2101 220 44 120 176 19206 133\nis_linear=0\nshrinkage=0.05\n\n\nTree=29\nnum_leaves=31\nnum_cat=0\nsplit_feature=12 12 4 12 1 12 0 12 1 12 12 0 1 1 1 1 12 4 1 11 11 12 1 12 1 4 12 2 0 4\nsplit_gain=199.894 42.886 56.6247 19.3774 46.0596 41.9344 48.3636 12.4037 20.8333 5.23636 27.9439 25.4545 5.06 4.43363 2.69119 2.22026 2.91717 2.54281 1.83333 1.62158 0.7416 1.53773 0.484237 0.360815 25.0846 0.0728922 0.226692 0.0391304 2.84217e-14 1.42109e-14\nthreshold=26.050000000000004 26.650000000000002 26.350000000000005 28.150000000000002 -0.24372957273992746 28.050000000000004 12.500000000000002 27.150000000000002 0.51297097409535064 27.850000000000005 27.950000000000003 12.500000000000002 0.99053107487289871 0.091259403071267925 -0.16799356919963607 0.80417553764032002 27.550000000000004 27.050000000000004 0.66527693225344786 98.500000000000014 98.500000000000014 27.650000000000002 0.52766072109828632 28.550000000000004 0.95242846126021108 25.750000000000004 27.650000000000002 -0.039769286347669845 14.500000000000002 27.550000000000004\ndecision_type=2 2 2 2 2 2 2 2 2 2 2 2 2 2 2 2 2 2 2 2 2 2 2 2 2 2 2 2 2 2\nleft_child=-1 2 13 4 -3 7 29 8 -6 14 11 -11 -12 -2 -9 20 17 -17 -10 -4 21 22 -16 24 -5 26 -22 -21 -25 -7\nright_child=1 3 19 23 5 6 -8 9 18 10 12 -13 -14 -15 15 16 -18 -19 -20 27 25 -23 -24 28 -26 -27 -28 -29 -30 -31\nleaf_value=-0.03600260349057386 6.7250792659301337e-05 9.4159398202542382e-05 -0.0026976238231257678 0.0028442587589324834 5.3366261449028229e-05 -9.1295651379574857e-05 2.885192954060756e-06 -1.3985293936258359e-07 -0.00094264831353321201 -7.6874407683646956e-05 0.00028152862885448825 3.8738937261584288e-06 -0.00045540424556538288 -0.00059831254567099725 0.0001519378192360451 -0.0014531076146218069 0.00012198352694525738 -0.0013123781182782142 -0.0036954471889584849 -0.0031983279532608933 0.00012624023306526412 -0.00026907475995283651 -1.9586973361640504e-05 0.025738974497147283 -0.0041651459757280343 1.5554522849114959e-05 3.8149344394652597e-06 -0.0011715523320453547 0.025848822398396545 -9.1295651379574857e-05\nleaf_weight=209 175 2706 28 2068 55 101 76 22 33 70 253 40 22 24 96 34 44 21 33 72 67 38 26 15714 33 317 28 20 3492 32\nleaf_count=209 175 2706 28 2068 55 101 76 22 33 70 253 40 22 24 96 34 44 21 33 72 67 38 26 15714 33 317 28 20 3492 32\ninternal_value=0 0.00409674 -0.0141223 0.00432536 0.00118376 -0.00615057 -0.0268182 -0.00254796 -0.0177273 -0.000844156 -0.00551948 -0.0268182 0.003 0.00223618 0.00175325 0.00231744 -0.00459596 -0.0122727 -0.0366667 -0.04125 0.00351399 0.000625 0.00336066 0.00493195 0.00430985 0.00463592 0.00342105 -0.0444565 0.005 -0.045\ninternal_weight=0 25740 319 25421 4114 1408 209 1199 121 1078 385 110 275 199 693 671 99 55 66 120 572 160 122 21307 2101 412 95 92 19206 133\ninternal_count=25949 25740 319 25421 4114 1408 209 1199 121 1078 385 110 275 199 693 671 99 55 66 120 572 160 122 21307 2101 412 95 92 19206 133\nis_linear=0\nshrinkage=0.05\n\n\nTree=30\nnum_leaves=31\nnum_cat=0\nsplit_feature=12 12 4 12 1 12 0 12 1 12 12 0 1 1 1 1 12 4 1 11 11 12 1 12 1 4 12 2 1 4\nsplit_gain=200.005 42.95 56.6247 19.5476 46.0596 41.9344 48.3636 12.4037 20.8333 5.23636 27.9439 25.4545 5.06 4.43363 2.69119 2.22026 2.91717 2.54281 1.83333 1.62158 0.7416 1.53773 0.484237 0.207651 21.7696 0.0728922 0.226692 0.0391304 2.84217e-14 1.42109e-14\nthreshold=26.050000000000004 26.650000000000002 26.350000000000005 28.150000000000002 -0.24372957273992746 28.050000000000004 12.500000000000002 27.150000000000002 0.51297097409535064 27.850000000000005 27.950000000000003 12.500000000000002 0.99053107487289871 0.091259403071267925 -0.16799356919963607 0.80417553764032002 27.550000000000004 27.050000000000004 0.66527693225344786 98.500000000000014 98.500000000000014 27.650000000000002 0.52766072109828632 28.550000000000004 0.97112537654464559 25.750000000000004 27.650000000000002 -0.039769286347669845 0.99700008544936913 27.550000000000004\ndecision_type=2 2 2 2 2 2 2 2 2 2 2 2 2 2 2 2 2 2 2 2 2 2 2 2 2 2 2 2 2 2\nleft_child=-1 2 13 4 -3 7 29 8 -6 14 11 -11 -12 -2 -9 20 17 -17 -10 -4 21 22 -16 24 -5 26 -22 -21 -25 -7\nright_child=1 3 19 23 5 6 -8 9 18 10 12 -13 -14 -15 15 16 -18 -19 -20 27 25 -23 -24 28 -26 -27 -28 -29 -30 -31\nleaf_value=-0.034202473316045215 6.3888253026256342e-05 8.9451428292441912e-05 -0.0025627426319695568 0.0027020458209857882 5.0697948376665637e-05 -8.6730868810569472e-05 2.7409333062777821e-06 -1.3286029236780906e-07 -0.0008955158978565692 -7.3030687299535654e-05 0.00026745219741179936 3.6801990399126796e-06 -0.00043263403328719363 -0.00056839691838752497 0.00014434092827423107 -0.0013804522338906723 0.00011588435059799451 -0.001246759212364292 -0.0035106748295104804 -0.0030384115555978754 0.00011992822141199966 -0.00025562102195522132 -1.8607624693522951e-05 0.024452025772289866 -0.0047332388978031052 1.4776796706605923e-05 3.6241877174033857e-06 -0.0011129747154430482 0.050294112370532676 -8.6730868810569472e-05\nleaf_weight=209 175 2706 28 2079 55 101 76 22 33 70 253 40 22 24 96 34 44 21 33 72 67 38 26 18524 22 317 28 20 682 32\nleaf_count=209 175 2706 28 2079 55 101 76 22 33 70 253 40 22 24 96 34 44 21 33 72 67 38 26 18524 22 317 28 20 682 32\ninternal_value=0 0.00411033 -0.0141223 0.00433913 0.00118376 -0.00615057 -0.0268182 -0.00254796 -0.0177273 -0.000844156 -0.00551948 -0.0268182 0.003 0.00223618 0.00175325 0.00231744 -0.00459596 -0.0122727 -0.0366667 -0.04125 0.00351399 0.000625 0.00336066 0.00494837 0.00447644 0.00463592 0.00342105 -0.0444565 0.005 -0.045\ninternal_weight=0 25740 319 25421 4114 1408 209 1199 121 1078 385 110 275 199 693 671 99 55 66 120 572 160 122 21307 2101 412 95 92 19206 133\ninternal_count=25949 25740 319 25421 4114 1408 209 1199 121 1078 385 110 275 199 693 671 99 55 66 120 572 160 122 21307 2101 412 95 92 19206 133\nis_linear=0\nshrinkage=0.05\n\n\nTree=31\nnum_leaves=31\nnum_cat=0\nsplit_feature=12 12 4 12 1 12 0 1 12 2 1 12 12 12 0 1 12 2 1 1 1 1 4 1 8 1 12 8 12 1\nsplit_gain=179.459 34.7182 44.352 19.4659 45.4747 42.2231 48.3636 10.8541 16.4029 4.92105 4.43363 3.33614 10.7455 15.0019 20.3636 4.94268 5.21894 3.00568 6.27348 2.31402 5.33967 1.74706 3.21081 2.89199 1.44231 0.709707 0.436364 0.245455 0.116663 5.37356\nthreshold=26.050000000000004 26.650000000000002 26.350000000000005 28.150000000000002 -0.24372957273992746 28.050000000000004 12.500000000000002 0.66527693225344786 27.150000000000002 -0.99052477729077237 0.091259403071267925 27.650000000000002 27.950000000000003 27.850000000000005 12.500000000000002 0.51297097409535064 27.350000000000005 -0.95242240592625282 0.35846314187849709 -0.38242426011641079 -0.78326540922535159 0.99053107487289871 27.550000000000004 0.81428061195174062 25.050000000000004 0.88621069759564464 27.450000000000003 25.250000000000004 28.350000000000005 0.92922379131507438\ndecision_type=2 2 2 2 2 2 2 2 2 2 2 2 2 2 2 2 2 2 2 2 2 2 2 2 2 2 2 2 2 2\nleft_child=9 2 10 4 -3 7 -7 11 -9 -1 -2 15 13 17 -15 -6 -17 -13 -19 20 -4 22 23 -10 25 -25 -18 -20 29 -5\nright_child=1 3 19 28 5 6 -8 8 21 -11 -12 12 -14 14 -16 16 26 18 27 -21 -22 -23 -24 24 -26 -27 -28 -29 -30 -31\nleaf_value=-0.010548037845750358 6.0693840374881347e-05 8.4978856877881989e-05 -0.0010170208588507496 0.002438822344633529 6.4620292586958786e-05 -8.239432536996106e-05 2.6038866408839568e-06 -0.0033351410880349827 -0.0013114296221960588 -0.032507330568411881 -0.00053997707246806657 1.3979925270035665e-05 0.00025407958754115613 -6.937915293452335e-05 3.9422940862010597e-06 -0.00085074010296377629 -1.7677243458891214e-05 -0.00024283997085738918 -1.8886953541361481e-08 -0.0028864909778180351 -0.00039675955845890347 -0.00041100233162278955 3.4961890879259273e-06 0.0002197951603258308 -0.0010795824289838052 -6.937915293452335e-05 1.851314544261129e-05 3.20607946431295e-06 0.016301397717857578 -0.00061482677408655209\nleaf_weight=22 175 2706 35 935 407 133 76 33 33 187 24 88 220 56 32 33 22 33 22 53 32 22 54 31 26 21 33 33 20350 22\nleaf_count=22 175 2706 35 935 407 133 76 33 33 187 24 88 220 56 32 33 22 33 22 53 32 22 54 31 26 21 33 33 20350 22\ninternal_value=0 0.00415113 -0.0122414 0.00435683 0.00120807 -0.00607955 -0.0268182 -0.00246455 -0.0125 -0.0423684 0.00223618 -0.000209397 -0.00316116 -0.00996212 -0.0268182 0.00267677 -0.00806818 -0.00153409 -0.00806818 -0.03625 -0.0300746 -0.00676471 -0.005 -0.00986486 -0.00461538 0.000192308 0.00136364 0.00227273 0.0049648 0.00442529\ninternal_weight=0 25740 319 25421 4114 1408 209 1199 220 209 199 979 484 264 88 495 88 176 88 120 67 187 165 111 78 52 55 55 21307 957\ninternal_count=25949 25740 319 25421 4114 1408 209 1199 220 209 199 979 484 264 88 495 88 176 88 120 67 187 165 111 78 52 55 55 21307 957\nis_linear=0\nshrinkage=0.05\n\n\nTree=32\nnum_leaves=31\nnum_cat=0\nsplit_feature=12 12 4 12 1 12 0 1 12 1 2 2 1 12 12 0 1 4 1 1 1 12 1 8 1 12 1 4 7 4\nsplit_gain=179.639 29.0903 36.13 16.5052 40.0327 45.0335 48.3636 10.6731 11.6151 5.07111 6.85774 4.92105 4.43363 3.99222 25.4545 20.3636 1.74706 3.21081 2.89199 1.55741 3.84653 1.78394 2.75 1.44231 0.709707 0.467215 32.4817 0.250154 0.4121 0.12268\nthreshold=26.050000000000004 26.650000000000002 26.350000000000005 28.150000000000002 -0.23537230790205757 28.050000000000004 12.500000000000002 0.66527693225344786 27.150000000000002 -0.38242426011641079 -0.039769286347669845 -0.99052477729077237 0.091259403071267925 27.850000000000005 27.950000000000003 12.500000000000002 0.99053107487289871 27.550000000000004 0.81428061195174062 0.30983042691905771 0.3261394409934788 27.150000000000002 0.54219432480460406 25.050000000000004 0.88621069759564464 28.550000000000004 0.95242846126021108 26.450000000000003 24.850000000000005 25.550000000000004\ndecision_type=2 2 2 2 2 2 2 2 2 2 2 2 2 2 2 2 2 2 2 2 2 2 2 2 2 2 2 2 2 2\nleft_child=11 2 12 4 -3 7 -7 13 -9 10 -4 -1 -2 19 15 -15 17 18 -10 -6 -21 22 -22 24 -20 26 -5 28 29 -23\nright_child=1 3 9 25 5 6 -8 8 16 -11 -12 -13 -14 14 -16 -17 -18 -19 23 20 21 27 -24 -25 -26 -27 -28 -29 -30 -31\nleaf_value=-0.010020635953462788 5.7659148356137282e-05 8.0729914033916838e-05 -0.00037368959727560502 0.0024450024127048667 2.6703938384287085e-05 -7.8274609101391954e-05 2.4736923087687046e-06 -0.0031683840336333043 -0.0012458581410863092 -0.0027421664289271064 -0.00097472752771471513 -0.030881964039991345 -0.00051297821884470536 -6.5910195287877121e-05 0.00024137560816406278 3.74517938190877e-06 -0.00039045221504157017 3.3213796335473944e-06 0.00020880540230950874 -0.00024434876439053592 -0.0008082030978155075 7.1661565508622349e-06 2.738380601580779e-05 -0.0010256033075346949 -6.5910195287877121e-05 0.022414354597782449 -0.0044116460520243952 1.8550976860787217e-05 -2.058497440453566e-05 1.8550976896080458e-05\nleaf_weight=22 175 2717 33 2068 363 133 76 33 33 53 34 187 24 56 220 32 22 54 31 22 22 38 22 26 21 19206 33 152 20 21\nleaf_count=22 175 2717 33 2068 363 133 76 33 33 53 34 187 24 56 220 32 22 54 31 22 22 38 22 26 21 19206 33 152 20 21\ninternal_value=0 0.00417444 -0.0108307 0.00436273 0.0014633 -0.00541518 -0.0268182 -0.00164983 -0.0115909 -0.0325 -0.0233582 -0.0423684 0.00223618 0.000609504 -0.00409091 -0.0268182 -0.00676471 -0.005 -0.00986486 0.00280303 0.000117845 0.00172727 -0.0075 -0.00461538 0.000192308 0.00492256 0.00421466 0.00348485 0.00120253 0.00330508\ninternal_weight=0 25740 319 25421 4114 1397 209 1188 220 120 67 209 199 968 308 88 187 165 111 660 297 275 44 78 52 21307 2101 231 79 59\ninternal_count=25949 25740 319 25421 4114 1397 209 1188 220 120 67 209 199 968 308 88 187 165 111 660 297 275 44 78 52 21307 2101 231 79 59\nis_linear=0\nshrinkage=0.05\n\n\nTree=33\nnum_leaves=31\nnum_cat=0\nsplit_feature=12 12 4 12 1 12 0 1 1 12 1 2 12 12 0 1 1 1 1 12 1 4 0 1 12 1 4 7 5 4\nsplit_gain=158.666 30.865 34.058 14.7017 35.7515 47.4756 48.3636 14.1416 8.62649 18.5677 5.44337 6.24185 3.59684 22.1737 18.101 2.86872 1.55556 1.40323 3.95455 1.31157 3.3 0.769972 1.31955 0.811403 0.467215 32.4817 0.232421 0.396825 0.136508 0.0436709\nthreshold=25.850000000000005 26.650000000000002 26.350000000000005 28.150000000000002 -0.23537230790205757 28.050000000000004 12.500000000000002 0.29342972903661901 0.80417553764032002 27.250000000000004 -0.38242426011641079 -0.039769286347669845 27.850000000000005 27.950000000000003 12.500000000000002 0.99053107487289871 0.39036257410962044 0.30983042691905771 0.3261394409934788 27.150000000000002 0.54219432480460406 27.550000000000004 11.500000000000002 0.89404822654372251 28.550000000000004 0.95242846126021108 26.450000000000003 24.850000000000005 25.550000000000004 27.650000000000002\ndecision_type=2 2 2 2 2 2 2 2 2 2 2 2 2 2 2 2 2 2 2 2 2 2 2 2 2 2 2 2 2 2\nleft_child=-1 2 7 4 -3 8 -7 -2 12 -10 11 -4 17 14 16 21 -14 -6 -19 20 -20 22 23 -11 25 -5 27 28 -21 -28\nright_child=1 3 10 24 5 6 -8 -9 9 15 -12 -13 13 -15 -16 -17 -18 18 19 26 -22 -23 -24 -25 -26 -27 29 -29 -30 -31\nleaf_value=-0.029356344596533114 5.477619093827713e-05 7.6693418332141056e-05 -0.00035500511741185414 0.0023227522920695521 2.5368741465037204e-05 -7.4360878646295708e-05 2.3500076933302694e-06 -0.0015842953379557358 -0.0030099648319517011 0.00022366745316128257 -0.0026050581074807512 -0.00092599115132893216 -6.261468552342109e-05 0.00022930682775594848 3.356615553366059e-06 -0.0003709296042895716 -6.261468552342109e-05 -0.00023213132617102753 -0.00076779294292474989 7.4008122872726291e-06 1.037424720299817e-05 3.3631767976771701e-06 -0.00097432314215790689 -6.261468552342109e-05 0.021293636867893363 -0.0041910637494232154 2.5677233043985837e-05 -1.5764132565720957e-05 1.5567037641650385e-05 2.11822664795136e-06\nleaf_weight=165 213 2717 33 2068 363 133 76 30 33 37 53 34 42 231 36 22 21 22 22 43 33 43 21 20 19206 33 138 21 20 20\nleaf_count=165 213 2717 33 2068 363 133 76 30 33 37 53 34 42 231 36 22 21 22 22 43 33 43 21 20 19206 33 138 21 20 20\ninternal_value=0 0.00418748 -0.0102893 0.0043942 0.00165775 -0.00484252 -0.0268182 0.000473251 -0.000976431 -0.0111932 -0.0320833 -0.0226119 0.000800395 -0.00348485 -0.0232828 -0.00339161 -0.0394444 0.0028739 0.000454546 0.0019697 -0.005 -0.000371901 -0.00333333 0.000614035 0.00492256 0.00421466 0.00355372 0.00142857 0.0034127 0.00468354\ninternal_weight=0 25784 363 25421 4114 1397 209 243 1188 176 120 67 1012 330 99 143 63 682 319 297 55 121 78 57 21307 2101 242 84 63 158\ninternal_count=25949 25784 363 25421 4114 1397 209 243 1188 176 120 67 1012 330 99 143 63 682 319 297 55 121 78 57 21307 2101 242 84 63 158\nis_linear=0\nshrinkage=0.05\n\n\nTree=34\nnum_leaves=31\nnum_cat=0\nsplit_feature=12 12 4 12 1 12 0 1 1 12 1 12 12 0 2 1 1 1 1 12 1 4 0 1 12 1 4 7 5 4\nsplit_gain=158.728 25.8431 30.2328 14.6173 35.7515 47.4756 48.3636 10.5477 8.62649 18.5677 7.95382 3.59684 22.1737 18.101 3.15493 2.86872 1.55556 1.40323 3.95455 1.31157 3.3 0.769972 1.31955 0.811403 0.454906 32.4817 0.232421 0.396825 0.136508 0.0436709\nthreshold=25.850000000000005 26.650000000000002 26.350000000000005 28.150000000000002 -0.23537230790205757 28.050000000000004 12.500000000000002 0.29342972903661901 0.80417553764032002 27.250000000000004 -0.38242426011641079 27.850000000000005 27.950000000000003 12.500000000000002 -0.039769286347669845 0.99053107487289871 0.39036257410962044 0.30983042691905771 0.3261394409934788 27.150000000000002 0.54219432480460406 27.550000000000004 11.500000000000002 0.89404822654372251 28.550000000000004 0.95242846126021108 26.450000000000003 24.850000000000005 25.550000000000004 27.650000000000002\ndecision_type=2 2 2 2 2 2 2 2 2 2 2 2 2 2 2 2 2 2 2 2 2 2 2 2 2 2 2 2 2 2\nleft_child=-1 2 7 4 -3 8 -7 -2 11 -10 14 17 13 16 -4 21 -13 -6 -19 20 -20 22 23 -11 25 -5 27 28 -21 -28\nright_child=1 3 10 24 5 6 -8 -9 9 15 -12 12 -14 -15 -16 -17 -18 18 19 26 -22 -23 -24 -25 -26 -27 29 -29 -30 -31\nleaf_value=-0.027888527366706484 5.2037381391301099e-05 7.2858747415516237e-05 -0.00033725486154120198 0.0022066146774660567 2.4100304391794227e-05 -7.0642834714007568e-05 2.2325073086193472e-06 -0.0015050805710579297 -0.0028594665903542045 0.00021248408050313029 -0.0024748052021067225 -5.9483951247329969e-05 0.00021784148636818659 3.1887847756463016e-06 -0.00087969159376241179 -0.00035238312407503969 -5.9483951247329969e-05 -0.00022052475986244127 -0.00072940329577857459 7.030771672944525e-06 9.8555348428224147e-06 3.1950179577577842e-06 -0.00092560698504993164 -5.9483951247329969e-05 0.020228955024498774 -0.0039815105619520142 2.4393371391795428e-05 -1.4975925937399382e-05 1.4788685759503465e-05 2.0123153156248464e-06\nleaf_weight=165 213 2717 33 2068 363 133 76 30 33 37 53 42 231 36 34 22 21 22 22 43 33 43 21 20 19206 33 138 21 20 20\nleaf_count=165 213 2717 33 2068 363 133 76 30 33 37 53 42 231 36 34 22 21 22 22 43 33 43 21 20 19206 33 138 21 20 20\ninternal_value=0 0.00419718 -0.00904959 0.00438633 0.00165775 -0.00484252 -0.0268182 0.00109054 -0.000976431 -0.0111932 -0.0295833 0.000800395 -0.00348485 -0.0232828 -0.0181343 -0.00339161 -0.0394444 0.0028739 0.000454546 0.0019697 -0.005 -0.000371901 -0.00333333 0.000614035 0.00491317 0.00421466 0.00355372 0.00142857 0.0034127 0.00468354\ninternal_weight=0 25784 363 25421 4114 1397 209 243 1188 176 120 1012 330 99 67 143 63 682 319 297 55 121 78 57 21307 2101 242 84 63 158\ninternal_count=25949 25784 363 25421 4114 1397 209 243 1188 176 120 1012 330 99 67 143 63 682 319 297 55 121 78 57 21307 2101 242 84 63 158\nis_linear=0\nshrinkage=0.05\n\n\nTree=35\nnum_leaves=31\nnum_cat=0\nsplit_feature=12 12 1 12 12 12 12 0 1 1 4 1 12 12 4 12 12 0 2 1 1 1 2 2 12 1 1 4 0 1\nsplit_gain=156.807 27.8002 56.4789 90.2701 21.4246 13.377 49.2178 48.3636 14.0721 12.8242 12.987 9.09035 18.5677 4.83234 12.391 3.31294 17.0083 14.8099 4.77273 2.86872 1.72778 3.83426 1.52153 2.96409 1.18791 3.3 1.16667 0.769972 1.31955 0.811403\nthreshold=25.850000000000005 28.650000000000002 -0.35846811432664222 28.550000000000004 26.650000000000002 28.150000000000002 28.050000000000004 12.500000000000002 0.95242846126021108 0.34235194516023087 26.350000000000005 0.80417553764032002 27.250000000000004 26.650000000000002 26.350000000000005 27.850000000000005 27.950000000000003 12.500000000000002 -0.9575230291762723 0.99053107487289871 0.30983042691905771 0.3261394409934788 -0.6523320455745395 0.2499757677084001 27.150000000000002 0.54219432480460406 0.39036257410962044 27.550000000000004 11.500000000000002 0.89404822654372251\ndecision_type=2 2 2 2 2 2 2 2 2 2 2 2 2 2 2 2 2 2 2 2 2 2 2 2 2 2 2 2 2 2\nleft_child=-1 2 13 4 9 6 11 -8 -7 10 -4 15 -13 14 -2 20 17 18 -17 27 -6 -22 -16 -24 25 -23 -20 28 29 -14\nright_child=1 -3 3 -5 5 8 7 -9 -10 -11 -12 12 19 -15 22 16 -18 -19 26 -21 21 24 23 -25 -26 -27 -28 -29 -30 -31\nleaf_value=-0.026494100998371198 4.9435512321771571e-05 0.019705009132938933 0.00054473862299868618 -0.00078247365323989024 2.1557288277840317e-05 0.0019681627582897932 -6.7110692978289429e-05 2.1208819431350892e-06 -0.0037824350338543557 -0.0023613504171407116 -0.0017347205139280194 -0.0027164932608364674 0.00020185987647797443 0.00074309010999495939 -0.00032362410172446235 -5.6509753684963476e-05 0.000206949412049795 3.2306503964463219e-06 -5.6509753684963476e-05 -0.00033476396787133215 -0.00020949852186939093 -0.00069293313098963696 -5.182351296380006e-05 -0.00086745442308793115 6.6792330892795349e-06 9.3627581007442654e-06 -5.6509753684963476e-05 3.0352670599143039e-06 -0.00087932663579746171 -5.6509753684963476e-05\nleaf_weight=165 179 18777 45 132 429 781 133 76 33 44 21 33 37 4213 21 35 231 44 21 22 22 22 33 20 242 33 21 43 21 20\nleaf_count=165 179 18777 45 132 429 781 133 76 33 44 21 33 37 4213 21 35 231 44 21 22 22 22 33 20 242 33 21 43 21 20\ninternal_value=0 0.00389854 0.00121093 -0.00474026 -0.00253425 -0.00150283 -0.0043266 -0.0268182 0.00364865 -0.0240909 -0.0101515 -0.000642633 -0.0111932 0.00459695 -0.00211462 0.00104545 -0.00295455 -0.0181405 -0.0313636 -0.00339161 0.00292781 0.000141066 -0.0193243 -0.0148113 0.001633 -0.005 -0.02 -0.000371901 -0.00333333 0.000614035\ninternal_weight=0 25784 7007 2541 2409 2299 1485 209 814 110 66 1276 176 4466 253 1100 352 121 77 143 748 319 74 53 297 55 42 121 78 57\ninternal_count=25949 25784 7007 2541 2409 2299 1485 209 814 110 66 1276 176 4466 253 1100 352 121 77 143 748 319 74 53 297 55 42 121 78 57\nis_linear=0\nshrinkage=0.05\n\n\nTree=36\nnum_leaves=31\nnum_cat=0\nsplit_feature=12 12 12 1 12 1 12 12 12 0 1 12 12 4 1 1 12 12 0 2 2 2 1 4 1 12 4 12 2 1\nsplit_gain=155.776 39.344 53.5355 25.5837 18.1182 40.4394 96.6591 16.8491 49.9148 48.3636 16.0013 9.02045 4.22535 17.289 3.92727 3.50171 3.08291 17.6435 16.1082 6.67063 2.79426 2.96409 2.36742 5.12121 1.83846 2.91717 2.54281 1.81746 2.73797 3.56364\nthreshold=25.850000000000005 27.150000000000002 27.050000000000004 0.29342972903661901 28.650000000000002 -0.35846811432664222 28.550000000000004 28.150000000000002 28.050000000000004 12.500000000000002 -0.022576249993022688 26.950000000000003 26.650000000000002 26.350000000000005 0.51297097409535064 0.99053107487289871 27.950000000000003 27.850000000000005 12.500000000000002 -0.71502926860092908 -0.6523320455745395 0.2499757677084001 0.69056404122701587 26.350000000000005 0.80417553764032002 27.550000000000004 27.050000000000004 27.650000000000002 -0.95242240592625282 0.35846314187849709\ndecision_type=2 2 2 2 2 2 2 2 2 2 2 2 2 2 2 2 2 2 2 2 2 2 2 2 2 2 2 2 2 2\nleft_child=-1 2 3 12 5 -3 7 8 15 -10 -4 22 13 -2 -12 16 17 24 19 -19 -15 -22 23 -5 27 26 -26 -7 -29 -30\nright_child=1 4 10 11 -6 6 -8 -9 9 -11 14 -13 -14 20 -16 -17 -18 18 -20 -21 21 -23 -24 -25 25 -27 -28 28 29 -31\nleaf_value=-0.025169395948452689 4.6963736705762926e-05 0.0010320794243568799 -3.4522942146608673e-05 -0.00025937058612992279 0.018719758676292032 3.137813127433914e-05 -0.00074334997057796677 0.0018697546203753747 -6.3755158329392716e-05 2.0148378458983984e-06 5.6502764331689549e-05 0.00033729798540598215 0.00067181048906519438 -0.00030744289591581707 -0.0015627992780494267 -0.00031802576947779219 0.00019660194144730526 -5.3684266000786356e-05 2.6756375611114437e-06 -5.3684266000786356e-05 -4.9232337315530121e-05 -0.00082408170193357566 -0.0027786039196467274 -0.0022432828962837435 -0.00075426899987487419 0.00010926958154122701 -0.00083536030400761525 8.3944153805859401e-06 -0.00018537280369983479 1.577737895352982e-06\nleaf_weight=165 213 3663 99 22 18777 451 132 814 133 76 22 22 484 31 33 22 253 63 48 21 33 20 22 44 34 44 21 88 44 55\nleaf_count=165 213 3663 99 22 18777 451 132 814 133 76 22 22 484 31 33 22 253 63 48 21 33 20 22 44 34 44 21 88 44 55\ninternal_value=0 0.00373759 -0.00576555 -0.00106061 0.00413901 0.00173767 -0.0034602 -0.000929857 -0.00434959 -0.0268182 -0.032987 -0.0236364 0.00211908 -0.00257576 -0.0113636 -0.000244755 0.000142603 -0.00127158 -0.0181061 -0.0313095 -0.0217857 -0.0148113 -0.0307955 -0.0260606 0.00174356 -0.00459596 -0.0122727 0.00272727 -0.00141711 -0.00712121\ninternal_weight=0 25784 1045 891 24739 5962 2299 2167 1353 209 154 110 781 297 55 1144 1122 869 132 84 84 53 88 66 737 99 55 638 187 99\ninternal_count=25949 25784 1045 891 24739 5962 2299 2167 1353 209 154 110 781 297 55 1144 1122 869 132 84 84 53 88 66 737 99 55 638 187 99\nis_linear=0\nshrinkage=0.05\n\n\nTree=37\nnum_leaves=31\nnum_cat=0\nsplit_feature=12 12 12 1 12 1 12 1 12 12 0 12 12 1 1 4 1 1 12 12 0 2 1 1 1 12 4 12 1 2\nsplit_gain=131.842 64.3722 58.082 46.2525 19.4986 42.9725 93.8131 17.8221 16.0144 47.563 48.3636 10.1442 54.3443 19.5432 17.1346 9.63949 9.42015 4.51797 3.84104 15.8923 16.1082 6.67063 5.06 2.75 2.72727 2.70423 12.9164 2.48335 1.55556 1.32\nthreshold=27.450000000000003 25.700000000000006 27.350000000000005 -0.05695216311707673 28.650000000000002 -0.35846811432664222 28.550000000000004 0.69056404122701587 28.150000000000002 28.050000000000004 12.500000000000002 27.150000000000002 27.050000000000004 0.074116354202380205 -0.022576249993022688 26.350000000000005 0.95242846126021108 0.39036257410962044 27.850000000000005 27.950000000000003 12.500000000000002 -0.71502926860092908 0.99053107487289871 0.51297097409535064 0.83376496542330847 26.650000000000002 26.350000000000005 26.350000000000005 0.19337368024598436 0.2499757677084001\ndecision_type=2 2 2 2 2 2 2 2 2 2 2 2 2 2 2 2 2 2 2 2 2 2 2 2 2 2 2 2 2 2\nleft_child=1 -1 7 -4 5 -2 8 11 9 18 -11 12 13 25 -14 27 -10 -17 -7 20 21 28 -21 -16 -9 26 -3 -15 -20 -28\nright_child=4 2 3 -5 -6 6 -8 24 16 10 -12 -13 14 15 23 17 -18 -19 19 22 -22 -23 -24 -25 -26 -27 29 -29 -30 -31\nleaf_value=-0.023910926151030056 0.001566267870042637 4.4615549870385965e-05 -1.9542666672833776e-05 1.4842833213545209e-06 0.0177837707424775 7.9746946115122348e-06 -0.00070618247204912166 -0.0016158475615293318 0.0017762668893565705 -6.0567400412914202e-05 1.9140959535590698e-06 0.00066939541585780634 -3.2796795039224948e-05 -0.004074185710286571 5.3677626115167248e-05 -0.0021159853018009665 -0.0036868010131803929 -0.0021208332763302806 -5.1000052700800327e-05 0.00018677184437496664 2.5418556830913987e-06 -5.1000052700800327e-05 -0.0003021244810039292 -0.00058014651053781561 -0.0024538964511268847 0.00063821996461186368 -0.00025794563641241554 3.7023858065055039e-05 -5.1000052700800327e-05 -0.00078287761683697339\nleaf_weight=121 3300 222 165 88 18777 473 132 22 781 133 76 352 99 22 22 34 33 25 21 253 48 21 22 22 33 484 55 51 42 20\nleaf_count=121 3300 222 165 88 18777 473 132 22 781 133 76 352 99 22 22 34 33 25 21 253 48 21 22 22 33 484 55 51 42 20\ninternal_value=0 -0.00975231 -0.0072669 -0.0293874 0.00414358 0.0014761 -0.00423833 -0.00344156 -0.00141093 -0.00537649 -0.0268182 -0.00235085 -0.00480114 -0.000312158 -0.0334615 -0.0181061 0.00389435 -0.0331356 -0.000284091 -0.00384521 -0.0181061 -0.0313095 0.003 -0.0075 -0.0313636 0.00269526 -0.00106061 -0.0059589 -0.0394444 -0.019\ninternal_weight=0 1837 1716 253 24112 5335 2035 1463 1903 1089 209 1408 1056 913 143 132 814 59 880 407 132 84 275 44 55 781 297 73 63 75\ninternal_count=25949 1837 1716 253 24112 5335 2035 1463 1903 1089 209 1408 1056 913 143 132 814 59 880 407 132 84 275 44 55 781 297 73 63 75\nis_linear=0\nshrinkage=0.05\n\n\nTree=38\nnum_leaves=31\nnum_cat=0\nsplit_feature=12 12 12 1 1 12 1 12 12 12 0 12 12 12 1 1 4 1 1 1 12 12 12 0 2 1 1 12 4 1\nsplit_gain=138.481 63.0863 56.1098 46.2525 19.3408 18.9699 41.1985 94.7234 20.576 