{"p10": "tree\nversion=v4\nnum_class=1\nnum_tree_per_iteration=1\nlabel_index=0\nmax_feature_idx=14\nobjective=quantile\nfeature_names=hora_decision doy_sin doy_cos mes max_hasta_ahora temp_actual temp_lag1 temp_lag2 temp_lag3 tasa_subida humedad_actual nubosidad_actual forecast_max temp_actual_mpmg max_hasta_ahora_mpmg\nfeature_infos=[6:16] [-0.9999994220246925:0.99998555065071859] [-0.99997919295908233:0.9999907524084426] [1:12] [22.600000000000001:34.700000000000003] [22:34.700000000000003] [22:34.700000000000003] [22:34.700000000000003] [22:34.700000000000003] [-5.6999999999999993:3.5999999999999979] [33:100] [0:100] [25.199999999999999:34.700000000000003] [21:36] [22:36]\ntree_sizes=2550 2780 2815 2831 2831 2831 2832 2831 2826 2832 2830 2826 2833 2823 2785 2803 2797 2808 2795 2808 2802 2807 2804 2781 2775 2792 2780 2793 2804 2815 2791 2765 2780 2796 2763 2825 2849 2817 2867 2851 2862 2887 2858 2857 2857 2855 2871 2881 2851 2882 2888 2866 2883 2853 2885 2881 2884 2879 2889 2888 2900 2904 2912 2899 2898 2913 2909 2909 2905 2906 2907 2915 2907 2915 2919 2916 2912 2912 2905 2914 2917 2919 2910 2916 2908 2921 2912 2921 2900 2900 2896 2901 2908 2910 2888 2890 2896 2899 2905 2894 2910 2892 2897 2903 2896 2905 2895 2905 2904 2907 2898 2866 2906 2892 2907 2907 2916 2905 2917 2899 2892 2903 2908 2910 2910 2908 2910 2907 2909 2912 2911 2903 2905 2905 2906 2908 2908 2902 2884 2902 2904 2904 2903 2902 2904 2902 2902 2887 2901 2905 2907 2908 2907 2907 2908 2891 2908 2908 2909 2907 2906 2892 2907 2908 2907 2910 2909 2907 2910 2909 2910 2910 2905 2910 2910 2910 2909 2910 2909 2908 2906 2909 2908 2912 2911 2911 2909 2895 2917 2918 2911 2915 2912 2931 2915 2921 2928 2900 2927 2906 2912 2926 2915 2910 2909 2915 2914 2919 2917 2928 2926 2921 2911 2912 2922 2914 2913 2915 2914 2916 2917 2921 2901 2919 2916 2915 2918 2906 2903 2906 2906 2905 2908 2909 2903 2908 2910 2891 2908 2909 2908 2906 2907 2913 2907 2904 2907 2909 2908 2909 2908 2916 2907 2904 2906 2905 2909 2917 2896 2916 2919 2910 2912 2914 2904 2886 2902 2906 2910 2907 2904 2907 2906 2906 2907 2904 2904 2889 2905 2905 2878 2907 2906 2903 2887 2904 2914 2903 2907 2906 2905 2904 2906 2905 2902 2904 2908 2907 2907 2908\n\nTree=0\nnum_leaves=31\nnum_cat=0\nsplit_feature=12 14 12 14 8 12 8 14 8 2 10 13 8 12 12 13 1 3 4 13 2 12 12 2 8 4 13 8 1 1\nsplit_gain=1112.15 346.638 160.063 150.901 95.6649 56.6782 37.4378 17.077 83.8131 14.9659 14.24 12.5251 12.4744 11.5543 10.305 9.86089 9.33651 8.39315 7.62923 19.0814 7.45305 6.29628 5.63433 5.71667 5.26133 4.98367 7.83721 4.91396 5.42835 12.9782\nthreshold=28.150000000000002 29.500000000000004 29.050000000000004 29.500000000000004 26.550000000000004 27.650000000000002 26.250000000000004 29.500000000000004 27.150000000000002 -0.89404254237865755 82.500000000000014 28.500000000000004 24.850000000000005 26.650000000000002 30.250000000000004 28.500000000000004 0.3261394409934788 8.5000000000000018 28.150000000000002 28.500000000000004 0.99988440732898443 28.450000000000003 28.050000000000004 -0.98521978256641018 27.150000000000002 29.050000000000004 28.500000000000004 23.150000000000002 -0.90163369914317015 -0.69057362043749781\ndecision_type=2 10 2 10 2 2 2 10 2 2 2 8 2 2 2 10 2 2 2 10 2 2 2 2 2 2 10 2 2 2\nleft_child=1 5 3 4 18 12 9 8 14 16 -11 -10 13 -1 25 -6 22 -13 21 -20 -16 27 -7 -24 -17 -4 -27 -2 -29 -30\nright_child=2 -3 7 -5 15 6 -8 -9 11 10 -12 17 -14 -15 20 24 -18 -19 19 -21 -22 -23 23 -25 -26 26 -28 28 29 -31\nleaf_value=28.899999999999999 29.050000000000001 29.050000000000001 29.050000000000001 29.050000000000001 28.899999999999999 28.949999999999999 28.949999999999999 29.100000000000001 28.899999999999999 28.899999999999999 28.949999999999999 29 28.899999999999999 28.899999999999999 29.100000000000001 29 28.949999999999999 29 28.899999999999999 29 28.850000000000001 29 29 29.050000000000001 29 28.949999999999999 29.050000000000001 29 28.949999999999999 29\nleaf_weight=285 66 740 2721 1702 289 199 411 9704 134 160 651 113 1066 753 4218 75 76 58 136 155 22 1306 20 28 181 71 86 171 122 439\nleaf_count=285 66 740 2721 1702 289 199 411 9704 134 160 651 113 1066 753 4218 75 76 58 136 155 22 1306 20 28 181 71 86 171 122 439\ninternal_value=29 28.9738 29.0014 28.9932 28.9863 28.9675 28.9747 29.0036 29.0018 28.9794 28.9831 28.9761 28.9621 28.966 29.0029 28.9674 28.9703 28.9851 28.9906 28.983 29.0045 28.9916 28.975 28.9904 28.9745 29.0006 28.9919 28.9881 28.987 28.9846\ninternal_weight=0 4389 21769 4642 2940 3649 1545 17127 7423 1134 811 305 2104 1038 7118 545 323 171 2395 291 4240 2104 247 48 256 2878 157 798 732 561\ninternal_count=26158 4389 21769 4642 2940 3649 1545 17127 7423 1134 811 305 2104 1038 7118 545 323 171 2395 291 4240 2104 247 48 256 2878 157 798 732 561\nis_linear=0\nshrinkage=1\n\n\nTree=1\nnum_leaves=31\nnum_cat=0\nsplit_feature=12 14 14 0 12 14 8 12 13 12 0 0 13 13 2 13 0 12 3 13 2 12 8 8 2 11 11 13 12 2\nsplit_gain=297.848 168.652 98.3323 130.325 60.7358 54.7629 39.1608 27.1345 27.0604 27.7299 16.7509 16.6592 17.4574 10.4681 9.01367 7.22214 10.8601 7.13576 6.86625 6.01022 5.99354 6.15915 7.11597 5.81757 5.40162 6.70898 5.28473 4.76817 4.74704 4.64881\nthreshold=27.650000000000002 28.500000000000004 29.500000000000004 11.500000000000002 29.050000000000004 28.500000000000004 24.650000000000002 26.350000000000005 28.500000000000004 28.150000000000002 13.500000000000002 14.500000000000002 27.500000000000004 27.500000000000004 0.99855310097228334 27.500000000000004 8.5000000000000018 30.150000000000002 5.5000000000000009 1.0000000180025095e-35 0.78724360164103002 27.450000000000003 23.350000000000005 25.750000000000004 0.48877522411129348 91.500000000000014 81.500000000000014 25.500000000000004 29.050000000000004 -0.43733099657705293\ndecision_type=2 10 10 2 2 8 2 2 8 2 2 2 10 10 2 10 2 2 2 10 2 2 2 2 2 2 2 10 2 2\nleft_child=1 6 3 4 14 11 7 -1 -7 -10 28 12 -5 24 15 16 -2 -6 -12 -19 21 22 -9 -15 25 -8 -24 29 -11 -18\nright_child=2 -3 -4 5 17 8 13 20 9 10 18 -13 -14 23 -16 -17 27 19 -20 -21 -22 -23 26 -25 -26 -27 -28 -29 -30 -31\nleaf_value=-0.094999999999999932 0 0.0050000000000000712 0.047499999999999966 -0.10000000000000001 0.047499999999999966 0.0025000000000000356 -0.044999999999999929 -0.044999999999999929 0.0025000000000000356 0 -1.9073486257070728e-08 -0.097499999999999976 -0.047499999999999966 -0.044999999999999929 -0.0544999960437417 0 -0.10000000000000001 -0.2049999953433872 0 0.094999999999999932 -0.094999999999999932 -0.044999999999999929 0.0050000000000000712 -0.044999999999999929 -0.094999999999999932 -0.094999999999999932 -0.094999999999999932 -0.050000000000000003 0 -0.099249999877065412\nleaf_weight=162 1732 637 11918 208 2557 312 24 114 180 179 48 144 179 105 60 1004 40 51 148 4427 104 120 32 134 211 340 349 483 122 34\nleaf_count=162 1732 637 11918 208 2557 312 24 114 180 179 48 144 179 105 60 1004 40 51 148 4427 104 120 32 134 211 340 349 483 122 34\ninternal_value=0 -0.016934 0.00178922 -0.00142425 0.000576627 -0.0150987 -0.025177 -0.0178717 -0.00814459 -0.0137592 -0.0198491 -0.0280508 -0.0226486 -0.0330835 -0.00496123 -0.0046113 -0.00616208 0.00321606 -0.0312245 0.00441938 -0.0137065 -0.0118293 -0.0142929 -0.0242887 -0.0367391 -0.0330494 -0.0175722 -0.0122352 -0.0124419 -0.0240541\ninternal_weight=0 2332 23826 11908 10388 1520 1695 881 989 677 497 531 387 814 3353 3293 2289 7035 196 4478 719 615 495 239 575 364 381 557 301 74\ninternal_count=26158 2332 23826 11908 10388 1520 1695 881 989 677 497 531 387 814 3353 3293 2289 7035 196 4478 719 615 495 239 575 364 381 557 301 74\nis_linear=0\nshrinkage=0.05\n\n\nTree=2\nnum_leaves=31\nnum_cat=0\nsplit_feature=12 14 14 0 14 12 8 12 13 12 0 13 3 0 13 12 2 2 12 8 8 14 2 11 11 13 0 12 1 2\nsplit_gain=304.36 168.652 86.2593 124.364 52.9355 44.6954 39.1608 27.1345 24.4325 24.8838 18.8902 16.1001 13.2216 16.8149 10.4681 7.21824 6.65419 5.99354 6.15915 7.11597 5.81757 5.59474 5.40162 6.70898 5.28473 4.6827 7.05346 4.56733 4.37215 6.62745\nthreshold=27.650000000000002 28.500000000000004 29.500000000000004 11.500000000000002 28.500000000000004 29.050000000000004 24.650000000000002 26.350000000000005 28.500000000000004 28.150000000000002 14.500000000000002 27.500000000000004 5.5000000000000009 13.500000000000002 27.500000000000004 30.250000000000004 0.99988440732898443 0.78724360164103002 27.450000000000003 23.350000000000005 25.750000000000004 23.500000000000004 0.48877522411129348 91.500000000000014 81.500000000000014 26.500000000000004 9.5000000000000018 27.150000000000002 -0.65234524191686594 0.097680735332368748\ndecision_type=2 10 10 2 8 2 2 2 8 2 2 10 2 2 10 2 2 2 2 2 2 10 2 2 2 10 2 2 2 2\nleft_child=1 6 3 5 10 21 7 -1 -6 -10 11 -5 -11 -14 22 -7 -17 18 19 -9 -16 -2 23 -8 -21 26 -23 28 29 -26\nright_child=2 -3 -4 4 8 15 14 17 9 12 -12 -13 13 -15 20 16 -18 -19 -20 24 -22 25 -24 -25 27 -27 -28 -29 -30 -31\nleaf_value=-0.090249999999999997 -0.053522538055255919 0.0047500000000001213 0.045124999999999998 -0.094999999999999932 0.0023749999999999718 0.045124999999999998 -0.042749999999999844 -0.042749999999999844 0.0023749999999999718 -1.811981196198076e-08 -0.092624999999999957 -0.045124999999999998 0 0 -0.042749999999999844 0.090249999999999997 -0.13225000023283082 -0.090249999999999997 -0.042749999999999844 0.0047500000000001213 -0.042749999999999844 -0.044775000197812886 -0.090249999999999997 -0.090249999999999997 -0.090249999999999997 0 -0.094999999999999932 -0.090249999999999997 -0.040249999999999987 -0.040249999999999987\nleaf_weight=162 27 637 11918 208 312 2800 24 114 180 133 144 179 216 148 105 4214 21 104 120 32 134 1612 211 340 51 1613 101 187 60 51\nleaf_count=162 27 637 11918 208 312 2800 24 114 180 133 144 179 216 148 105 4214 21 104 120 32 134 1612 211 340 51 1613 101 187 60 51\ninternal_value=0 -0.016934 0.00199278 -0.00101696 -0.014375 0.00093762 -0.025177 -0.0178717 -0.00753792 -0.012873 -0.0271092 -0.0213566 -0.0186419 -0.0235714 -0.0330835 0.00320185 0.00450413 -0.0137065 -0.0118293 -0.0142929 -0.0242887 -0.003813 -0.0367391 -0.0330494 -0.0175722 -0.00362898 -0.0054495 -0.0193553 -0.0132099 -0.0195098\ninternal_weight=0 2332 23826 11908 1520 10388 1695 881 989 677 531 387 497 364 814 7035 4235 719 615 495 239 3353 575 364 381 3326 1713 349 162 102\ninternal_count=26158 2332 23826 11908 1520 10388 1695 881 989 677 531 387 497 364 814 7035 4235 719 615 495 239 3353 575 364 381 3326 1713 349 162 102\nis_linear=0\nshrinkage=0.05\n\n\nTree=3\nnum_leaves=31\nnum_cat=0\nsplit_feature=12 14 14 0 14 8 12 12 13 12 3 0 0 13 13 0 13 13 2 12 8 8 2 11 11 12 14 2 1 2\nsplit_gain=314.842 168.652 68.7155 125.997 52.8876 39.1608 27.1345 24.6837 22.1414 22.4102 19.8242 19.7279 16.8149 12.9517 10.4681 7.16192 19.0631 5.99451 5.99354 6.15915 7.11597 5.81757 5.40162 6.70898 5.28473 4.56733 4.51793 4.44706 4.37215 6.62745\nthreshold=27.650000000000002 28.500000000000004 29.500000000000004 11.500000000000002 28.500000000000004 24.650000000000002 26.350000000000005 30.150000000000002 28.500000000000004 28.150000000000002 5.5000000000000009 13.500000000000002 13.500000000000002 27.500000000000004 27.500000000000004 9.5000000000000018 26.500000000000004 1.0000000180025095e-35 0.78724360164103002 27.450000000000003 23.350000000000005 25.750000000000004 0.48877522411129348 91.500000000000014 81.500000000000014 27.150000000000002 28.500000000000004 0.71952396275653763 -0.65234524191686594 0.097680735332368748\ndecision_type=2 10 10 2 8 2 2 2 8 2 2 2 2 10 10 2 10 10 2 2 2 2 2 2 2 2 10 2 2 2\nleft_child=1 5 3 7 11 6 -1 15 -6 -10 -11 13 -12 -5 22 -2 -17 27 19 20 -8 -16 23 -7 -22 28 -18 -9 29 -26\nright_child=2 -3 -4 4 8 14 18 17 9 10 12 -13 -14 -15 21 16 26 -19 -20 -21 24 -23 -24 -25 25 -27 -28 -29 -30 -31\nleaf_value=-0.085737499999999939 0.0022387500098906446 0.0045125000000000529 0.04286875000000006 -0.090249999999999997 0.0022562499999999376 -0.04061249999999994 -0.04061249999999994 0.1054937511155383 0.0022562499999999376 -1.7213821301709232e-08 0 -0.087993749912828267 0 -0.04286875000000006 -0.04061249999999994 -0.09250374944653364 -0.042499999999999899 0.085737499999999939 -0.085737499999999939 -0.04061249999999994 0.0045125000000000529 -0.04061249999999994 -0.085737499999999939 -0.085737499999999939 -0.085737499999999939 -0.085737499999999939 0.0025000000000000356 -0.19926250023283087 -0.038237499999999973 -0.038237499999999973\nleaf_weight=162 4458 637 11918 157 312 24 114 21 180 133 216 241 148 133 105 152 603 4427 104 120 32 134 211 340 51 187 697 30 60 51\nleaf_count=162 4458 637 11918 157 312 24 114 21 180 133 216 241 148 133 105 152 603 4427 104 120 32 134 211 340 51 187 697 30 60 51\ninternal_value=0 -0.016934 0.00231596 -0.000370339 -0.0138158 -0.025177 -0.0178717 0.00159704 -0.0069818 -0.0120606 -0.0175352 -0.0265443 -0.0235714 -0.0177586 -0.0330835 -0.000524534 -0.00357438 0.00439705 -0.0137065 -0.0118293 -0.0142929 -0.0242887 -0.0367391 -0.0330494 -0.0175722 -0.0193553 -0.00161538 -0.0126471 -0.0132099 -0.0195098\ninternal_weight=0 2332 23826 11908 1520 1695 881 10388 989 677 497 531 364 290 814 5910 1452 4478 719 615 495 239 575 364 381 349 1300 51 162 102\ninternal_count=26158 2332 23826 11908 1520 1695 881 10388 989 677 497 531 364 290 814 5910 1452 4478 719 615 495 239 575 364 381 349 1300 51 162 102\nis_linear=0\nshrinkage=0.05\n\n\nTree=4\nnum_leaves=31\nnum_cat=0\nsplit_feature=12 14 14 0 14 8 12 13 12 12 3 0 0 13 13 13 2 12 8 8 0 13 2 11 11 12 2 1 2 8\nsplit_gain=317.249 168.652 65.0061 128.767 52.8876 39.1608 27.1345 22.1414 22.4102 21.8028 19.8242 19.7279 16.8149 12.9517 10.4681 5.99451 5.99354 6.15915 7.11597 5.81757 5.68329 10.7625 5.40162 6.70898 5.28473 4.56733 4.44706 4.37215 6.62745 4.33443\nthreshold=27.650000000000002 28.500000000000004 29.500000000000004 11.500000000000002 28.500000000000004 24.650000000000002 26.350000000000005 28.500000000000004 28.150000000000002 30.150000000000002 5.5000000000000009 13.500000000000002 13.500000000000002 27.500000000000004 27.500000000000004 1.0000000180025095e-35 0.78724360164103002 27.450000000000003 23.350000000000005 25.750000000000004 10.500000000000002 26.500000000000004 0.48877522411129348 91.500000000000014 81.500000000000014 27.150000000000002 0.71952396275653763 -0.65234524191686594 0.097680735332368748 25.450000000000003\ndecision_type=2 10 10 2 8 2 2 8 2 2 2 2 2 10 10 10 2 2 2 2 2 8 2 2 2 2 2 2 2 2\nleft_child=1 5 3 9 11 6 -1 -6 -9 20 -10 13 -12 -5 22 26 17 18 -8 -16 -2 -22 23 -7 -20 27 -11 28 -26 -25\nright_child=2 -3 -4 4 7 14 16 8 10 15 12 -13 -14 -15 19 -17 -18 -19 24 -21 21 -23 -24 29 25 -27 -28 -29 -30 -31\nleaf_value=-0.081450624999999915 0.0021268125093961035 0.0042868750000000233 0.040725312500000048 -0.085737499999999939 0.0021434375000000117 -0.038581874999999856 -0.038581874999999856 0.0021434375000000117 -1.6353130227741986e-08 0.10021906355976136 0 -0.083594062417186782 0 -0.040725312500000048 -0.038581874999999856 0.081450624999999915 -0.081450624999999915 -0.038581874999999856 0.0042868750000000233 -0.038581874999999856 -0.085874812307881257 -0.00012500000000006394 -0.081450624999999915 -0.081450624999999915 -0.081450624999999915 -0.081450624999999915 -0.18929937522118934 -0.036325624999999917 -0.036325624999999917 -0.081450624999999915\nleaf_weight=162 5338 637 11918 157 312 24 114 180 133 21 216 241 148 133 105 4427 104 120 32 134 60 512 211 157 51 187 30 60 51 183\nleaf_count=162 5338 637 11918 157 312 24 114 180 133 21 216 241 148 133 105 4427 104 120 32 134 60 512 211 157 51 187 30 60 51 183\ninternal_value=0 -0.016934 0.00238941 -0.000223379 -0.0138158 -0.025177 -0.0178717 -0.0069818 -0.0120606 0.0017655 -0.0175352 -0.0265443 -0.0235714 -0.0177586 -0.0330835 0.00439705 -0.0137065 -0.0118293 -0.0142929 -0.0242887 -0.000228426 -0.00496503 -0.0367391 -0.0330494 -0.0175722 -0.0193553 -0.0126471 -0.0132099 -0.0195098 -0.0348529\ninternal_weight=0 2332 23826 11908 1520 1695 881 989 677 10388 497 531 364 290 814 4478 719 615 495 239 5910 572 575 364 381 349 51 162 102 340\ninternal_count=26158 2332 23826 11908 1520 1695 881 989 677 10388 497 531 364 290 814 4478 719 615 495 239 5910 572 575 364 381 349 51 162 102 340\nis_linear=0\nshrinkage=0.05\n\n\nTree=5\nnum_leaves=31\nnum_cat=0\nsplit_feature=12 14 14 0 14 8 12 13 12 12 3 0 0 13 13 13 2 12 8 8 2 11 11 12 2 0 13 1 2 8\nsplit_gain=317.732 168.652 64.2766 129.324 52.8876 39.1608 27.1345 22.1414 22.4102 21.2481 19.8242 19.7279 16.8149 12.9517 10.4681 5.99451 5.99354 6.15915 7.11597 5.81757 5.40162 6.70898 5.28473 4.56733 4.44706 4.43441 8.03726 4.37215 6.62745 4.33443\nthreshold=27.650000000000002 28.500000000000004 29.500000000000004 11.500000000000002 28.500000000000004 24.650000000000002 26.350000000000005 28.500000000000004 28.150000000000002 30.150000000000002 5.5000000000000009 13.500000000000002 13.500000000000002 27.500000000000004 27.500000000000004 1.0000000180025095e-35 0.78724360164103002 27.450000000000003 23.350000000000005 25.750000000000004 0.48877522411129348 91.500000000000014 81.500000000000014 27.150000000000002 0.71952396275653763 10.500000000000002 26.500000000000004 -0.65234524191686594 0.097680735332368748 25.450000000000003\ndecision_type=2 10 10 2 8 2 2 8 2 2 2 2 2 10 10 10 2 2 2 2 2 2 2 2 2 2 8 2 2 2\nleft_child=1 5 3 9 11 6 -1 -6 -9 25 -10 13 -12 -5 20 24 17 18 -8 -16 21 -7 -20 27 -11 -2 -27 28 -24 -23\nright_child=2 -3 -4 4 7 14 16 8 10 15 12 -13 -14 -15 19 -17 -18 -19 22 -21 -22 29 23 -25 -26 26 -28 -29 -30 -31\nleaf_value=-0.077378093749999988 0.0020204718839263338 0.0040725312500001108 0.038689046874999994 -0.081450624999999915 0.0020362656250000554 -0.036652781249999933 -0.036652781249999933 0.0020362656250000554 -1.5535473707473104e-08 0.095208110381773223 0 -0.079414359296327397 0 -0.038689046874999994 -0.036652781249999933 0.077378093749999988 -0.077378093749999988 -0.036652781249999933 0.0040725312500001108 -0.036652781249999933 -0.077378093749999988 -0.077378093749999988 -0.077378093749999988 -0.077378093749999988 -0.17983440646012988 -0.08158107169248717 -0.00011875000000003411 -0.034509343749999921 -0.034509343749999921 -0.077378093749999988\nleaf_weight=162 5338 637 11918 157 312 24 114 180 133 21 216 241 148 133 105 4427 104 120 32 134 211 157 51 187 30 60 512 60 51 183\nleaf_count=162 5338 637 11918 157 312 24 114 180 133 21 216 241 148 133 105 4427 104 120 32 134 211 157 51 187 30 60 512 60 51 183\ninternal_value=0 -0.016934 0.0024041 -0.000193987 -0.0138158 -0.025177 -0.0178717 -0.0069818 -0.0120606 0.00179919 -0.0175352 -0.0265443 -0.0235714 -0.0177586 -0.0330835 0.00439705 -0.0137065 -0.0118293 -0.0142929 -0.0242887 -0.0367391 -0.0330494 -0.0175722 -0.0193553 -0.0126471 -0.000169205 -0.00435315 -0.0132099 -0.0195098 -0.0348529\ninternal_weight=0 2332 23826 11908 1520 1695 881 989 677 10388 497 531 364 290 814 4478 719 615 495 239 575 364 381 349 51 5910 572 162 102 340\ninternal_count=26158 2332 23826 11908 1520 1695 881 989 677 10388 497 531 364 290 814 4478 719 615 495 239 575 364 381 349 51 5910 572 162 102 340\nis_linear=0\nshrinkage=0.05\n\n\nTree=6\nnum_leaves=31\nnum_cat=0\nsplit_feature=12 14 14 0 14 8 12 13 12 12 3 0 0 13 13 13 2 12 8 8 2 11 11 12 2 0 13 1 2 8\nsplit_gain=317.732 168.652 64.2766 129.324 52.8876 39.1608 27.1345 22.1414 22.4102 21.2481 19.8242 19.7279 16.8149 12.9517 10.4681 5.99451 5.99354 6.15915 7.11597 5.81757 5.40162 6.70898 5.28473 4.56733 4.44706 4.43441 8.03726 4.37215 6.62745 4.33443\nthreshold=27.650000000000002 28.500000000000004 29.500000000000004 11.500000000000002 28.500000000000004 24.650000000000002 26.350000000000005 28.500000000000004 28.150000000000002 30.150000000000002 5.5000000000000009 13.500000000000002 13.500000000000002 27.500000000000004 27.500000000000004 1.0000000180025095e-35 0.78724360164103002 27.450000000000003 23.350000000000005 25.750000000000004 0.48877522411129348 91.500000000000014 81.500000000000014 27.150000000000002 0.71952396275653763 10.500000000000002 26.500000000000004 -0.65234524191686594 0.097680735332368748 25.450000000000003\ndecision_type=2 10 10 2 8 2 2 8 2 2 2 2 2 10 10 10 2 2 2 2 2 2 2 2 2 2 8 2 2 2\nleft_child=1 5 3 9 11 6 -1 -6 -9 25 -10 13 -12 -5 20 24 17 18 -8 -16 21 -7 -20 27 -11 -2 -27 28 -24 -23\nright_child=2 -3 -4 4 7 14 16 8 10 15 12 -13 -14 -15 19 -17 -18 -19 22 -21 -22 29 23 -25 -26 26 -28 -29 -30 -31\nleaf_value=-0.073509189062500022 0.0019194482897299638 0.0038689046875001413 0.036754594531250011 -0.077378093749999988 0.0019344523437499817 -0.034820142187500028 -0.034820142187500028 0.0019344523437499817 -1.4758700039863015e-08 0.090447704862684594 0 -0.075443641331511102 0 -0.036754594531250011 -0.034820142187500028 0.073509189062500022 -0.073509189062500022 -0.034820142187500028 0.0038689046875001413 -0.034820142187500028 -0.073509189062500022 -0.073509189062500022 -0.073509189062500022 -0.073509189062500022 -0.17084268613712333 -0.077502018107862836 -0.00011281250000010346 -0.032783876562499974 -0.032783876562499974 -0.073509189062500022\nleaf_weight=162 5338 637 11918 157 312 24 114 180 133 21 216 241 148 133 105 4427 104 120 32 134 211 157 51 187 30 60 512 60 51 183\nleaf_count=162 5338 637 11918 157 312 24 114 180 133 21 216 241 148 133 105 4427 104 120 32 134 211 157 51 187 30 60 512 60 51 183\ninternal_value=0 -0.016934 0.0024041 -0.000193987 -0.0138158 -0.025177 -0.0178717 -0.0069818 -0.0120606 0.00179919 -0.0175352 -0.0265443 -0.0235714 -0.0177586 -0.0330835 0.00439705 -0.0137065 -0.0118293 -0.0142929 -0.0242887 -0.0367391 -0.0330494 -0.0175722 -0.0193553 -0.0126471 -0.000169205 -0.00435315 -0.0132099 -0.0195098 -0.0348529\ninternal_weight=0 2332 23826 11908 1520 1695 881 989 677 10388 497 531 364 290 814 4478 719 615 495 239 575 364 381 349 51 5910 572 162 102 340\ninternal_count=26158 2332 23826 11908 1520 1695 881 989 677 10388 497 531 364 290 814 4478 719 615 495 239 575 364 381 349 51 5910 572 162 102 340\nis_linear=0\nshrinkage=0.05\n\n\nTree=7\nnum_leaves=31\nnum_cat=0\nsplit_feature=12 14 14 0 14 8 12 13 12 12 3 0 0 13 13 13 2 12 8 8 2 11 11 12 2 0 13 1 2 8\nsplit_gain=317.732 168.652 64.2766 129.324 52.8876 39.1608 27.1345 22.1414 22.4102 21.2481 19.8242 19.7279 16.8149 12.9517 10.4681 5.99451 5.99354 6.15915 7.11597 5.81757 5.40162 6.70898 5.28473 4.56733 4.44706 4.43441 8.03726 4.37215 6.62745 4.33443\nthreshold=27.650000000000002 28.500000000000004 29.500000000000004 11.500000000000002 28.500000000000004 24.650000000000002 26.350000000000005 28.500000000000004 28.150000000000002 30.150000000000002 5.5000000000000009 13.500000000000002 13.500000000000002 27.500000000000004 27.500000000000004 1.0000000180025095e-35 0.78724360164103002 27.450000000000003 23.350000000000005 25.750000000000004 0.48877522411129348 91.500000000000014 81.500000000000014 27.150000000000002 0.71952396275653763 10.500000000000002 26.500000000000004 -0.65234524191686594 0.097680735332368748 25.450000000000003\ndecision_type=2 10 10 2 8 2 2 8 2 2 2 2 2 10 10 10 2 2 2 2 2 2 2 2 2 2 8 2 2 2\nleft_child=1 5 3 9 11 6 -1 -6 -9 25 -10 13 -12 -5 20 24 17 18 -8 -16 21 -7 -20 27 -11 -2 -27 28 -24 -23\nright_child=2 -3 -4 4 7 14 16 8 10 15 12 -13 -14 -15 19 -17 -18 -19 22 -21 -22 29 23 -25 -26 26 -28 -29 -30 -31\nleaf_value=-0.069833729609375089 0.0018234758752434745 0.0036754594531251076 0.034916864804687545 -0.073509189062500022 0.0018377297265624649 -0.033079135078125078 -0.033079135078125078 0.0018377297265624649 -1.4020764993460944e-08 0.085925319619550439 0 -0.07167145926493558 0 -0.034916864804687545 -0.033079135078125078 0.069833729609375089 -0.069833729609375089 -0.033079135078125078 0.0036754594531251076 -0.033079135078125078 -0.069833729609375089 -0.069833729609375089 -0.069833729609375089 -0.069833729609375089 -0.16230055183026712 -0.073626917202469611 -0.00010717187500013381 -0.031144682734374918 -0.031144682734374918 -0.069833729609375089\nleaf_weight=162 5338 637 11918 157 312 24 114 180 133 21 216 241 148 133 105 4427 104 120 32 134 211 157 51 187 30 60 512 60 51 183\nleaf_count=162 5338 637 11918 157 312 24 114 180 133 21 216 241 148 133 105 4427 104 120 32 134 211 157 51 187 30 60 512 60 51 183\ninternal_value=0 -0.016934 0.0024041 -0.000193987 -0.0138158 -0.025177 -0.0178717 -0.0069818 -0.0120606 0.00179919 -0.0175352 -0.0265443 -0.0235714 -0.0177586 -0.0330835 0.00439705 -0.0137065 -0.0118293 -0.0142929 -0.0242887 -0.0367391 -0.0330494 -0.0175722 -0.0193553 -0.0126471 -0.000169205 -0.00435315 -0.0132099 -0.0195098 -0.0348529\ninternal_weight=0 2332 23826 11908 1520 1695 881 989 677 10388 497 531 364 290 814 4478 719 615 495 239 575 364 381 349 51 5910 572 162 102 340\ninternal_count=26158 2332 23826 11908 1520 1695 881 989 677 10388 497 531 364 290 814 4478 719 615 495 239 575 364 381 349 51 5910 572 162 102 340\nis_linear=0\nshrinkage=0.05\n\n\nTree=8\nnum_leaves=31\nnum_cat=0\nsplit_feature=12 14 14 0 14 8 12 13 12 12 3 0 0 13 13 2 12 8 8 2 11 2 11 12 0 13 1 2 8 1\nsplit_gain=318.146 168.652 63.6546 129.803 52.8876 39.1608 27.1345 22.1414 22.4102 21.8762 19.8242 19.7279 16.8149 12.9517 10.4681 5.99354 6.15915 7.11597 5.81757 5.40162 6.70898 5.31505 5.28473 4.56733 4.43441 8.03726 4.37215 6.62745 4.33443 4.97364\nthreshold=27.650000000000002 28.500000000000004 29.500000000000004 11.500000000000002 28.500000000000004 24.650000000000002 26.350000000000005 28.500000000000004 28.150000000000002 30.150000000000002 5.5000000000000009 13.500000000000002 13.500000000000002 27.500000000000004 27.500000000000004 0.78724360164103002 27.450000000000003 23.350000000000005 25.750000000000004 0.48877522411129348 91.500000000000014 0.99988440732898443 81.500000000000014 27.150000000000002 10.500000000000002 26.500000000000004 -0.65234524191686594 0.097680735332368748 25.450000000000003 0.29342972903661901\ndecision_type=2 10 10 2 8 2 2 8 2 2 2 2 2 10 10 2 2 2 2 2 2 2 2 2 2 8 2 2 2 2\nleft_child=1 5 3 9 11 6 -1 -6 -9 24 -10 13 -12 -5 19 16 17 -8 -16 20 -7 -11 -19 26 -2 -26 27 -24 29 -22\nright_child=2 -3 -4 4 7 14 15 8 10 21 12 -13 -14 -15 18 -17 -18 22 -20 -21 28 -23 23 -25 25 -27 -28 -29 -30 -31\nleaf_value=-0.066342043128906347 0.0017323020814812295 0.0034916864804689141 0.033171021564453083 -0.069833729609375089 0.0017458432402342795 -0.03142517832421881 -0.03142517832421881 0.0017458432402342795 -1.3319726832605739e-08 0.066342043128906347 0 -0.068087886301688882 0 -0.033171021564453083 -0.03142517832421881 -0.066342043128906347 -0.03142517832421881 0.0034916864804689141 -0.03142517832421881 -0.066342043128906347 -0.066342043128906347 -0.080560524227112226 -0.066342043128906347 -0.066342043128906347 -0.069945571342346052 -0.00010181328125007383 -0.029587448597656163 -0.029587448597656163 -0.066342043128906347 -0.016342043128906348\nleaf_weight=162 5338 637 11918 157 312 24 114 180 133 4452 216 241 148 133 105 104 120 32 134 211 122 26 51 187 60 512 60 51 183 35\nleaf_count=162 5338 637 11918 157 312 24 114 180 133 4452 216 241 148 133 105 104 120 32 134 211 122 26 51 187 60 512 60 51 183 35\ninternal_value=0 -0.016934 0.00241669 -0.000168794 -0.0138158 -0.025177 -0.0178717 -0.0069818 -0.0120606 0.00182807 -0.0175352 -0.0265443 -0.0235714 -0.0177586 -0.0330835 -0.0137065 -0.0118293 -0.0142929 -0.0242887 -0.0367391 -0.0330494 0.00446405 -0.0175722 -0.0193553 -0.000169205 -0.00435315 -0.0132099 -0.0195098 -0.0348529 -0.028758\ninternal_weight=0 2332 23826 11908 1520 1695 881 989 677 10388 497 531 364 290 814 719 615 495 239 575 364 4478 381 349 5910 572 162 102 340 157\ninternal_count=26158 2332 23826 11908 1520 1695 881 989 677 10388 497 531 364 290 814 719 615 495 239 575 364 4478 381 349 5910 572 162 102 340 157\nis_linear=0\nshrinkage=0.05\n\n\nTree=9\nnum_leaves=31\nnum_cat=0\nsplit_feature=12 14 14 0 14 8 12 13 12 12 3 0 0 13 13 2 12 8 8 2 11 13 11 12 0 13 1 2 8 1\nsplit_gain=317.801 168.652 64.1727 129.404 52.8876 39.1608 27.1345 22.1414 22.4102 21.3522 19.8242 19.7279 16.8149 12.9517 10.4681 5.99354 6.15915 7.11597 5.81757 5.40162 6.70898 5.33213 5.28473 4.56733 4.43441 8.03726 4.37215 6.62745 4.33443 4.97364\nthreshold=27.650000000000002 28.500000000000004 29.500000000000004 11.500000000000002 28.500000000000004 24.650000000000002 26.350000000000005 28.500000000000004 28.150000000000002 30.150000000000002 5.5000000000000009 13.500000000000002 13.500000000000002 27.500000000000004 27.500000000000004 0.78724360164103002 27.450000000000003 23.350000000000005 25.750000000000004 0.48877522411129348 91.500000000000014 1.0000000180025095e-35 81.500000000000014 27.150000000000002 10.500000000000002 26.500000000000004 -0.65234524191686594 0.097680735332368748 25.450000000000003 0.29342972903661901\ndecision_type=2 10 10 2 8 2 2 8 2 2 2 2 2 10 10 2 2 2 2 2 2 10 2 2 2 8 2 2 2 2\nleft_child=1 5 3 9 11 6 -1 -6 -9 24 -10 13 -12 -5 19 16 17 -8 -16 20 -7 -11 -19 26 -2 -26 27 -24 29 -22\nright_child=2 -3 -4 4 7 14 15 8 10 21 12 -13 -14 -15 18 -17 -18 22 -20 -21 28 -23 23 -25 25 -27 -28 -29 -30 -31\nleaf_value=-0.063024940972461072 0.0016456869774071237 0.0033171021564454509 0.031512470486230452 -0.066342043128906347 0.0016585510782226366 -0.029853919408007815 -0.029853919408007815 0.0016585510782226366 -1.2653740455448316e-08 -0.15750262036245438 0 -0.064683491986604377 0 -0.031512470486230452 -0.029853919408007815 -0.063024940972461072 -0.029853919408007815 0.0033171021564454509 -0.029853919408007815 -0.063024940972461072 -0.063024940972461072 0.063024940972461072 -0.063024940972461072 -0.063024940972461072 -0.066448292775228818 -9.6722617187516846e-05 -0.028108076167773357 -0.028108076167773357 -0.063024940972461072 -0.015524940972461111\nleaf_weight=162 5338 637 11918 157 312 24 114 180 133 51 216 241 148 133 105 104 120 32 134 211 122 4427 51 187 60 512 60 51 183 35\nleaf_count=162 5338 637 11918 157 312 24 114 180 133 51 216 241 148 133 105 104 120 32 134 211 122 4427 51 187 60 512 60 51 183 35\ninternal_value=0 -0.016934 0.0024062 -0.000189788 -0.0138158 -0.025177 -0.0178717 -0.0069818 -0.0120606 0.001804 -0.0175352 -0.0265443 -0.0235714 -0.0177586 -0.0330835 -0.0137065 -0.0118293 -0.0142929 -0.0242887 -0.0367391 -0.0330494 0.00440822 -0.0175722 -0.0193553 -0.000169205 -0.00435315 -0.0132099 -0.0195098 -0.0348529 -0.028758\ninternal_weight=0 2332 23826 11908 1520 1695 881 989 677 10388 497 531 364 290 814 719 615 495 239 575 364 4478 381 349 5910 572 162 102 340 157\ninternal_count=26158 2332 23826 11908 1520 1695 881 989 677 10388 497 531 364 290 814 719 615 495 239 575 364 4478 381 349 5910 572 162 102 340 157\nis_linear=0\nshrinkage=0.05\n\n\nTree=10\nnum_leaves=31\nnum_cat=0\nsplit_feature=12 14 14 0 14 8 12 13 12 12 3 0 0 13 13 2 12 8 8 2 11 2 11 12 0 13 1 2 8 1\nsplit_gain=318.146 168.652 63.6546 129.803 52.8876 39.1608 27.1345 22.1414 22.4102 21.8762 19.8242 19.7279 16.8149 12.9517 10.4681 5.99354 6.15915 7.11597 5.81757 5.40162 6.70898 5.31505 5.28473 4.56733 4.43441 8.03726 4.37215 6.62745 4.33443 4.97364\nthreshold=27.650000000000002 28.500000000000004 29.500000000000004 11.500000000000002 28.500000000000004 24.650000000000002 26.350000000000005 28.500000000000004 28.150000000000002 30.150000000000002 5.5000000000000009 13.500000000000002 13.500000000000002 27.500000000000004 27.500000000000004 0.78724360164103002 27.450000000000003 23.350000000000005 25.750000000000004 0.48877522411129348 91.500000000000014 0.99988440732898443 81.500000000000014 27.150000000000002 10.500000000000002 26.500000000000004 -0.65234524191686594 0.097680735332368748 25.450000000000003 0.29342972903661901\ndecision_type=2 10 10 2 8 2 2 8 2 2 2 2 2 10 10 2 2 2 2 2 2 2 2 2 2 8 2 2 2 2\nleft_child=1 5 3 9 11 6 -1 -6 -9 24 -10 13 -12 -5 19 16 17 -8 -16 20 -7 -11 -19 26 -2 -26 27 -24 29 -22\nright_child=2 -3 -4 4 7 14 15 8 10 21 12 -13 -14 -15 18 -17 -18 22 -20 -21 28 -23 23 -25 25 -27 -28 -29 -30 -31\nleaf_value=-0.059873693923838012 0.0015634026285367142 0.0031512470486232402 0.029936846961918919 -0.063024940972461072 0.0015756235243115314 -0.028361223437607386 -0.028361223437607386 0.0015756235243115314 -1.2021053485966604e-08 0.059873693923838012 0 -0.06144931738727423 0 -0.029936846961918919 -0.028361223437607386 -0.059873693923838012 -0.028361223437607386 0.0031512470486232402 -0.028361223437607386 -0.059873693923838012 -0.059873693923838012 -0.068657366997633848 -0.059873693923838012 -0.059873693923838012 -0.063125878136467445 -9.1886486328185413e-05 -0.026702672359384751 -0.026702672359384751 -0.059873693923838012 -0.01474869392383802\nleaf_weight=162 5338 637 11918 157 312 24 114 180 133 4452 216 241 148 133 105 104 120 32 134 211 122 26 51 187 60 512 60 51 183 35\nleaf_count=162 5338 637 11918 157 312 24 114 180 133 4452 216 241 148 133 105 104 120 32 134 211 122 26 51 187 60 512 60 51 183 35\ninternal_value=0 -0.016934 0.00241669 -0.000168794 -0.0138158 -0.025177 -0.0178717 -0.0069818 -0.0120606 0.00182807 -0.0175352 -0.0265443 -0.0235714 -0.0177586 -0.0330835 -0.0137065 -0.0118293 -0.0142929 -0.0242887 -0.0367391 -0.0330494 0.00446405 -0.0175722 -0.0193553 -0.000169205 -0.00435315 -0.0132099 -0.0195098 -0.0348529 -0.028758\ninternal_weight=0 2332 23826 11908 1520 1695 881 989 677 10388 497 531 364 290 814 719 615 495 239 575 364 4478 381 349 5910 572 162 102 340 157\ninternal_count=26158 2332 23826 11908 1520 1695 881 989 677 10388 497 531 364 290 814 719 615 495 239 575 364 4478 381 349 5910 572 162 102 340 157\nis_linear=0\nshrinkage=0.05\n\n\nTree=11\nnum_leaves=31\nnum_cat=0\nsplit_feature=12 14 14 0 14 8 12 13 12 12 3 0 0 13 13 2 12 8 8 2 11 2 11 12 0 13 1 2 8 1\nsplit_gain=318.146 168.652 63.6546 129.803 52.8876 39.1608 27.1345 22.1414 22.4102 21.8762 19.8242 19.7279 16.8149 12.9517 10.4681 5.99354 6.15915 7.11597 5.81757 5.40162 6.70898 5.31505 5.28473 4.56733 4.43441 8.03726 4.37215 6.62745 4.33443 4.97364\nthreshold=27.650000000000002 28.500000000000004 29.500000000000004 11.500000000000002 28.500000000000004 24.650000000000002 26.350000000000005 28.500000000000004 28.150000000000002 30.150000000000002 5.5000000000000009 13.500000000000002 13.500000000000002 27.500000000000004 27.500000000000004 0.78724360164103002 27.450000000000003 23.350000000000005 25.750000000000004 0.48877522411129348 91.500000000000014 0.99988440732898443 81.500000000000014 27.150000000000002 10.500000000000002 26.500000000000004 -0.65234524191686594 0.097680735332368748 25.450000000000003 0.29342972903661901\ndecision_type=2 10 10 2 8 2 2 8 2 2 2 2 2 10 10 2 2 2 2 2 2 2 2 2 2 8 2 2 2 2\nleft_child=1 5 3 9 11 6 -1 -6 -9 24 -10 13 -12 -5 19 16 17 -8 -16 20 -7 -11 -19 26 -2 -26 27 -24 29 -22\nright_child=2 -3 -4 4 7 14 15 8 10 21 12 -13 -14 -15 18 -17 -18 22 -20 -21 28 -23 23 -25 25 -27 -28 -29 -30 -31\nleaf_value=-0.056880009227646161 0.0014852324971098342 0.0029936846961920341 0.0284400046138229 -0.059873693923838012 0.001496842348096017 -0.026943162265727062 -0.026943162265727062 0.001496842348096017 -1.1420000767259354e-08 0.056880009227646161 0 -0.058376851517910472 0 -0.0284400046138229 -0.026943162265727062 -0.056880009227646161 -0.026943162265727062 0.0029936846961920341 -0.026943162265727062 -0.056880009227646161 -0.056880009227646161 -0.065224498647752149 -0.056880009227646161 -0.056880009227646161 -0.059969584229644046 -8.7292162011820562e-05 -0.025367538741415532 -0.025367538741415532 -0.056880009227646161 -0.014011259227646101\nleaf_weight=162 5338 637 11918 157 312 24 114 180 133 4452 216 241 148 133 105 104 120 32 134 211 122 26 51 187 60 512 60 51 183 35\nleaf_count=162 5338 637 11918 157 312 24 114 180 133 4452 216 241 148 133 105 104 120 32 134 211 122 26 51 187 60 512 60 51 183 35\ninternal_value=0 -0.016934 0.00241669 -0.000168794 -0.0138158 -0.025177 -0.0178717 -0.0069818 -0.0120606 0.00182807 -0.0175352 -0.0265443 -0.0235714 -0.0177586 -0.0330835 -0.0137065 -0.0118293 -0.0142929 -0.0242887 -0.0367391 -0.0330494 0.00446405 -0.0175722 -0.0193553 -0.000169205 -0.00435315 -0.0132099 -0.0195098 -0.0348529 -0.028758\ninternal_weight=0 2332 23826 11908 1520 1695 881 989 677 10388 497 531 364 290 814 719 615 495 239 575 364 4478 381 349 5910 572 162 102 340 157\ninternal_count=26158 2332 23826 11908 1520 1695 881 989 677 10388 497 531 364 290 814 719 615 495 239 575 364 4478 381 349 5910 572 162 102 340 157\nis_linear=0\nshrinkage=0.05\n\n\nTree=12\nnum_leaves=31\nnum_cat=0\nsplit_feature=12 14 14 0 14 8 12 13 12 12 0 3 0 13 13 2 12 8 8 2 11 13 11 12 0 13 1 2 8 1\nsplit_gain=317.87 168.652 64.0689 128.859 52.3797 39.1608 27.1345 22.1414 22.4102 21.3522 20.0809 19.8242 16.8149 12.5656 10.4681 5.99354 6.15915 7.11597 5.81757 5.40162 6.70898 5.33213 5.28473 4.56733 4.43441 8.03726 4.37215 6.62745 4.33443 4.97364\nthreshold=27.650000000000002 28.500000000000004 29.500000000000004 11.500000000000002 28.500000000000004 24.650000000000002 26.350000000000005 28.500000000000004 28.150000000000002 30.150000000000002 13.500000000000002 5.5000000000000009 13.500000000000002 27.500000000000004 27.500000000000004 0.78724360164103002 27.450000000000003 23.350000000000005 25.750000000000004 0.48877522411129348 91.500000000000014 1.0000000180025095e-35 81.500000000000014 27.150000000000002 10.500000000000002 26.500000000000004 -0.65234524191686594 0.097680735332368748 25.450000000000003 0.29342972903661901\ndecision_type=2 10 10 2 8 2 2 8 2 2 2 2 2 10 10 2 2 2 2 2 2 10 2 2 2 8 2 2 2 2\nleft_child=1 5 3 9 10 6 -1 -6 -9 24 13 -10 -13 -5 19 16 17 -8 -16 20 -7 -11 -19 26 -2 -26 27 -24 29 -22\nright_child=2 -3 -4 4 7 14 15 8 11 21 -12 12 -14 -15 18 -17 -18 22 -20 -21 28 -23 23 -25 25 -27 -28 -29 -30 -31\nleaf_value=-0.054036008766263778 0.0014109708722543246 0.0028440004613823791 0.027018004383131712 -0.056880009227646161 0.0014220002306911895 -0.025596004152440701 -0.025596004152440701 0.0014220002306911895 -1.0849000808832443e-08 -0.15546517356821565 -0.055458008942014997 0 0 -0.027018004383131712 -0.025596004152440701 -0.054036008766263778 -0.025596004152440701 0.0028440004613823791 -0.025596004152440701 -0.054036008766263778 -0.054036008766263778 0.054036008766263778 -0.054036008766263778 -0.054036008766263778 -0.056971105018161806 -8.2927553911282822e-05 -0.024099161804344682 -0.024099161804344682 -0.054036008766263778 -0.013310696266263734\nleaf_weight=162 5338 637 11918 157 312 24 114 180 133 51 241 216 148 133 105 104 120 32 134 211 122 4427 51 187 60 512 60 51 183 35\nleaf_count=162 5338 637 11918 157 312 24 114 180 133 51 241 216 148 133 105 104 120 32 134 211 122 4427 51 187 60 512 60 51 183 35\ninternal_value=0 -0.016934 0.00240829 -0.000185589 -0.0137829 -0.025177 -0.0178717 -0.0069818 -0.0120606 0.001804 -0.0264501 -0.0175352 -0.0235714 -0.0175862 -0.0330835 -0.0137065 -0.0118293 -0.0142929 -0.0242887 -0.0367391 -0.0330494 0.00440822 -0.0175722 -0.0193553 -0.000169205 -0.00435315 -0.0132099 -0.0195098 -0.0348529 -0.028758\ninternal_weight=0 2332 23826 11908 1520 1695 881 989 677 10388 531 497 364 290 814 719 615 495 239 575 364 4478 381 349 5910 572 162 102 340 157\ninternal_count=26158 2332 23826 11908 1520 1695 881 989 677 10388 531 497 364 290 814 719 615 495 239 575 364 4478 381 349 5910 572 162 102 340 157\nis_linear=0\nshrinkage=0.05\n\n\nTree=13\nnum_leaves=31\nnum_cat=0\nsplit_feature=12 14 14 0 8 14 12 12 14 0 12 13 3 0 13 0 2 12 8 8 2 11 2 11 13 12 1 2 8 1\nsplit_gain=321.397 168.652 58.8866 107.113 39.1608 34.8591 27.1345 21.6372 11.8181 24.6394 21.1986 25.1001 20.2188 16.7136 10.4681 6.39844 5.99354 6.15915 7.11597 5.81757 5.40162 6.70898 5.31505 5.28473 4.94505 4.56733 4.37215 6.62745 4.33443 4.97364\nthreshold=27.650000000000002 28.500000000000004 29.500000000000004 11.500000000000002 24.650000000000002 27.500000000000004 26.350000000000005 30.150000000000002 28.500000000000004 14.500000000000002 28.150000000000002 28.500000000000004 5.5000000000000009 13.500000000000002 27.500000000000004 13.500000000000002 0.78724360164103002 27.450000000000003 23.350000000000005 25.750000000000004 0.48877522411129348 91.500000000000014 0.99988440732898443 81.500000000000014 24.500000000000004 27.150000000000002 -0.65234524191686594 0.097680735332368748 25.450000000000003 0.29342972903661901\ndecision_type=2 10 10 2 2 8 2 2 10 2 2 10 2 2 10 2 2 2 2 2 2 2 2 2 10 2 2 2 2 2\nleft_child=1 4 3 7 6 15 -1 -2 9 -7 -10 -12 -13 -14 20 -5 17 18 -8 -16 21 -6 -9 -20 -11 26 27 -25 29 -23\nright_child=2 -3 -4 5 14 8 16 22 10 24 11 12 13 -15 19 -17 -18 -19 23 -21 -22 28 -24 25 -26 -27 -28 -29 -30 -31\nleaf_value=-0.051334208327950576 -7.8781176215692039e-05 0.0027018004383132068 0.025667104163975198 -0.056536008766263815 -0.024316203944818683 -0.023167104163975161 -0.024316203944818683 0.051334208327950576 0.0013509002191566923 -0.15000000000000002 0.0038509002191567279 7.8132613268167016e-09 0 0 -0.024316203944818683 -0.10018510858208583 -0.051334208327950576 -0.024316203944818683 0.0027018004383132068 -0.024316203944818683 -0.051334208327950576 -0.051334208327950576 -0.055163884852763446 -0.051334208327950576 -0.0026851085820860376 -0.051334208327950576 -0.022894203714127495 -0.022894203714127495 -0.051334208327950576 -0.012645161452950582\nleaf_weight=162 5910 637 11918 102 24 292 114 4452 294 21 193 81 214 145 105 82 104 120 32 134 211 122 26 51 96 187 60 51 183 35\nleaf_count=162 5910 637 11918 102 24 292 114 4452 294 21 193 81 214 145 105 82 104 120 32 134 211 122 26 51 96 187 60 51 183 35\ninternal_value=0 -0.016934 0.00251532 2.85524e-05 -0.025177 -0.0123684 -0.0178717 0.00184251 -0.00955838 -0.0166381 -0.00643474 -0.0115877 -0.0181818 -0.023273 -0.0330835 -0.0327717 -0.0137065 -0.0118293 -0.0142929 -0.0242887 -0.0367391 -0.0330494 0.00446405 -0.0175722 -0.0360256 -0.0193553 -0.0132099 -0.0195098 -0.0348529 -0.028758\ninternal_weight=0 2332 23826 11908 1695 1520 881 10388 1336 409 927 633 440 359 814 184 719 615 495 239 575 364 4478 381 117 349 162 102 340 157\ninternal_count=26158 2332 23826 11908 1695 1520 881 10388 1336 409 927 633 440 359 814 184 719 615 495 239 575 364 4478 381 117 349 162 102 340 157\nis_linear=0\nshrinkage=0.05\n\n\nTree=14\nnum_leaves=31\nnum_cat=0\nsplit_feature=14 0 14 12 14 12 0 0 13 12 13 0 3 4 12 13 1 3 11 13 0 13 12 8 2 12 2 12 14 2\nsplit_gain=121.652 123.809 88.6564 29.7075 26.3672 28.7332 22.3141 17.2888 17.2374 14.7497 12.8328 33.2505 17.5362 12.6667 11.6592 9.30922 6.97149 5.86106 5.64684 7.34414 5.39209 4.79378 7.094 5.44068 6.43694 5.71865 4.46129 4.0632 3.84091 3.66965\nthreshold=29.500000000000004 10.500000000000002 27.500000000000004 27.650000000000002 28.500000000000004 28.150000000000002 14.500000000000002 13.500000000000002 27.500000000000004 31.050000000000004 28.500000000000004 12.500000000000002 5.5000000000000009 27.650000000000002 26.050000000000004 26.500000000000004 0.57077594689671507 11.500000000000002 98.500000000000014 1.0000000180025095e-35 14.500000000000002 27.500000000000004 27.950000000000003 25.450000000000003 0.6174544326165855 27.450000000000003 0.50370931781787065 29.650000000000002 25.500000000000004 0.98332250088165762\ndecision_type=10 2 8 2 10 2 2 2 10 2 10 2 2 2 2 10 2 2 2 10 2 8 2 2 2 2 2 2 10 2\nleft_child=1 3 7 14 6 -6 21 15 13 18 -7 -12 -13 -8 -1 -3 -15 -16 19 27 -14 -4 23 -23 25 -25 -17 -5 -19 -24\nright_child=-2 2 4 9 5 10 8 -9 -10 -11 11 12 20 16 17 26 -18 28 -20 -21 -22 22 29 24 -26 -27 -28 -29 -30 -31\nleaf_value=-0.04876749791155302 0.02438374895577642 -0.096209208327950435 -0.00037765355806502755 -0.10802563862243808 0.0012833552081987776 0.0036583552081989271 0.0012325020884469851 -0.094932103152981645 -0.023100393747577819 0.098767497911553023 0 7.4225981805398083e-09 0 -0.041429478655502387 -0.04876749791155302 -0.04876749791155302 -0.0078008528959367003 -0.093767496346931101 -0.0012325020884469851 0.0038443613874525441 0 -0.023100393747577819 -0.022008748955776449 -0.023100393747577819 -0.043769331501950774 -0.024367913306941238 -0.04876749791155302 -0.1206105824968135 -0.04876749791155302 -0.052405690566589884\nleaf_weight=95 12146 205 178 21 735 216 57 210 108 2719 453 40 141 33 915 133 24 22 3143 3803 89 75 275 70 37 62 56 44 22 31\nleaf_count=95 12146 205 178 21 735 216 57 210 108 2719 453 40 141 33 915 133 24 22 3143 3803 89 75 275 70 37 62 56 44 22 31\ninternal_value=0 -0.001837 -0.0104275 0.000734422 -0.00645198 -0.00267622 -0.0131053 -0.0276987 -0.026982 0.00159815 -0.00847178 -0.0116667 -0.0255556 -0.0134211 -0.00723909 -0.0215228 -0.0300877 -0.00558394 0.000385822 0.00166494 -0.0308696 -0.00887363 -0.0111818 -0.017541 -0.0225148 -0.0173485 -0.0135185 -0.015 -0.0234091 -0.00611111\ninternal_weight=0 14012 3228 10784 2624 1674 950 604 222 9730 939 723 270 114 1054 394 57 959 7011 3868 230 728 550 244 169 132 189 65 44 306\ninternal_count=26158 14012 3228 10784 2624 1674 950 604 222 9730 939 723 270 114 1054 394 57 959 7011 3868 230 728 550 244 169 132 189 65 44 306\nis_linear=0\nshrinkage=0.05\n\n\nTree=15\nnum_leaves=31\nnum_cat=0\nsplit_feature=14 0 14 12 0 14 12 12 13 0 3 12 13 12 0 13 11 3 8 2 12 0 12 12 2 13 14 2 12 1\nsplit_gain=113.661 105.249 91.0972 29.9152 19.3215 14.7395 28.7332 14.4602 12.8328 33.2505 17.5362 11.6592 11.0922 18.06 12.0315 8.2128 5.958 5.86106 5.44068 6.43694 5.71865 5.39209 4.44771 4.86779 4.19135 3.8891 3.84091 3.77899 3.38012 3.20542\nthreshold=29.500000000000004 10.500000000000002 27.500000000000004 27.650000000000002 13.500000000000002 28.500000000000004 28.150000000000002 31.050000000000004 28.500000000000004 12.500000000000002 5.5000000000000009 26.050000000000004 27.500000000000004 27.950000000000003 14.500000000000002 26.500000000000004 98.500000000000014 11.500000000000002 25.450000000000003 0.6174544326165855 27.450000000000003 14.500000000000002 27.650000000000002 27.950000000000003 0.50370931781787065 1.0000000180025095e-35 25.500000000000004 0.98332250088165762 25.650000000000002 -0.38242426011641079\ndecision_type=10 2 8 2 2 10 2 2 10 2 2 2 8 2 2 10 2 2 2 2 2 2 2 2 2 10 10 2 2 2\nleft_child=1 3 4 11 15 12 -7 16 -8 -10 -11 28 22 14 18 -3 25 29 -14 20 -20 -12 -4 -24 -17 -5 -19 -15 -1 -13\nright_child=-2 2 5 7 -6 6 8 -9 9 10 21 17 13 27 -16 24 -18 26 19 -21 -22 -23 23 -25 -26 -27 -28 -29 -30 -31\nleaf_value=-0.046329123015975429 0.023164561507987538 -0.091398747911553002 0.0011708769840247158 -0.10262435669131627 -0.090185497995332584 0.0012191874477888833 0.0034754374477889982 0.093829123015975402 0 7.0514682093403284e-09 0 -0.046329123015975429 -0.021945374060199009 -0.0053013159260984826 -0.021945374060199009 -0.046329123015975429 -0.0011708769840247158 -0.089079121529584526 -0.021945374060199009 -0.041580864926853159 -0.023149517641594099 0 -0.0012641206959839836 -0.0012186695308852137 -0.046329123015975429 0.0036521433180798368 -0.046329123015975429 -0.14042852606722497 -0.076329119737719969 -0.046329123015975429\nleaf_weight=50 12146 205 133 65 210 735 216 2719 453 40 141 614 75 331 68 133 3143 22 70 37 62 89 26 110 56 3803 22 38 45 301\nleaf_count=50 12146 205 133 65 210 735 216 2719 453 40 141 614 75 331 68 133 3143 22 70 37 62 89 26 110 56 3803 22 38 45 301\ninternal_value=0 -0.00160862 -0.00952912 0.000762241 -0.0270364 -0.00549924 -0.00267622 0.00162898 -0.00847178 -0.0116667 -0.0255556 -0.00723909 -0.0104737 -0.0138693 -0.0227244 -0.0205076 0.000428612 -0.00558394 -0.017541 -0.0225148 -0.0173485 -0.0308696 -0.00187732 -0.00823529 -0.0129894 0.0017425 -0.0234091 -0.00638211 -0.0239474 -0.00472678\ninternal_weight=0 14012 3228 10784 604 2624 1674 9730 939 723 270 1054 950 681 312 394 7011 959 244 169 132 230 269 136 189 3868 44 369 95 915\ninternal_count=26158 14012 3228 10784 604 2624 1674 9730 939 723 270 1054 950 681 312 394 7011 959 244 169 132 230 269 136 189 3868 44 369 95 915\nis_linear=0\nshrinkage=0.05\n\n\nTree=16\nnum_leaves=31\nnum_cat=0\nsplit_feature=14 0 14 12 0 12 14 12 13 0 3 12 13 12 0 13 11 3 8 2 12 0 12 12 2 13 14 12 4 1\nsplit_gain=112.681 102.73 90.6643 29.9152 19.8474 14.4602 13.5698 28.7332 12.8328 33.2505 17.5362 11.6592 10.2922 19.9016 12.0315 7.66765 5.958 5.86106 5.44068 6.43694 5.71865 5.39209 4.44771 4.86779 4.19135 3.8891 3.84091 3.38012 3.36981 3.20542\nthreshold=29.500000000000004 10.500000000000002 27.500000000000004 27.650000000000002 13.500000000000002 31.050000000000004 28.500000000000004 28.150000000000002 28.500000000000004 12.500000000000002 5.5000000000000009 26.050000000000004 27.500000000000004 27.950000000000003 14.500000000000002 26.500000000000004 98.500000000000014 11.500000000000002 25.450000000000003 0.6174544326165855 27.450000000000003 14.500000000000002 27.650000000000002 27.950000000000003 0.50370931781787065 1.0000000180025095e-35 25.500000000000004 25.650000000000002 30.250000000000004 -0.38242426011641079\ndecision_type=10 2 8 2 2 2 10 2 10 2 2 2 8 2 2 10 2 2 2 2 2 2 2 2 2 10 10 2 2 2\nleft_child=1 3 4 11 15 16 12 -8 -9 -10 -11 27 22 14 18 -3 25 29 -14 20 -20 -12 -4 -24 -17 -5 -19 -1 -15 -13\nright_child=-2 2 6 5 -6 -7 7 8 9 10 21 17 13 28 -16 24 -18 26 19 -21 -22 -23 23 -25 -26 -27 -28 -29 -30 -31\nleaf_value=-0.044012666865176624 0.022006333432588222 -0.086828810515975269 0.001112333134823551 -0.097493138856750511 -0.085676223095565981 0.089137666865176615 0.0011582280753994923 0.0033016655753995042 0 6.698894772227959e-09 0 -0.044012666865176624 -0.020848105357189086 -0.01236703812408564 -0.020848105357189086 -0.044012666865176624 -0.001112333134823551 -0.084625165453105222 -0.020848105357189086 -0.039501821680510488 -0.021992041759514327 0 -0.0012009146611847044 -0.0011577360543409355 -0.044012666865176624 0.0034695361521759338 -0.044012666865176624 -0.0725126637508339 -0.19691300760567568 -0.044012666865176624\nleaf_weight=50 12146 205 133 65 210 2719 735 216 453 40 141 614 75 347 68 133 3143 22 70 37 62 89 26 110 56 3803 22 45 22 301\nleaf_count=50 12146 205 133 65 210 2719 735 216 453 40 141 614 75 347 68 133 3143 22 70 37 62 89 26 110 56 3803 22 45 22 301\ninternal_value=0 -0.00158007 -0.0094052 0.000762241 -0.0268709 0.00162898 -0.00538491 -0.00267622 -0.00847178 -0.0116667 -0.0255556 -0.00723909 -0.0101579 -0.0134288 -0.0227244 -0.0202538 0.000428612 -0.00558394 -0.017541 -0.0225148 -0.0173485 -0.0308696 -0.00187732 -0.00823529 -0.0129894 0.0017425 -0.0234091 -0.0239474 -0.00556911 -0.00472678\ninternal_weight=0 14012 3228 10784 604 9730 2624 1674 939 723 270 1054 950 681 312 394 7011 959 244 169 132 230 269 136 189 3868 44 95 369 915\ninternal_count=26158 14012 3228 10784 604 9730 2624 1674 939 723 270 1054 950 681 312 394 7011 959 244 169 132 230 269 136 189 3868 44 95 369 915\nis_linear=0\nshrinkage=0.05\n\n\nTree=17\nnum_leaves=31\nnum_cat=0\nsplit_feature=14 0 14 12 0 12 12 14 12 13 0 3 13 13 12 8 0 11 3 0 4 12 12 13 14 12 2 12 1 1\nsplit_gain=110.613 97.4777 90.8199 29.9152 20.6494 14.4602 11.6592 11.0285 28.7332 12.8328 33.2505 17.5362 8.56415 8.54203 20.2876 10.3287 6.51116 5.958 5.86106 5.39209 4.59599 4.44771 4.86779 3.8891 3.84091 3.38012 3.24357 3.90652 3.20542 3.2453\nthreshold=29.500000000000004 10.500000000000002 27.500000000000004 27.650000000000002 13.500000000000002 31.050000000000004 26.050000000000004 28.500000000000004 28.150000000000002 28.500000000000004 12.500000000000002 5.5000000000000009 26.500000000000004 27.500000000000004 27.650000000000002 24.650000000000002 12.500000000000002 98.500000000000014 11.500000000000002 14.500000000000002 27.550000000000004 27.650000000000002 27.950000000000003 1.0000000180025095e-35 25.500000000000004 25.650000000000002 -0.17646730165275518 27.950000000000003 -0.38242426011641079 -0.01397611846945947\ndecision_type=10 2 8 2 2 2 2 10 2 10 2 2 10 8 2 2 2 2 2 2 2 2 2 10 10 2 2 2 2 2\nleft_child=1 3 4 6 12 17 25 13 -9 -10 -11 -12 -3 21 15 -15 -17 23 28 -13 -14 -4 -23 -5 -20 -1 -16 -28 -8 -30\nright_child=-2 2 7 5 -6 -7 18 8 9 10 11 19 20 14 26 16 -18 -19 24 -21 -22 22 -24 -25 -26 -27 27 -29 29 -31\nleaf_value=-0.041812033521917868 0.020906016760958757 -0.082487369990176529 0.0010567164780823646 -0.09261848191391292 -0.081392411940787751 0.084680783521917755 -0.041812033521917868 0.0011003166716294643 0.0031365822966295202 0 6.3639500780254827e-09 0 -0.041812033521917868 0.0045271957466951566 -0.0019178982235892761 -0.01980570008932965 -0.01980570008932965 -0.0010567164780823646 -0.080393907180449989 0 -0.039253743938315294 -0.001140868928125549 -0.0010998492516238359 0.0032960593445672259 -0.041812033521917868 -0.068887030563292137 -0.046937990024171587 -0.041138680858276433 -0.064794029138785986 -0.016144929357942674\nleaf_weight=50 12146 205 133 65 210 2719 614 735 216 453 40 141 112 26 235 91 109 3143 22 89 77 26 110 3803 22 45 38 182 65 236\nleaf_count=50 12146 205 133 65 210 2719 614 735 216 453 40 141 112 26 235 91 109 3143 22 89 77 26 110 3803 22 45 38 182 65 236\ninternal_value=0 -0.00151941 -0.00914188 0.000762241 -0.0266225 0.00162898 -0.00723909 -0.00511814 -0.00267622 -0.00847178 -0.0116667 -0.0255556 -0.0198731 -0.00942105 -0.0124009 -0.024646 -0.0285 0.000428612 -0.00558394 -0.0308696 -0.0121958 -0.00187732 -0.00823529 0.0017425 -0.0234091 -0.0239474 -0.00631868 -0.0106818 -0.00472678 -0.00895349\ninternal_weight=0 14012 3228 10784 604 9730 1054 2624 1674 939 723 270 394 950 681 226 200 7011 959 230 189 269 136 3868 44 95 455 220 915 301\ninternal_count=26158 14012 3228 10784 604 9730 1054 2624 1674 939 723 270 394 950 681 226 200 7011 959 230 189 269 136 3868 44 95 455 220 915 301\nis_linear=0\nshrinkage=0.05\n\n\nTree=18\nnum_leaves=31\nnum_cat=0\nsplit_feature=14 0 14 12 0 12 12 14 12 13 0 3 13 12 13 12 8 12 0 11 3 0 2 4 13 14 12 1 1 2\nsplit_gain=109.526 94.7529 91.4092 29.9152 20.9202 14.4602 11.6592 9.69456 28.7332 12.8328 33.2505 17.5362 8.28337 8.19668 16.2841 9.08517 6.41839 9.38457 6.51116 5.958 5.86106 5.39209 4.88195 4.59599 3.8891 3.84091 3.38012 3.20542 3.2453 3.19162\nthreshold=29.500000000000004 10.500000000000002 27.500000000000004 27.650000000000002 13.500000000000002 31.050000000000004 26.050000000000004 28.500000000000004 28.150000000000002 28.500000000000004 12.500000000000002 5.5000000000000009 26.500000000000004 27.950000000000003 27.500000000000004 27.650000000000002 24.650000000000002 27.650000000000002 12.500000000000002 98.500000000000014 11.500000000000002 14.500000000000002 0.19969739736768838 27.550000000000004 1.0000000180025095e-35 25.500000000000004 25.650000000000002 -0.38242426011641079 -0.01397611846945947 0.84658398682345093\ndecision_type=10 2 8 2 2 2 2 10 2 10 2 2 10 2 8 2 2 2 2 2 2 2 2 2 10 10 2 2 2 2\nleft_child=1 3 4 6 12 19 26 13 -9 -10 -11 -12 29 14 15 -4 -16 18 -18 24 27 -13 -19 -14 -5 -22 -1 -8 -29 -3\nright_child=-2 2 7 5 -6 -7 20 8 9 10 11 21 23 -15 16 -17 17 22 -20 -21 25 -23 -24 -25 -26 -27 -28 28 -30 -31\nleaf_value=-0.039721431845821976 0.019860715922910901 -0.05879522316333316 0.0010038806541782465 -0.087987557818217266 -0.07732279134374842 0.080446744345821844 -0.039721431845821976 0.0010453008380480356 0.0029797531817980175 0 6.045752520833503e-09 0 -0.039721431845821976 -0.017967959762564691 0.0043008359593603275 -0.0010838254817192806 -0.018815415084863219 0.00083973541644581933 -0.018815415084863219 -0.0010038806541782465 -0.076374211821427451 0 -0.045884147886544394 -0.037291056741399591 0.0031312563773388648 -0.039721431845821976 -0.065442679035127502 -0.061554327681846745 -0.015337682890045556 -0.080921291074270138\nleaf_weight=50 12146 179 133 65 210 2719 614 735 216 453 40 141 112 479 30 26 91 54 109 3143 22 89 28 77 3803 22 45 65 236 26\nleaf_count=50 12146 179 133 65 210 2719 614 735 216 453 40 141 112 479 30 26 91 54 109 3143 22 89 28 77 3803 22 45 65 236 26\ninternal_value=0 -0.0014873 -0.00900248 0.000762241 -0.0265397 0.00162898 -0.00723909 -0.0049657 -0.00267622 -0.00847178 -0.0116667 -0.0255556 -0.0197462 -0.009 -0.0136837 -0.000660377 -0.0203205 -0.0226596 -0.0285 0.000428612 -0.00558394 -0.0308696 -0.00841463 -0.0121958 0.0017425 -0.0234091 -0.0239474 -0.00472678 -0.00895349 -0.0267073\ninternal_weight=0 14012 3228 10784 604 9730 1054 2624 1674 939 723 270 394 950 471 159 312 282 200 7011 959 230 82 189 3868 44 95 915 301 205\ninternal_count=26158 14012 3228 10784 604 9730 1054 2624 1674 939 723 270 394 950 471 159 312 282 200 7011 959 230 82 189 3868 44 95 915 301 205\nis_linear=0\nshrinkage=0.05\n\n\nTree=19\nnum_leaves=31\nnum_cat=0\nsplit_feature=14 0 14 12 0 12 12 13 14 12 12 0 13 3 8 12 0 11 3 0 13 1 13 14 12 2 2 12 1 1\nsplit_gain=107.248 89.1275 92.7562 29.9152 21.4672 14.4602 11.6592 9.33565 9.91727 28.8512 24.9031 18.8068 22.7831 17.5362 10.3287 7.85818 6.51116 5.958 5.86106 5.39209 5.26538 4.64512 3.8891 3.84091 3.38012 3.32319 3.29935 3.23163 3.20542 3.2453\nthreshold=29.500000000000004 10.500000000000002 27.500000000000004 27.650000000000002 13.500000000000002 31.050000000000004 26.050000000000004 27.500000000000004 28.500000000000004 28.150000000000002 27.650000000000002 12.500000000000002 28.500000000000004 5.5000000000000009 24.650000000000002 27.250000000000004 12.500000000000002 98.500000000000014 11.500000000000002 14.500000000000002 26.500000000000004 -0.38242426011641079 1.0000000180025095e-35 25.500000000000004 25.650000000000002 -0.24372464231556024 0.19969739736768838 27.950000000000003 -0.38242426011641079 -0.01397611846945947\ndecision_type=10 2 8 2 2 2 2 8 10 2 2 2 10 2 2 2 2 2 2 2 10 2 10 10 2 2 2 2 2 2\nleft_child=1 3 4 6 15 17 24 -4 10 -10 14 -11 -13 -14 -9 -3 -16 22 28 -15 21 25 -5 -20 -1 -17 -12 -28 -8 -30\nright_child=-2 2 7 5 -6 -7 18 8 9 11 26 12 13 19 16 20 -18 -19 23 -21 -22 -23 -24 -25 -26 -27 27 -29 29 -31\nleaf_value=-0.037735360253530817 0.018867680126765408 -0.037735360253530817 0.00095368662146935181 -0.083588179927306439 -0.073456651776561091 0.076424407128530811 -0.037735360253530817 0.0040857941613923641 0.00099303579614566932 0 -0.00092360532428159559 0.0028307655227081344 5.7434649036736123e-09 0 -0.017874644330620092 -0.025423240332501075 -0.017874644330620092 -0.00095368662146935181 -0.072555501230356076 0 -0.037735360253530817 -0.077981529916103479 0.0029746935584718417 -0.037735360253530817 -0.062170545083371213 -0.077173240209566396 -0.042296883128635804 -0.040296372275293681 -0.058476611297754388 -0.014570798745543279\nleaf_weight=50 12146 134 514 65 210 2719 614 26 595 481 258 83 40 141 91 38 109 3143 22 89 130 58 3803 22 45 34 31 166 65 236\nleaf_count=50 12146 134 514 65 210 2719 614 26 595 481 258 83 40 141 91 38 109 3143 22 89 130 58 3803 22 45 34 31 166 65 236\ninternal_value=0 -0.0014195 -0.00870818 0.000762241 -0.0263742 0.00162898 -0.00723909 -0.00464177 -0.00611374 -0.00374738 -0.0110793 -0.0097482 -0.0185127 -0.0255556 -0.024646 -0.0194924 -0.0285 0.000428612 -0.00558394 -0.0308696 -0.0144231 -0.0215385 0.0017425 -0.0234091 -0.0239474 -0.0130556 -0.00434066 -0.0092132 -0.00472678 -0.00895349\ninternal_weight=0 14012 3228 10784 604 9730 1054 2624 2110 1429 681 834 353 270 226 394 200 7011 959 230 260 130 3868 44 95 72 455 197 915 301\ninternal_count=26158 14012 3228 10784 604 9730 1054 2624 2110 1429 681 834 353 270 226 394 200 7011 959 230 260 130 3868 44 95 72 455 197 915 301\nis_linear=0\nshrinkage=0.05\n\n\nTree=20\nnum_leaves=31\nnum_cat=0\nsplit_feature=14 0 14 12 0 12 12 13 14 12 12 0 13 3 8 12 0 11 3 0 13 13 14 1 2 12 2 12 1 1\nsplit_gain=106.891 88.255 91.5098 29.9152 22.0213 14.4602 11.6592 9.27686 9.71964 28.8512 25.1734 18.8068 22.7831 17.5362 10.3287 8.26896 6.51116 5.958 5.86106 5.39209 4.71154 3.8891 3.84091 3.84088 3.44985 3.38012 3.32319 3.23163 3.20542 3.2453\nthreshold=29.500000000000004 10.500000000000002 27.500000000000004 27.650000000000002 13.500000000000002 31.050000000000004 26.050000000000004 27.500000000000004 28.500000000000004 28.150000000000002 27.650000000000002 12.500000000000002 28.500000000000004 5.5000000000000009 24.650000000000002 27.250000000000004 12.500000000000002 98.500000000000014 11.500000000000002 14.500000000000002 26.500000000000004 1.0000000180025095e-35 25.500000000000004 -0.38242426011641079 0.19969739736768838 25.650000000000002 -0.24372464231556024 27.950000000000003 -0.38242426011641079 -0.01397611846945947\ndecision_type=10 2 8 2 2 2 2 8 10 2 2 2 10 2 2 2 2 2 2 2 10 10 10 2 2 2 2 2 2 2\nleft_child=1 3 4 6 15 17 25 -4 10 -10 14 -11 -13 -14 -9 -3 -16 21 28 -15 23 -5 -20 26 -12 -1 -17 -26 -8 -30\nright_child=-2 2 7 5 -6 -7 18 8 9 11 24 12 13 19 16 20 -18 -19 22 -21 -22 -23 -24 -25 27 -27 -28 -29 29 -31\nleaf_value=-0.035848592240854238 0.017924296120427209 -0.035848592240854238 0.00090600229039594637 -0.079408770930941064 -0.06978381918773309 0.072603186772104242 -0.035848592240854238 0.0038815044533228264 0.000943384006338377 0 -0.00087742505806751589 0.0026892272465726566 5.456291596317442e-09 0 -0.01698091211408901 -0.024152078315876048 -0.01698091211408901 -0.00090600229039594637 -0.068927726168838355 0 -0.035848592240854238 0.0028259588805482853 -0.035848592240854238 -0.074082453420298219 -0.040182038972204029 -0.059062017829202597 -0.073314578199088001 -0.038281553661529036 -0.055552780732866583 -0.013842258808266195\nleaf_weight=50 12146 134 514 65 210 2719 614 26 595 481 258 83 40 141 91 38 109 3143 22 89 130 3803 22 58 31 45 34 166 65 236\nleaf_count=50 12146 134 514 65 210 2719 614 26 595 481 258 83 40 141 91 38 109 3143 22 89 130 3803 22 58 31 45 34 166 65 236\ninternal_value=0 -0.00140879 -0.00866171 0.000762241 -0.0262086 0.00162898 -0.00723909 -0.00462271 -0.00609005 -0.00374738 -0.0110059 -0.0097482 -0.0185127 -0.0255556 -0.024646 -0.0192386 -0.0285 0.000428612 -0.00558394 -0.0308696 -0.0140385 0.0017425 -0.0234091 -0.0207692 -0.00423077 -0.0239474 -0.0130556 -0.0092132 -0.00472678 -0.00895349\ninternal_weight=0 14012 3228 10784 604 9730 1054 2624 2110 1429 681 834 353 270 226 394 200 7011 959 230 260 3868 44 130 455 95 72 197 915 301\ninternal_count=26158 14012 3228 10784 604 9730 1054 2624 2110 1429 681 834 353 270 226 394 200 7011 959 230 260 3868 44 130 455 95 72 197 915 301\nis_linear=0\nshrinkage=0.05\n\n\nTree=21\nnum_leaves=31\nnum_cat=0\nsplit_feature=14 0 14 12 0 12 12 13 14 12 12 0 13 3 8 12 0 11 3 0 13 13 14 1 2 12 2 12 1 1\nsplit_gain=106.891 88.255 91.5098 29.9152 22.0213 14.4602 11.6592 9.27686 9.71964 28.8512 25.1734 18.8068 22.7831 17.5362 10.3287 8.26896 6.51116 5.958 5.86106 5.39209 4.71154 3.8891 3.84091 3.84088 3.44985 3.38012 3.32319 3.23163 3.20542 3.2453\nthreshold=29.500000000000004 10.500000000000002 27.500000000000004 27.650000000000002 13.500000000000002 31.050000000000004 26.050000000000004 27.500000000000004 28.500000000000004 28.150000000000002 27.650000000000002 12.500000000000002 28.500000000000004 5.5000000000000009 24.650000000000002 27.250000000000004 12.500000000000002 98.500000000000014 11.500000000000002 14.500000000000002 26.500000000000004 1.0000000180025095e-35 25.500000000000004 -0.38242426011641079 0.19969739736768838 25.650000000000002 -0.24372464231556024 27.950000000000003 -0.38242426011641079 -0.01397611846945947\ndecision_type=10 2 8 2 2 2 2 8 10 2 2 2 10 2 2 2 2 2 2 2 10 10 10 2 2 2 2 2 2 2\nleft_child=1 3 4 6 15 17 25 -4 10 -10 14 -11 -13 -14 -9 -3 -16 21 28 -15 23 -5 -20 26 -12 -1 -17 -26 -8 -30\nright_child=-2 2 7 5 -6 -7 18 8 9 11 24 12 13 19 16 20 -18 -19 22 -21 -22 -23 -24 -25 27 -27 -28 -29 29 -31\nleaf_value=-0.034056162628811573 0.017028081314405873 -0.034056162628811573 0.00086070217587614912 -0.075438332384394083 -0.066294628228346406 0.068973027433499118 -0.034056162628811573 0.0036874292306567471 0.00089621480602151147 0 -0.00083355380516412234 0.0025547658842439702 5.1834769365655122e-09 0 -0.016131866508384541 -0.022944474400082272 -0.016131866508384541 -0.00086070217587614912 -0.06548133986039649 0 -0.034056162628811573 0.0026846609365207999 -0.034056162628811573 -0.070378330749283263 -0.038172937023593791 -0.056108916937742497 -0.069648849289133577 -0.036367475978452517 -0.052775141696223216 -0.013150145867852814\nleaf_weight=50 12146 134 514 65 210 2719 614 26 595 481 258 83 40 141 91 38 109 3143 22 89 130 3803 22 58 31 45 34 166 65 236\nleaf_count=50 12146 134 514 65 210 2719 614 26 595 481 258 83 40 141 91 38 109 3143 22 89 130 3803 22 58 31 45 34 166 65 236\ninternal_value=0 -0.00140879 -0.00866171 0.000762241 -0.0262086 0.00162898 -0.00723909 -0.00462271 -0.00609005 -0.00374738 -0.0110059 -0.0097482 -0.0185127 -0.0255556 -0.024646 -0.0192386 -0.0285 0.000428612 -0.00558394 -0.0308696 -0.0140385 0.0017425 -0.0234091 -0.0207692 -0.00423077 -0.0239474 -0.0130556 -0.0092132 -0.00472678 -0.00895349\ninternal_weight=0 14012 3228 10784 604 9730 1054 2624 2110 1429 681 834 353 270 226 394 200 7011 959 230 260 3868 44 130 455 95 72 197 915 301\ninternal_count=26158 14012 3228 10784 604 9730 1054 2624 2110 1429 681 834 353 270 226 394 200 7011 959 230 260 3868 44 130 455 95 72 197 915 301\nis_linear=0\nshrinkage=0.05\n\n\nTree=22\nnum_leaves=31\nnum_cat=0\nsplit_feature=14 0 14 12 0 12 12 13 14 12 12 0 13 3 8 12 0 11 3 0 13 13 14 1 2 12 2 12 1 1\nsplit_gain=107.01 88.5453 91.3483 29.9152 22.0213 14.4602 11.6592 9.33565 9.62616 29.0917 25.1734 19.159 21.8759 17.5362 10.3287 8.26896 6.51116 5.958 5.86106 5.39209 4.71154 3.8891 3.84091 3.84088 3.44985 3.38012 3.32319 3.23163 3.20542 3.2453\nthreshold=29.500000000000004 10.500000000000002 27.500000000000004 27.650000000000002 13.500000000000002 31.050000000000004 26.050000000000004 27.500000000000004 28.500000000000004 28.150000000000002 27.650000000000002 12.500000000000002 28.500000000000004 5.5000000000000009 24.650000000000002 27.250000000000004 12.500000000000002 98.500000000000014 11.500000000000002 14.500000000000002 26.500000000000004 1.0000000180025095e-35 25.500000000000004 -0.38242426011641079 0.19969739736768838 25.650000000000002 -0.24372464231556024 27.950000000000003 -0.38242426011641079 -0.01397611846945947\ndecision_type=10 2 8 2 2 2 2 8 10 2 2 2 10 2 2 2 2 2 2 2 10 10 10 2 2 2 2 2 2 2\nleft_child=1 3 4 6 15 17 25 -4 10 -10 14 -11 -13 -14 -9 -3 -16 21 28 -15 23 -5 -20 26 -12 -1 -17 -26 -8 -30\nright_child=-2 2 7 5 -6 -7 18 8 9 11 24 12 13 19 16 20 -18 -19 22 -21 -22 -23 -24 -25 27 -27 -28 -29 29 -31\nleaf_value=-0.032353354497370999 0.0161766772486855 -0.032353354497370999 0.00081766706708226173 -0.071666415765174393 -0.062979896816929157 0.065524376061824083 -0.032353354497370999 0.0035030577691239628 0.00085140406572037364 0 -0.00079187611490585399 0.0024270275900317275 4.9243030986190209e-09 0 -0.015325273182965305 -0.02179725068007823 -0.015325273182965305 -0.00081766706708226173 -0.062207272867376595 0 -0.032353354497370999 0.0025504278896947953 -0.032353354497370999 -0.066859414211819165 -0.036264290172414171 -0.053303471090855405 -0.066166406824676879 -0.034549102179529938 -0.050136384611412059 -0.012492638574460103\nleaf_weight=50 12146 134 514 65 210 2719 614 26 595 481 258 83 40 141 91 38 109 3143 22 89 130 3803 22 58 31 45 34 166 65 236\nleaf_count=50 12146 134 514 65 210 2719 614 26 595 481 258 83 40 141 91 38 109 3143 22 89 130 3803 22 58 31 45 34 166 65 236\ninternal_value=0 -0.00141236 -0.0086772 0.000762241 -0.0262086 0.00162898 -0.00723909 -0.00464177 -0.00611374 -0.00378237 -0.0110059 -0.00980815 -0.0186544 -0.0255556 -0.024646 -0.0192386 -0.0285 0.000428612 -0.00558394 -0.0308696 -0.0140385 0.0017425 -0.0234091 -0.0207692 -0.00423077 -0.0239474 -0.0130556 -0.0092132 -0.00472678 -0.00895349\ninternal_weight=0 14012 3228 10784 604 9730 1054 2624 2110 1429 681 834 353 270 226 394 200 7011 959 230 260 3868 44 130 455 95 72 197 915 301\ninternal_count=26158 14012 3228 10784 604 9730 1054 2624 2110 1429 681 834 353 270 226 394 200 7011 959 230 260 3868 44 130 455 95 72 197 915 301\nis_linear=0\nshrinkage=0.05\n\n\nTree=23\nnum_leaves=31\nnum_cat=0\nsplit_feature=14 0 14 12 0 12 13 14 12 12 0 13 3 8 12 12 2 0 0 13 11 14 12 1 11 2 12 2 12 2\nsplit_gain=114.522 83.2344 91.3483 32.3828 22.0213 16.933 9.33565 9.62616 29.0917 25.1734 19.159 21.8759 17.5362 10.3287 8.34286 8.26896 7.22413 6.51116 5.39209 4.71154 4.19985 4.65855 5.16382 3.84088 3.51186 3.44985 3.38012 3.32319 3.23163 3.05965\nthreshold=29.500000000000004 10.500000000000002 27.500000000000004 29.050000000000004 13.500000000000002 26.050000000000004 27.500000000000004 28.500000000000004 28.150000000000002 27.650000000000002 12.500000000000002 28.500000000000004 5.5000000000000009 24.650000000000002 31.050000000000004 27.250000000000004 0.78724360164103002 12.500000000000002 14.500000000000002 26.500000000000004 33.500000000000007 25.500000000000004 27.850000000000005 -0.38242426011641079 98.500000000000014 0.19969739736768838 25.650000000000002 -0.24372464231556024 27.950000000000003 0.39629089145655322\ndecision_type=10 2 8 2 2 2 8 10 2 2 2 10 2 2 2 2 2 2 2 10 2 10 2 2 2 2 2 2 2 2\nleft_child=1 3 4 5 15 26 -4 9 -9 13 -10 -12 -13 -8 24 -3 -7 -15 29 23 -18 22 -22 27 -5 -11 -1 -17 -27 -14\nright_child=-2 2 6 14 -6 16 7 8 10 25 11 12 18 17 -16 19 20 -19 -20 -21 21 -23 -24 -25 -26 28 -28 -29 -30 -31\nleaf_value=-0.03073568677250247 0.015367843386251146 -0.03073568677250247 0.00077678371372815749 0.040552906485319264 -0.05983090197608263 -0.0023158435146806156 0.0033279048806678091 0.00080883386243435496 0 -0.00075228230916053469 0.0023056762105301944 4.6780879614516386e-09 0 -0.014559009523816968 0.062248157258732922 -0.020707388146074382 0.019422912038442059 -0.014559009523816968 0 -0.03073568677250247 -0.064096910788629738 -0.045701188993668554 -0.05007709350479015 -0.06351644350122819 -0.00077678371372815749 -0.034451075663793421 -0.050638297536312576 -0.062858086483442974 -0.032821647070553482 0\nleaf_weight=50 12146 134 514 2516 210 3349 26 595 481 258 83 40 89 91 2719 38 94 109 89 130 59 274 134 58 1544 31 45 34 166 52\nleaf_count=50 12146 134 514 2516 210 3349 26 595 481 258 83 40 89 91 2719 38 94 109 89 130 59 274 134 58 1544 31 45 34 166 52\ninternal_value=0 -0.0016336 -0.0086772 0.000474778 -0.0262086 -0.00308989 -0.00464177 -0.00611374 -0.00378237 -0.0110059 -0.00980815 -0.0186544 -0.0255556 -0.024646 0.00258076 -0.0192386 -0.00258312 -0.0285 -0.0308696 -0.0140385 -0.00783422 -0.00977516 -0.0157254 -0.0207692 0.00114532 -0.00423077 -0.0239474 -0.0130556 -0.0092132 -0.0247872\ninternal_weight=0 14012 3228 10784 604 4005 2624 2110 1429 681 834 353 270 226 6779 394 3910 200 230 260 561 467 193 130 4060 455 95 72 197 141\ninternal_count=26158 14012 3228 10784 604 4005 2624 2110 1429 681 834 353 270 226 6779 394 3910 200 230 260 561 467 193 130 4060 455 95 72 197 141\nis_linear=0\nshrinkage=0.05\n\n\nTree=24\nnum_leaves=31\nnum_cat=0\nsplit_feature=14 0 14 12 0 12 12 13 3 7 12 14 12 12 8 2 13 14 12 12 3 0 13 0 11 8 13 13 0 0\nsplit_gain=104.877 88.2235 92.1571 27.1392 22.0213 14.0273 12.7812 9.04357 9.09602 10.1554 8.26896 7.12317 12.629 11.3979 10.5292 6.53894 6.31294 5.62318 18.443 9.37113 7.00842 6.99369 9.14457 6.53773 5.14578 5.11352 4.71154 4.44539 5.14746 4.2\nthreshold=29.500000000000004 10.500000000000002 27.500000000000004 27.950000000000003 13.500000000000002 26.050000000000004 31.050000000000004 27.500000000000004 9.5000000000000018 28.150000000000002 27.250000000000004 28.500000000000004 28.150000000000002 27.950000000000003 26.950000000000003 0.9989598388634241 28.500000000000004 28.500000000000004 27.650000000000002 28.150000000000002 5.5000000000000009 12.500000000000002 28.500000000000004 14.500000000000002 98.500000000000014 25.350000000000005 26.500000000000004 26.500000000000004 8.5000000000000018 14.500000000000002\ndecision_type=10 2 8 2 2 2 2 8 2 2 2 10 2 2 2 2 8 10 2 2 2 2 10 2 2 2 10 10 2 2\nleft_child=1 3 4 5 10 -1 24 -4 17 11 -3 13 -13 25 -14 27 -11 18 23 -19 -21 -22 -23 -9 -5 -10 -12 28 -7 -24\nright_child=-2 2 7 6 -6 15 -8 8 9 16 26 12 14 -15 -16 -17 -18 19 -20 20 21 22 29 -25 -26 -27 -28 -29 -30 -31\nleaf_value=-0.029198902433877374 0.014599451216938598 -0.029198902433877374 0.00073794452804172301 0.002799948661053442 -0.05683935687727857 -0.030619894596768484 0.059135749395796293 -0.013831059047626049 -0.013831059047626049 0.0021903924000037378 -0.059234317930619979 0.00076839216931254848 -7.4842117404827491e-05 -0.0066432707710477289 0 -0.089770074896209986 0 0.00076839216931254848 -0.0031044211839801623 5.3978576275426352e-09 0 0.0021903924000037378 0 -0.013831059047626049 -0.00073794452804172301 -0.013831059047626049 -0.029198902433877374 1.4038153759782756e-06 -0.037419318633978273 0\nleaf_weight=95 12146 134 514 3673 210 746 2719 93 39 22 130 200 145 85 66 20 98 395 323 202 167 36 70 33 2859 94 130 518 154 42\nleaf_count=95 12146 134 514 3673 210 746 2719 93 39 22 130 200 145 85 66 20 98 395 323 202 167 36 70 33 2859 94 130 518 154 42\ninternal_value=0 -0.00134813 -0.00859975 0.000822515 -0.0262086 -0.0053392 0.00184358 -0.00454649 -0.00599526 -0.0104206 -0.0192386 -0.00787758 -0.00400243 -0.0151835 -0.0125355 -0.00410987 -0.02375 -0.00355988 -0.00814031 -0.00130482 -0.00573501 -0.0103968 -0.0183108 -0.0243651 0.000644519 -0.0243233 -0.0140385 -0.00370945 -0.00583333 -0.0253571\ninternal_weight=0 14012 3228 10784 604 1533 9251 2624 2110 749 394 629 411 218 211 1438 120 1361 449 912 517 315 148 126 6532 133 260 1418 900 112\ninternal_count=26158 14012 3228 10784 604 1533 9251 2624 2110 749 394 629 411 218 211 1438 120 1361 449 912 517 315 148 126 6532 133 260 1418 900 112\nis_linear=0\nshrinkage=0.05\n\n\nTree=25\nnum_leaves=31\nnum_cat=0\nsplit_feature=14 0 14 12 0 12 12 13 14 12 12 0 13 3 8 12 2 0 0 13 1 12 13 0 13 12 12 2 2 0\nsplit_gain=109.526 80.4918 94.113 27.9894 22.0213 16.5422 10.6342 8.36153 9.76731 26.5467 26.2712 20.4559 21.0556 16.9043 10.3287 8.26896 7.32279 6.51116 5.49371 4.71154 3.84088 3.48398 3.39507 3.6735 3.49051 3.38012 3.36111 3.32319 2.77778 2.56682\nthreshold=29.500000000000004 10.500000000000002 27.500000000000004 28.650000000000002 13.500000000000002 26.050000000000004 31.050000000000004 27.500000000000004 28.500000000000004 27.650000000000002 28.150000000000002 12.500000000000002 28.500000000000004 5.5000000000000009 24.650000000000002 27.250000000000004 0.9989598388634241 12.500000000000002 14.500000000000002 26.500000000000004 -0.38242426011641079 30.750000000000004 27.500000000000004 9.5000000000000018 26.500000000000004 25.650000000000002 28.050000000000004 -0.24372464231556024 -0.72694848937061807 11.500000000000002\ndecision_type=10 2 8 2 2 2 2 8 10 2 2 2 10 2 2 2 2 2 2 10 2 2 10 2 10 2 2 2 2 2\nleft_child=1 3 4 5 15 25 -5 -4 9 14 -10 -12 -13 -14 -9 -3 22 -16 -15 20 27 -11 23 -7 -25 -1 -18 -17 -27 -22\nright_child=-2 2 7 6 -6 16 -8 8 10 21 11 12 13 18 17 19 26 -19 -20 -21 29 -23 -24 24 -26 28 -28 -29 -30 -31\nleaf_value=-0.027738957312183565 0.013869478656091694 -0.027738957312183565 0.00070104730163969011 0.0096470946037557331 -0.053997389033414583 -0.029088899866930085 0.056178961926006465 0.0038530625890157212 0.00072997256084690327 -0.0077454502989967415 0 0.0020808727800035952 4.1742906020658669e-09 0 -0.013139506095244792 -0.016710302842239601 -0.085032440435909906 -0.013139506095244792 0 -0.027738957312183565 -0.057976829220176454 -0.17540412158415519 0.0002920409825324518 -0.045642806288507809 -0.042756113578029969 -0.016646440816058573 -0.045010297227665419 -0.056753466262739721 -0.066646440816058569 -0.057378905380180117\nleaf_weight=50 12146 134 514 4941 210 2152 2719 26 595 434 481 83 40 141 91 38 25 109 89 130 27 21 615 91 126 25 20 34 20 31\nleaf_count=50 12146 134 514 4941 210 2152 2719 26 595 434 481 83 40 141 91 38 25 109 89 130 27 21 615 91 126 25 20 34 20 31\ninternal_value=0 -0.0014873 -0.00841388 0.000586054 -0.0262086 -0.00340269 0.00221279 -0.00431784 -0.0057109 -0.0106388 -0.00336249 -0.00908873 -0.0182295 -0.025 -0.024646 -0.0192386 -0.00275834 -0.0285 -0.0302174 -0.0140385 -0.0207692 -0.00368132 -0.00245643 -0.00331574 -0.00951613 -0.0239474 -0.0227778 -0.0130556 -0.0338889 -0.0303448\ninternal_weight=0 14012 3228 10784 604 3124 7660 2624 2110 681 1429 834 353 270 226 394 3029 200 230 260 130 455 2984 2369 217 95 45 72 45 58\ninternal_count=26158 14012 3228 10784 604 3124 7660 2624 2110 681 1429 834 353 270 226 394 3029 200 230 260 130 455 2984 2369 217 95 45 72 45 58\nis_linear=0\nshrinkage=0.05\n\n\nTree=26\nnum_leaves=31\nnum_cat=0\nsplit_feature=14 0 14 12 0 12 13 14 12 12 0 13 3 8 13 12 2 0 0 4 13 0 2 2 12 12 11 6 2 14\nsplit_gain=104.759 83.1101 92.6948 23.5874 22.5824 20.5489 8.36153 9.76731 26.5467 26.2712 20.4559 21.0556 16.9043 10.3287 7.78147 7.3653 6.75644 6.51116 5.49371 4.09334 4.02988 5.30232 3.71488 3.58339 3.90766 3.48398 3.07201 2.82196 2.44888 2.39206\nthreshold=29.500000000000004 10.500000000000002 27.500000000000004 26.150000000000002 13.500000000000002 30.850000000000005 27.500000000000004 28.500000000000004 27.650000000000002 28.150000000000002 12.500000000000002 28.500000000000004 5.5000000000000009 24.650000000000002 26.500000000000004 27.950000000000003 0.9989598388634241 12.500000000000002 14.500000000000002 27.550000000000004 26.500000000000004 8.5000000000000018 0.50370931781787065 0.84658398682345093 27.250000000000004 30.750000000000004 88.500000000000014 28.050000000000004 0.1318557721318592 25.500000000000004\ndecision_type=10 2 8 2 2 2 8 10 2 2 2 10 2 2 10 2 2 2 2 2 10 2 2 2 2 2 2 2 2 10\nleft_child=1 3 4 -1 14 15 -4 8 13 -9 -11 -12 -13 -8 23 16 20 -15 28 22 21 -5 -16 24 -3 -10 -17 -26 -14 -23\nright_child=-2 2 6 5 -6 -7 7 9 25 10 11 12 18 17 19 26 -18 -19 -20 -21 -22 29 -24 -25 27 -27 -28 -29 -30 -31\nleaf_value=-0.026352009446574343 0.013176004723287171 -0.016598179109147005 0.00066599493655772335 -0.027634454873583538 -0.051297519581743778 0.053370013829706055 0.0036604094595649173 0.00069347393280452254 -0.0073581777840468418 0 0.0019768291410034778 3.9655761341350624e-09 0 -0.012482530790482472 -0.026352009446574343 0.016216631391010632 -0.081029949129603915 -0.012482530790482472 0 -0.024043153097373173 0.00028527642115783181 -0.031512802471546239 -0.026352009446574343 -0.053388708667966314 -0.017725469189181112 -0.16663391550494744 -0.00076833557577113973 -0.098902745263770034 0 -0.033720046295607285\nleaf_weight=110 12146 66 514 737 210 3093 26 595 434 481 83 40 71 91 70 2283 20 109 89 77 518 20 42 26 91 21 3875 22 70 128\nleaf_count=110 12146 66 514 737 210 3093 26 595 434 481 83 40 71 91 70 2283 20 109 89 77 518 20 42 26 91 21 3875 22 70 128\ninternal_value=0 -0.00134456 -0.0083829 0.000762241 -0.026043 0.000999625 -0.00431784 -0.0057109 -0.0106388 -0.00336249 -0.00908873 -0.0182295 -0.025 -0.024646 -0.0189848 -0.000401662 -0.00364371 -0.0285 -0.0302174 -0.0116667 -0.00323236 -0.00528249 -0.0177679 -0.0257317 -0.0232123 -0.00368132 0.000347516 -0.0175664 -0.024078 -0.0139189\ninternal_weight=0 14012 3228 10784 604 10674 2624 2110 681 1429 834 353 270 226 394 7581 1423 200 230 189 1403 885 112 205 179 455 6158 113 141 148\ninternal_count=26158 14012 3228 10784 604 10674 2624 2110 681 1429 834 353 270 226 394 7581 1423 200 230 189 1403 885 112 205 179 455 6158 113 141 148\nis_linear=0\nshrinkage=0.05\n\n\nTree=27\nnum_leaves=31\nnum_cat=0\nsplit_feature=14 0 14 12 12 12 13 13 0 12 14 13 12 3 11 12 0 2 13 0 0 14 12 7 11 12 0 2 1 4\nsplit_gain=96.6728 67.8357 60.7366 28.5381 23.6825 19.9922 7.27777 7.21563 7.07916 10.8201 35.1462 32.8116 18.8386 16.9043 5.8907 5.55703 5.49371 5.12435 3.87937 5.20729 3.81099 3.17472 4.08457 4.63157 2.84363 2.80102 2.47473 2.44888 2.28436 2.22207\nthreshold=29.500000000000004 10.500000000000002 27.500000000000004 27.650000000000002 26.150000000000002 30.850000000000005 25.500000000000004 27.500000000000004 12.500000000000002 28.150000000000002 28.500000000000004 28.500000000000004 27.650000000000002 5.5000000000000009 99.500000000000014 27.950000000000003 14.500000000000002 0.99748108949426018 26.500000000000004 8.5000000000000018 12.500000000000002 28.500000000000004 27.950000000000003 26.250000000000004 88.500000000000014 28.050000000000004 12.500000000000002 0.1318557721318592 -0.75015329512557194 27.850000000000005\ndecision_type=10 2 10 2 2 2 8 10 2 2 10 10 2 2 2 2 2 2 10 2 2 10 2 2 2 2 2 2 2 2\nleft_child=1 4 3 14 -1 15 26 -4 21 10 12 -11 -10 -13 -3 18 27 28 19 -6 -16 22 23 -9 -17 -23 -5 -15 29 -8\nright_child=-2 2 7 6 5 -7 17 8 9 11 -12 13 -14 16 20 24 -18 -19 -20 -21 -22 25 -24 -25 -26 -27 -28 -29 -30 -31\nleaf_value=-0.025034408974245539 0.01251720448712277 -0.019474725046761406 0.00063269518972983727 -0.064029546539988644 -0.02625273212990429 0.050701513138220737 -0.041791932331915665 -0.011858404250958366 -0.011858404250958366 0.0014097983654753907 0.0006588002361642254 3.7672974073643671e-09 -0.0010481291648568249 0 -0.025034408974245539 0.015405799821460101 0 -0.10018124213606186 0.00027101260009985143 -0.035676218326702772 -0.025034408974245539 0.0006588002361642254 -0.0068664092734641363 -0.011858404250958366 -0.00072991879698260933 0 -0.097006531278479927 0 -0.03212623875559692 -0.017103931244903066\nleaf_weight=110 12146 47 514 28 749 3093 39 72 109 181 386 40 66 71 105 2283 89 20 520 154 168 180 177 77 3875 510 31 70 198 50\nleaf_count=110 12146 47 514 28 749 3093 39 72 109 181 386 40 66 71 105 2283 89 20 520 154 168 180 177 77 3875 510 31 70 198 50\ninternal_value=0 -0.00109478 -0.00745353 -0.020656 0.000808606 0.00104647 -0.0111202 -0.00389064 -0.00523176 -0.0081917 -0.00355615 -0.0139579 -0.0221429 -0.025 -0.0315625 -0.000335707 -0.0302174 -0.00802932 -0.00315179 -0.00513289 -0.0343773 -0.00228346 -0.00634969 -0.0124497 0.000315038 -0.000362319 -0.0272034 -0.024078 -0.00632404 -0.0129775\ninternal_weight=0 14012 3228 686 10784 10674 366 2542 2028 1012 561 451 175 270 320 7581 230 307 1423 903 273 1016 326 149 6158 690 59 141 287 89\ninternal_count=26158 14012 3228 686 10784 10674 366 2542 2028 1012 561 451 175 270 320 7581 230 307 1423 903 273 1016 326 149 6158 690 59 141 287 89\nis_linear=0\nshrinkage=0.05\n\n\nTree=28\nnum_leaves=31\nnum_cat=0\nsplit_feature=14 12 14 0 0 14 13 12 14 12 1 3 13 7 12 14 13 0 3 0 8 3 11 11 2 0 12 2 13 0\nsplit_gain=114.892 54.974 33.8871 33.5726 24.5362 15.1617 23.7031 13.0141 10.7053 8.11324 7.63387 6.19048 5.61556 4.44741 4.25088 15.2581 14.6791 34.9763 11.8378 5.83443 4.37091 4.14342 3.93456 3.80865 4.36013 3.73825 3.70484 3.33333 2.6949 2.6847\nthreshold=29.500000000000004 27.350000000000005 28.500000000000004 11.500000000000002 10.500000000000002 27.500000000000004 27.500000000000004 26.050000000000004 26.500000000000004 31.550000000000004 0.57077594689671507 11.500000000000002 24.500000000000004 25.850000000000005 28.150000000000002 28.500000000000004 28.500000000000004 13.500000000000002 5.5000000000000009 12.500000000000002 26.950000000000003 5.5000000000000009 99.500000000000014 95.500000000000014 0.9863035000474919 12.500000000000002 25.650000000000002 -0.72694848937061807 1.0000000180025095e-35 12.500000000000002\ndecision_type=10 2 10 2 2 10 10 2 10 2 2 2 10 2 2 10 10 2 2 2 2 2 2 2 2 2 2 2 10 2\nleft_child=1 2 3 7 9 22 -7 26 10 23 12 13 -6 -9 15 -10 20 19 -19 -18 -16 -21 -5 28 -25 -8 -1 -28 -3 -14\nright_child=-2 4 -4 5 8 6 25 11 14 -11 -12 -13 29 -15 16 -17 17 18 -20 21 -22 -23 -24 24 -26 -27 27 -29 -30 -31\nleaf_value=-0.023782688525533224 0.011891344262766702 -0.072314214025045773 0.0019092154325550227 -0.014794533901351593 -0.095172180029258702 0.00060106043024337201 -0.011265484038410456 -0.024940095523409058 -0.011265484038410456 0.048166437481309644 -0.084077061321001012 -0.023782688525533224 -0.049051126359400177 -0.023782688525533224 -0.012389876034518282 0.00062586022435606736 0 4.532606645568649e-09 0 3.5789325281143649e-09 0.0018074977656795 0 -0.023782688525533224 -0.0011084893131899421 -0.056402230271236677 -0.011265484038410456 -0.015443163186611942 -0.060744797854214563 0.0039280589498755349 -0.050032645918052933\nleaf_weight=58 12146 63 277 20 28 77 32 608 405 1854 66 30 44 64 354 482 453 20 145 20 349 85 181 4144 109 77 30 24 3885 28\nleaf_count=58 12146 63 277 20 28 77 32 608 405 1854 66 30 44 64 354 482 453 20 145 20 349 85 181 4144 109 77 30 24 3885 28\ninternal_value=0 -0.0016443 -0.0107645 -0.0144005 -0.000568853 -0.0265245 -0.0162366 -0.00863636 -0.0050242 0.000529587 -0.0172892 -0.00611111 -0.026 -0.00511905 -0.00414397 -0.00142616 -0.0058345 -0.0108368 -0.0310606 -0.00485663 -0.0006899 -0.0154762 -0.0360448 -0.000145714 -0.00118387 -0.0312385 -0.0244643 -0.0338889 0.000972645 -0.0186111\ninternal_weight=0 14012 1478 1201 12534 387 186 814 2479 10055 166 702 100 672 2313 887 1426 723 165 558 703 105 201 8201 4253 109 112 54 3948 72\ninternal_count=26158 14012 1478 1201 12534 387 186 814 2479 10055 166 702 100 672 2313 887 1426 723 165 558 703 105 201 8201 4253 109 112 54 3948 72\nis_linear=0\nshrinkage=0.05\n\n\nTree=29\nnum_leaves=31\nnum_cat=0\nsplit_feature=14 12 14 0 0 14 13 12 12 14 3 2 1 12 13 0 14 3 0 7 3 11 0 0 12 2 11 10 2 1\nsplit_gain=112.315 55.8811 33.8871 33.5726 21.1422 15.1617 23.7031 13.0141 8.08625 7.48952 6.19048 6.01031 6.26423 4.68428 15.7261 34.9763 13.3207 11.8378 5.83443 4.44741 4.14342 3.93456 3.91731 3.73825 3.70484 3.33333 3.03468 2.90292 2.5039 3.7076\nthreshold=29.500000000000004 27.350000000000005 28.500000000000004 11.500000000000002 10.500000000000002 27.500000000000004 27.500000000000004 26.050000000000004 31.550000000000004 26.500000000000004 11.500000000000002 -0.24372464231556024 0.55656748448714433 28.150000000000002 28.500000000000004 13.500000000000002 28.500000000000004 5.5000000000000009 12.500000000000002 25.850000000000005 5.5000000000000009 99.500000000000014 13.500000000000002 12.500000000000002 25.650000000000002 -0.72694848937061807 95.500000000000014 91.500000000000014 -0.99628250747696534 -0.65234524191686594\ndecision_type=10 2 10 2 2 10 10 2 2 10 2 2 2 2 10 2 10 2 2 2 2 2 2 2 2 2 2 2 2 2\nleft_child=1 2 3 7 8 21 -7 24 26 11 19 -6 -13 16 22 18 27 -17 -16 28 -20 -5 -15 -8 -1 -26 -3 -11 -9 -30\nright_child=-2 4 -4 5 9 6 23 10 -10 13 -12 12 -14 14 15 17 -18 -19 20 -21 -22 -23 -24 -25 25 -27 -28 -29 29 -31\nleaf_value=-0.022593554099256608 0.011296777049628304 0.0024742250210249761 0.0018137546609272805 -0.014054807206284005 -0.025829071776253695 0.00057100740873128331 -0.010702209836489908 -0.065661851840249627 0.045758115607244146 -0.010702209836489908 -0.022593554099256608 -0.089367458037269476 -0.099463307678416046 -0.0091649083036545852 0 4.3059763754627059e-09 0.00059456721313821959 0 3.3999858928268625e-09 -0.022593554099256608 0 -0.022593554099256608 0.0017171228773955605 -0.010702209836489908 -0.014671005027281426 -0.057707557961503758 -0.0017781380530308866 -0.010702209836489908 -0.023693090747238622 0.0062620797468015965\nleaf_weight=58 12146 3948 277 20 55 77 32 41 1854 374 30 58 53 425 453 20 482 145 20 64 85 181 278 77 30 24 4253 31 344 223\nleaf_count=58 12146 3948 277 20 55 77 32 41 1854 374 30 58 53 425 453 20 482 145 20 64 85 181 278 77 30 24 4253 31 344 223\ninternal_value=0 -0.00156937 -0.0107645 -0.0144005 -0.00048508 -0.0265245 -0.0162366 -0.00863636 0.00053456 -0.00462081 -0.00611111 -0.0148795 -0.0215766 -0.00388457 -0.00565919 -0.0108368 -0.00103157 -0.0310606 -0.00485663 -0.00511905 -0.0154762 -0.0360448 -0.000334281 -0.0312385 -0.0244643 -0.0338889 -0.000139617 -0.00771605 -0.00379934 -0.00293651\ninternal_weight=0 14012 1478 1201 12534 387 186 814 10055 2479 702 166 111 2313 1426 723 887 165 558 672 105 201 703 109 112 54 8201 405 608 567\ninternal_count=26158 14012 1478 1201 12534 387 186 814 10055 2479 702 166 111 2313 1426 723 887 165 558 672 105 201 703 109 112 54 8201 405 608 567\nis_linear=0\nshrinkage=0.05\n\n\nTree=30\nnum_leaves=31\nnum_cat=0\nsplit_feature=14 0 14 12 14 12 0 13 3 12 13 0 14 12 0 0 8 0 13 12 1 2 12 2 4 14 12 4 2 11\nsplit_gain=101.95 28.1467 27.3446 18.1571 10.394 17.0712 22.5915 34.2386 16.9043 13.8057 11.0925 17.0954 11.0015 9.32272 7.07387 6.85154 6.25524 5.49371 5.03976 3.8325 3.73706 3.32875 3.31169 3.23068 2.74014 2.60349 3.4547 3.35403 2.44888 2.32269\nthreshold=29.500000000000004 9.5000000000000018 26.500000000000004 26.150000000000002 28.500000000000004 28.150000000000002 12.500000000000002 28.500000000000004 5.5000000000000009 27.650000000000002 27.500000000000004 12.500000000000002 27.500000000000004 29.050000000000004 13.500000000000002 10.500000000000002 25.450000000000003 14.500000000000002 25.500000000000004 31.550000000000004 -0.8781231054254196 -0.21862536810265826 27.150000000000002 0.82777578779003613 25.850000000000005 27.500000000000004 30.750000000000004 27.850000000000005 0.1318557721318592 99.500000000000014\ndecision_type=10 2 8 2 10 2 2 10 2 2 10 2 8 2 2 2 2 2 10 2 2 2 2 2 2 10 2 2 2 2\nleft_child=1 3 18 -1 9 -6 -7 -8 -9 10 12 16 14 23 15 -4 -12 28 21 29 -17 -3 -16 -5 -20 26 27 -11 -10 -15\nright_child=-2 2 4 13 5 6 7 8 17 25 11 -13 -14 19 22 20 -18 -19 24 -21 -22 -23 -24 -25 -26 -27 -28 -29 -30 -31\nleaf_value=-0.021463876394293813 0.010731938197146818 -0.050032226785167791 -0.025667030007204952 -0.00066635969170416589 0.00056483885248130865 0 0.001631266733525827 3.229986589303735e-09 0 -0.042554623569793386 -0.0027923502673113895 -0.010167099344665332 0.00054245703829476361 0.036001673238644116 0.0010024942187239817 -0.012364528081621022 -0.010167099344665332 0 -0.042653291998245954 0.043470209826881857 -0.021602868448986883 -0.085988579430875844 -0.00021793321877030538 -0.045979638964325477 -0.048153643320597787 -0.0016892311503793778 -0.14470326430558864 -0.0045044177940568812 0 -0.00096415794487896282\nleaf_weight=88 12146 38 73 2812 817 1112 167 40 71 212 100 109 144 2982 68 25 74 89 24 1760 106 56 42 372 113 889 26 229 70 1304\nleaf_count=88 12146 38 73 2812 817 1112 167 40 71 212 100 109 144 2982 68 25 74 89 24 1760 106 56 42 372 113 889 26 229 70 1304\ninternal_value=0 -0.00125892 -0.00441628 0.000331616 -0.00354806 -0.00127642 -0.00436088 -0.0139931 -0.025 -0.00611111 -0.0115992 -0.0193816 -0.00679039 0.000547129 -0.0120382 -0.017549 -0.00965517 -0.0302174 -0.0211905 0.0017003 -0.0243893 -0.0301064 -0.00181818 -0.00164259 -0.015073 -0.00311209 -0.0061349 -0.0050907 -0.024078 0.000893607\ninternal_weight=0 14012 4694 9318 4463 2366 1549 437 270 2097 741 283 458 9230 314 204 174 230 231 6046 131 94 110 3184 137 1356 467 441 141 4286\ninternal_count=26158 14012 4694 9318 4463 2366 1549 437 270 2097 741 283 458 9230 314 204 174 230 231 6046 131 94 110 3184 137 1356 467 441 141 4286\nis_linear=0\nshrinkage=0.05\n\n\nTree=31\nnum_leaves=31\nnum_cat=0\nsplit_feature=14 12 14 7 13 12 0 13 3 14 12 0 14 12 0 0 0 12 7 8 3 2 2 4 0 14 6 11 2 0\nsplit_gain=98.8356 27.5947 24.2181 16.5428 14.5259 11.1455 13.2552 11.8221 11.0343 11.0266 10.4658 14.9434 10.1478 9.69586 9.63021 7.66129 5.6608 5.4668 5.11912 4.80138 4.12613 3.99253 3.90242 3.69353 3.61715 7.61927 3.02823 2.82755 2.74286 2.49308\nthreshold=29.500000000000004 27.550000000000004 28.500000000000004 27.750000000000004 28.500000000000004 26.050000000000004 10.500000000000002 27.500000000000004 5.5000000000000009 27.500000000000004 28.150000000000002 13.500000000000002 26.500000000000004 31.550000000000004 12.500000000000002 13.500000000000002 13.500000000000002 25.650000000000002 26.250000000000004 27.150000000000002 11.500000000000002 0.73136292505298039 0.1318557721318592 27.250000000000004 9.5000000000000018 27.500000000000004 24.950000000000003 99.500000000000014 -0.72694848937061807 14.500000000000002\ndecision_type=10 2 10 2 8 2 2 10 2 10 2 2 10 2 2 2 2 2 2 2 2 2 2 2 2 10 2 2 2 2\nleft_child=1 2 5 13 12 15 20 9 -6 16 -10 19 -5 24 18 17 21 -1 -9 -12 -7 27 -21 -18 -3 26 -26 -8 -19 -16\nright_child=-2 3 -4 4 8 6 7 14 10 -11 11 -13 -14 -15 29 -17 23 28 -20 22 -22 -23 -24 -25 25 -27 -28 -29 -30 -31\nleaf_value=-0.020390682574579169 0.010195341287289494 0.0014210262192969837 0.0016948249852569931 -0.080502156155145083 -0.0012325023583398933 -0.021359693142490067 -0.011353975398856065 -0.008438316931529936 0.00053659690985732313 0.00051533418637994544 3.7421058703301925e-06 0 0.00053659690985732313 0.04129669933553775 -0.009658744377431994 -0.009658744377431994 0.00095236950778776475 -0.020383732971844461 -0.009658744377431994 0 -0.043517284460441431 -0.036552175563494237 0 -0.043500398482002101 -0.088728612010562785 0 -0.038564262400748998 -0.020383732971844461 -0.053803537890033698 -0.009658744377431994\nleaf_weight=75 12146 6786 359 25 133 807 26 51 44 111 45 113 372 1862 52 48 63 40 45 43 35 22 57 28 23 2128 452 93 30 44\nleaf_count=75 12146 6786 359 25 133 807 26 51 44 111 45 113 372 1862 52 48 63 40 45 43 35 22 57 28 23 2128 452 93 30 44\ninternal_value=0 -0.00116257 -0.00671591 -0.000276007 -0.00707933 -0.0093949 -0.00781772 -0.013972 -0.0133908 -0.00841108 -0.0186755 -0.0225194 -0.000163728 0.000227091 -0.0239062 -0.0206477 -0.0146121 -0.0263793 -0.0127083 -0.0118966 -0.00390736 -0.0208865 -0.018 -0.00489011 -0.000426563 -0.00201114 -0.00773684 -0.0172689 -0.0364286 -0.0351042\ninternal_weight=0 14012 1929 12083 832 1570 1377 535 435 343 302 258 397 11251 192 193 232 145 96 145 842 141 100 91 9389 2603 475 119 70 96\ninternal_count=26158 14012 1929 12083 832 1570 1377 535 435 343 302 258 397 11251 192 193 232 145 96 145 842 141 100 91 9389 2603 475 119 70 96\nis_linear=0\nshrinkage=0.05\n\n\nTree=32\nnum_leaves=31\nnum_cat=0\nsplit_feature=14 12 0 14 0 12 14 12 0 13 3 12 13 8 0 0 14 14 8 13 12 2 11 8 2 2 2 12 12 2\nsplit_gain=95.7693 27.343 22.6902 18.955 8.33333 7.90583 5.7116 16.8185 22.5915 34.2386 16.9043 11.2549 8.11733 13.2565 6.02647 5.49371 5.41433 5.2372 4.85186 4.24577 3.63184 2.96509 2.91889 2.63692 2.56208 2.44888 2.40074 2.31899 2.89626 2.67551\nthreshold=29.500000000000004 26.150000000000002 9.5000000000000018 26.500000000000004 13.500000000000002 31.550000000000004 28.500000000000004 28.150000000000002 12.500000000000002 28.500000000000004 5.5000000000000009 27.350000000000005 27.500000000000004 25.350000000000005 13.500000000000002 14.500000000000002 27.500000000000004 27.500000000000004 25.850000000000005 25.500000000000004 28.850000000000005 0.9989598388634241 99.500000000000014 26.250000000000004 -0.21862536810265826 0.1318557721318592 -0.14250536273956091 26.050000000000004 25.650000000000002 -0.72694848937061807\ndecision_type=10 2 2 8 2 2 10 2 2 10 2 2 10 2 2 2 10 10 2 10 2 2 2 2 2 2 2 2 2 2\nleft_child=1 4 5 19 17 20 11 -8 -9 -10 -11 12 14 -14 16 25 18 27 -5 24 21 -3 -22 26 -4 -12 -15 28 -1 -30\nright_child=-2 2 3 6 -6 -7 7 8 9 10 15 -13 13 23 -16 -17 -18 -19 -20 -21 22 -23 -24 -25 -26 -27 -28 -29 29 -31\nleaf_value=-0.019371148445850219 0.0096855742229250211 -0.0040372119661036265 -0.046523387274295419 -0.019364546323252265 -0.0091758071585603673 0.039231864368760944 0.00053659690985732313 0 0.0015228735513566961 6.1628186404405488e-05 0 -0.0091758071585603673 -0.008385138547228976 -0.0091758071585603673 0.00048956747706085935 0 0.00057007525938637118 -0.0040206602357127251 -0.019364546323252265 -0.044414803691146081 0.034130538265747037 -0.057895081521882857 -0.00098700135859992595 -0.0091758071585603673 -0.086073920435151927 0 -0.0091758071585603673 -0.02042430191065377 -0.019364546323252265 -0.051277016007650812\nleaf_weight=60 12146 2759 34 99 66 1760 801 1112 167 40 71 1562 69 28 101 89 35 26 32 118 3200 40 1471 43 39 70 30 23 40 27\nleaf_count=60 12146 2759 34 99 66 1760 801 1112 167 40 71 1562 69 28 101 89 35 26 32 118 3200 40 1471 43 39 70 30 23 40 27\ninternal_value=0 -0.00106623 -0.00077342 -0.0036674 -0.0177273 0.000650054 -0.00299034 -0.00131915 -0.00436088 -0.0139931 -0.025 -0.00495498 -0.0120481 -0.0205882 -0.00661049 -0.0302174 -0.0124699 -0.0234091 -0.0171374 -0.0190838 -6.02408e-05 -0.00148446 0.000793192 -0.0321287 -0.0285616 -0.024078 -0.0251724 -0.027 -0.0296457 -0.036791\ninternal_weight=0 14012 13770 4540 242 9230 4349 2350 1549 437 270 1999 437 170 267 230 166 176 131 191 7470 2799 4671 101 73 141 58 150 127 67\ninternal_count=26158 14012 13770 4540 242 9230 4349 2350 1549 437 270 1999 437 170 267 230 166 176 131 191 7470 2799 4671 101 73 141 58 150 127 67\nis_linear=0\nshrinkage=0.05\n\n\nTree=33\nnum_leaves=31\nnum_cat=0\nsplit_feature=14 0 12 14 12 13 14 12 12 13 0 13 3 0 14 0 0 7 11 2 1 2 0 8 4 0 13 0 13 12\nsplit_gain=92.4191 25.2129 18.141 12.8346 8.6656 4.8399 4.51478 26.6846 15.0351 19.4814 13.1585 35.5722 13.496 12.2602 12.1821 10.1118 5.49371 5.03154 3.88623 3.20692 3.10967 2.91176 2.90777 2.75012 2.74697 3.23108 2.7238 6.98977 3.79036 2.48123\nthreshold=29.500000000000004 10.500000000000002 26.150000000000002 26.500000000000004 31.550000000000004 25.500000000000004 28.500000000000004 28.150000000000002 27.650000000000002 27.500000000000004 12.500000000000002 28.500000000000004 5.5000000000000009 13.500000000000002 27.500000000000004 12.500000000000002 14.500000000000002 26.250000000000004 95.500000000000014 0.99681593486783593 -0.8781231054254196 0.77652048701313048 12.500000000000002 23.950000000000003 30.350000000000005 13.500000000000002 27.500000000000004 8.5000000000000018 25.500000000000004 27.250000000000004\ndecision_type=10 2 2 8 2 10 10 2 2 10 2 10 2 2 8 2 2 2 2 2 2 2 2 2 2 2 8 2 10 2\nleft_child=1 2 21 5 18 22 8 -8 9 13 -9 -12 -13 14 20 17 -14 -11 -4 26 -5 23 -3 -1 25 -10 27 -20 -29 -22\nright_child=-2 3 4 6 -6 -7 7 10 24 15 11 12 16 -15 -16 -17 -18 -19 19 -21 29 -23 -24 -25 -26 -27 -28 28 -30 -31\nleaf_value=-0.01840259102355777 0.0092012955117787964 -0.051563139032233224 0.0036226646017781163 -0.010029780423828263 0.037270271150322824 -0.035238086951952512 0.00050976706436447474 0 -0.014695928043725213 -0.0078756038642801961 0.0014467298737889324 5.8546777084167445e-05 0 0.00046508910320781639 0.00054157149641707034 -0.008717016800632393 0 -0.008717016800632393 -0.0016627244961703981 -0.063640955025057608 -0.018396319007089625 -0.01840259102355777 -0.070646214031271956 -0.019150534017094108 -0.1346951855853758 0.0010467329875370039 0.0022310979271189524 -0.088746914489618689 -0.035234580518732746 -0.019202579151124898\nleaf_weight=61 12146 34 4055 25 1854 77 735 502 542 59 167 40 141 193 56 109 89 52 2919 59 79 25 29 24 30 242 1123 69 595 27\nleaf_count=61 12146 34 4055 25 1854 77 735 502 542 59 167 40 141 193 56 109 89 52 2919 59 79 25 29 24 30 242 1123 69 595 27\ninternal_value=0 -0.000959178 0.000201224 -0.00483581 0.000409406 -0.0196429 -0.00416451 -0.00240741 -0.0062447 -0.01225 -0.00799254 -0.0143364 -0.0255556 -0.00539474 -0.0145187 -0.0240909 -0.0302174 -0.0134685 -0.000243764 -0.00121196 -0.0228626 -0.02 -0.0299206 -0.0244118 -0.00181818 -0.00125 -0.00106672 -0.00174016 -0.00637048 -0.0266038\ninternal_weight=0 14012 10784 3228 10674 140 3088 1674 1414 600 939 437 270 380 187 220 230 111 8820 4765 131 110 63 85 814 784 4706 3583 664 106\ninternal_count=26158 14012 10784 3228 10674 140 3088 1674 1414 600 939 437 270 380 187 220 230 111 8820 4765 131 110 63 85 814 784 4706 3583 664 106\nis_linear=0\nshrinkage=0.05\n\n\nTree=34\nnum_leaves=31\nnum_cat=0\nsplit_feature=14 0 12 14 12 13 14 12 12 13 0 13 3 0 14 0 0 7 12 2 1 12 2 0 4 0 8 2 12 2\nsplit_gain=92.3084 24.8576 18.1327 12.8883 9.3433 4.8399 4.3499 26.6846 15.3913 19.4814 13.1585 35.5722 13.496 12.2602 12.1821 10.1118 5.49371 5.03154 4.04514 3.51135 3.10967 3.05515 2.91176 2.90777 2.79261 3.06177 2.75012 2.50173 2.48123 2.44888\nthreshold=29.500000000000004 10.500000000000002 26.150000000000002 26.500000000000004 29.050000000000004 25.500000000000004 28.500000000000004 28.150000000000002 27.650000000000002 27.500000000000004 12.500000000000002 28.500000000000004 5.5000000000000009 13.500000000000002 27.500000000000004 12.500000000000002 14.500000000000002 26.250000000000004 31.550000000000004 0.9989598388634241 -0.8781231054254196 28.050000000000004 0.77652048701313048 12.500000000000002 30.350000000000005 13.500000000000002 23.950000000000003 0.99988440732898443 27.250000000000004 0.1318557721318592\ndecision_type=10 2 2 8 2 10 10 2 2 10 2 10 2 2 8 2 2 2 2 2 2 2 2 2 2 2 2 2 2 2\nleft_child=1 2 22 5 19 23 8 -8 9 13 -9 -12 -13 14 20 17 29 -11 27 -4 -5 -21 26 -3 25 -10 -1 -6 -22 -14\nright_child=-2 3 4 6 18 -7 7 10 24 15 11 12 16 -15 -16 -17 -18 -19 -20 21 28 -23 -24 -25 -26 -27 -28 -29 -30 -31\nleaf_value=-0.017482461472379817 0.00874123073618982 -0.048984982080621596 -0.002570952014841742 -0.0095282914026368591 0.032242878122370831 -0.033476182604354872 0.00048427871114622436 0 -0.013961131641538957 -0.0074818236710661196 0.001374393380099548 5.5619438230003484e-05 0 0.00044183464804739005 0.00051449292159624351 -0.0082811659606008454 0 -0.0082811659606008454 0.035406757592806669 -0.064452064185816657 -0.017476503056735204 -0.032108289074317307 -0.017482461472379817 -0.067113903329708416 -0.12796042630610702 0.00099439633816019867 -0.018193007316239435 -0.056365286286584319 -0.018242450193568724 0\nleaf_weight=61 12146 34 3840 25 4900 77 735 502 542 59 167 40 71 193 56 109 89 52 1854 25 79 30 25 29 30 242 24 25 27 